{"conv_input.weight": [[[[-0.05435442551970482, -0.013371097855269909, -0.011859260499477386], [-0.037407923489809036, -0.07442573457956314, 0.051676396280527115], [0.13054399192333221, 0.01172580011188984, 0.06028849631547928]], [[0.14504140615463257, -0.02824140340089798, 0.112697534263134], [-0.05342010036110878, -0.030035581439733505, 0.08577107638120651], [0.0003213238378521055, -0.018493488430976868, 0.1400243043899536]], [[-0.05122626945376396, 0.09231692552566528, 0.019935384392738342], [-0.16878986358642578, 0.19594764709472656, -0.012589949183166027], [-0.05796634405851364, -0.12988433241844177, 0.17851191759109497]]], [[[0.12092499434947968, 0.033239830285310745, 0.021326906979084015], [0.016042277216911316, -0.0614122599363327, 0.1317618042230606], [0.0693747028708458, 0.0597413033246994, 0.1256290078163147]], [[0.11265309900045395, 0.06358363479375839, -0.05100863799452782], [-0.046399135142564774, -0.14504501223564148, -0.034804023802280426], [0.11241854727268219, 0.04910951107740402, 0.028639785945415497]], [[0.026537790894508362, -0.020788075402379036, 0.054823264479637146], [-0.08197508752346039, -0.05269509181380272, 0.06208692118525505], [-0.05381585657596588, -0.006843785289674997, -0.13999231159687042]]], [[[0.0028855917043983936, -0.11784709244966507, 0.02162270061671734], [0.08716844767332077, -0.10224556922912598, -0.0822589173913002], [0.04042794182896614, -0.03388601168990135, 0.015809176489710808]], [[-0.0867481604218483, -0.08341120928525925, -0.16198301315307617], [0.0069539290852844715, -0.13662555813789368, 0.10288435965776443], [-0.06415192782878876, -0.04163225367665291, 0.08054874837398529]], [[0.13313010334968567, 0.08487820625305176, -0.036597397178411484], [0.1352902352809906, 0.010050997138023376, -0.1031329482793808], [-0.1178385317325592, -0.05969371274113655, -0.11725937575101852]]], [[[0.08327946066856384, -0.11398396641016006, 0.024377094581723213], [-0.19028088450431824, 0.013439682312309742, -0.16088610887527466], [-0.013934197835624218, -0.10556866973638535, -0.07372891157865524]], [[-0.07859458774328232, -0.11913201212882996, 0.05369986593723297], [-0.21286098659038544, -0.12041828781366348, -0.01880427449941635], [-0.07555097341537476, -0.23186621069908142, -0.2002411037683487]], [[-0.14076191186904907, -0.11543674021959305, -0.16227851808071136], [-0.2683805227279663, -0.24161916971206665, -0.2104608565568924], [-0.042044587433338165, -0.014103180728852749, -0.0745115801692009]]]], "conv_input.bias": [0.08348026126623154, 0.07124362140893936, -0.1550205945968628, -0.05640636757016182], "bn_input.weight": [0.7508068680763245, 0.7229161262512207, 0.9143802523612976, 1.045928955078125], "bn_input.bias": [0.008535410277545452, 0.020491549745202065, -0.03870975971221924, -0.09094171226024628], "bn_input.running_mean": [0.0, 0.0, 0.0, 0.0], "bn_input.running_var": [1.0, 1.0, 1.0, 1.0], "bn_input.num_batches_tracked": 0, "main_block.conv.weight": [[[[0.08372779935598373, 0.10619339346885681, 0.08939552307128906], [-0.07860339432954788, -0.08134283125400543, 0.1169361025094986], [-0.07608457654714584, 0.026164064183831215, -0.1338789314031601]], [[-0.044483210891485214, -0.04114759340882301, -0.007175210863351822], [0.033519960939884186, -0.01770627871155739, -0.03856810927391052], [0.10592743009328842, 0.10104282945394516, 0.1797133833169937]], [[-0.08794721215963364, 0.21940620243549347, -0.023861873894929886], [0.07257523387670517, 0.04005386680364609, 0.07595068216323853], [0.09957782179117203, 0.020001599565148354, 0.10571512579917908]], [[0.2220032513141632, 0.007906422019004822, -0.06019188091158867], [0.14493221044540405, 0.14819781482219696, 0.23598018288612366], [0.1687786877155304, 0.050529710948467255, 0.03095945343375206]]], [[[0.07056538015604019, -0.029328463599085808, 0.10669334977865219], [-0.1454387903213501, 0.04332992061972618, 0.05728680267930031], [0.020763002336025238, -0.1511840671300888, -0.04796998202800751]], [[-0.06251363456249237, 0.033941831439733505, 0.08947037905454636], [-0.07991389185190201, -0.12041503190994263, 0.13724994659423828], [0.08945950865745544, 0.026752490550279617, -0.10187024623155594]], [[0.0671844482421875, -0.004892372991889715, 0.1028805747628212], [0.026891542598605156, -0.08579577505588531, 0.005708953831344843], [0.09789662808179855, 0.006597248371690512, -0.10839270800352097]], [[0.025938285514712334, 0.1174355074763298, 0.08612639456987381], [0.06420398503541946, -0.09633108973503113, -0.10317972302436829], [-0.0648442953824997, -0.031234705820679665, 0.1700652539730072]]]], "main_block.conv.bias": [0.05165189504623413, -0.04592566192150116], "main_block.bn.weight": [0.9744704365730286, 0.9153503179550171], "main_block.bn.bias": [-0.09861409664154053, -0.04458300396800041], "main_block.bn.running_mean": [0.0, 0.0], "main_block.bn.running_var": [1.0, 1.0], "main_block.bn.num_batches_tracked": 0, "conv_policy.weight": [[[[-0.0718701183795929]], [[-0.181296244263649]]], [[[-0.18865792453289032]], [[0.1640245020389557]]], [[[0.1797599196434021]], [[-0.512712836265564]]], [[[0.3397257328033447]], [[0.3207782208919525]]]], "conv_policy.bias": [-0.25025510787963867, -0.2808518707752228, -0.04939224570989609, 0.4740387797355652], "bn_policy.weight": [0.8402953743934631, 0.8195579051971436, 0.7981456518173218, 0.7949232459068298], "bn_policy.bias": [0.1334579586982727, 0.15647870302200317, 0.04998260736465454, -0.10348590463399887], "bn_policy.running_mean": [0.0, 0.0, 0.0, 0.0], "bn_policy.running_var": [1.0, 1.0, 1.0, 1.0], "bn_policy.num_batches_tracked": 0, "fc_policy.weight": [[0.04194863140583038, 0.027437100186944008, -0.02111205831170082, -0.037388112396001816, 0.02441430278122425, 0.06358063220977783, -0.030495794489979744, -0.034446265548467636, -0.014800858683884144, -0.05559244379401207, 0.031922828406095505, -0.005686494521796703, -0.056476280093193054, 0.05542314425110817, 0.055419452488422394, -0.041275300085544586, -0.04538954421877861, 0.02862486056983471, 0.007307251915335655, -0.01248863898217678, -0.05177459865808487, 0.023736514151096344, 0.008083086460828781, 0.05183396115899086, -0.003895904403179884, -0.051607895642519, 0.005512225907295942, -0.04581402987241745, 0.009860477410256863, -0.0011325383093208075, -0.0069913240149617195, 0.044970765709877014, -0.00866580568253994, -0.06647306680679321, 0.024534381926059723, -0.04211074486374855, -0.05722155049443245, 0.01609484665095806, -0.06474952399730682, 0.052317213267087936, -0.05955604091286659, -0.0382009819149971, -0.0464286245405674, 0.048837076872587204, -0.05506303906440735, -0.016626879572868347, -0.015422221273183823, 0.03558911383152008, 0.04856995493173599, 0.045095473527908325, 0.0032219644635915756, -0.019275406375527382, -0.0054295421577990055, 0.01809932105243206, 0.00010450687113916501, 0.04726240783929825, 0.012022393755614758, -0.0028896841686218977, 0.034764908254146576, 0.0051616402342915535, 0.04442510008811951, -0.017833814024925232, 0.003897527465596795, 0.0006324978894554079, -0.03382406756281853, -0.00857482384890318, 0.034301482141017914, 0.028393032029271126, 0.06127957999706268, -0.04795939847826958, -0.03803637996315956, -0.028506848961114883, 0.030940238386392593, 0.011313758790493011, -0.01829061470925808, 0.06065334752202034, -0.03548700734972954, 0.002659052610397339, -0.033470865339040756, 0.042393144220113754, 0.011465255171060562, 0.022380951792001724, 0.026326019316911697, -0.0309764351695776, -0.045421019196510315, 0.04398214817047119, -0.050417426973581314, -0.05232296884059906, 0.061710771173238754, 0.063405342400074, 0.006415231619030237, 0.006046509835869074, -0.03540600836277008, -0.048125866800546646, 0.06286372989416122, -0.03150554746389389, 0.00905186589807272, 0.009654829278588295, 0.031629063189029694, 0.0249074324965477, -0.03745512291789055, -0.006388268433511257, 0.04218108206987381, -0.055103689432144165, 0.013499044813215733, 0.02660318650305271, -0.003469060407951474, 0.04429265484213829, 0.022006670013070107, 0.05090923607349396, -0.02736815996468067, 0.0009495139820501208, -0.03177174925804138, -0.039063263684511185, 0.05442343279719353, 0.005378206726163626, -0.02781451866030693, 0.04656423255801201, -0.03303616866469383, 0.004987164866179228, -0.05024448037147522, -0.05378945171833038, 0.006519521586596966, 0.01993894763290882, -0.0504612922668457, -0.02296055294573307, 0.06660948693752289, 0.009865890257060528, -0.09442088007926941, -0.018828867003321648, 0.016232702881097794, -0.034794919192790985, -0.05247289687395096, -0.0282520093023777, -0.012025801464915276, -0.054067134857177734, -0.03160175308585167, -0.009520115330815315, 0.0072179134003818035, 0.014128562062978745, 0.005678271874785423, 0.011618516407907009, -0.0576937235891819, -0.04207223281264305, -0.010560988448560238, -0.028627382591366768, -0.02214270830154419, -0.018997175619006157, 0.05069132521748543, 0.012361749075353146, 0.03708251938223839, -0.05797519162297249, 0.050021857023239136, 0.020541977137327194, -0.03162464499473572, 0.023402106016874313, 0.028591109439730644, -0.07905256003141403, -0.026180174201726913, -0.09485092014074326, 0.04600585997104645, 0.02398231066763401, -0.022217541933059692, 0.020588809624314308, -0.07658229023218155, 0.025650594383478165, -0.0054412465542554855, -0.08284632116556168, -0.06303650140762329, -0.03730996698141098, 0.02250813879072666, 0.005148367024958134, -0.036856722086668015, -0.015520218759775162, 0.033253807574510574, -0.0492529459297657, -0.0062102279625833035, 0.012824062258005142, -0.028112294152379036, 0.024773001670837402, -0.014561654068529606, -0.03670062869787216, -0.06218191236257553, -0.01640348695218563, -0.0051345303654670715, -0.015676984563469887, -0.050483494997024536, -0.0007617195369675756, 0.05716346204280853, -0.029883960261940956, -0.02802041359245777, 0.03140208497643471, -0.010340739972889423, 0.006309699732810259, 0.034821003675460815, -0.05380348488688469, 0.041743844747543335, 0.05912503972649574, 0.05755319446325302, -0.028761504217982292, -0.053574033081531525, 0.0743187889456749, 0.027400560677051544, 0.0352039709687233, -0.007107296958565712, 0.03005552664399147, 0.03179853782057762, -0.0647474005818367, 0.02318524569272995, -0.038695067167282104, 0.0027783960103988647, 0.02112674154341221, 0.035494428128004074, 0.010548834688961506, 0.05745048448443413, -0.0477694496512413, 0.036073487251996994, 0.014517804607748985, 0.0006851942744106054, 0.02195325866341591, 0.09824763238430023, -0.02983427420258522, -0.029090678319334984, 0.037194956094026566, -0.017734386026859283, 0.07665272802114487, 0.05187046900391579, 0.08107612282037735, -0.00897604413330555, 0.029310433194041252, -0.009861433878540993, 0.05096139758825302, -0.054581958800554276, 0.022301340475678444, 0.013463885523378849, -0.014008419588208199, 0.08040820062160492, 0.02431943640112877, -0.010446303524076939, 0.022373544052243233, 0.020033234730362892, 0.01668580062687397, 0.06296437978744507, 0.039320189505815506, 0.07512073963880539, -0.00221819756552577, -0.017468761652708054, 0.004645700566470623, -0.006346377078443766, 0.07671047002077103, -0.024180276319384575, 0.03617745265364647, 0.08022443950176239, 0.04854998365044594, 0.02093915268778801, 0.01716085523366928], [-0.03687373921275139, -0.008162846788764, 0.025416918098926544, -0.009672792628407478, -0.01640787534415722, 0.023499298840761185, 0.03758574277162552, -0.03395821526646614, -0.007326656021177769, -0.03751315176486969, 0.019798889756202698, -0.021553631871938705, 0.018101539462804794, 0.04560746252536774, 0.021514633670449257, -0.0011237699072808027, -0.05938129127025604, -0.02580302767455578, -0.05868182331323624, -0.055065177381038666, -0.03302806243300438, -0.03514092043042183, -0.06879734247922897, -0.05647069960832596, -0.013115978799760342, -0.06415755301713943, 0.004611952695995569, 0.00526242982596159, 0.005236304365098476, -0.0036224613431841135, -0.0571577288210392, 0.037320494651794434, -0.06811948865652084, 0.01596221886575222, 0.04444102942943573, 0.021910326555371284, -0.054225631058216095, -0.03801480308175087, 0.01338282786309719, -0.004495711997151375, -0.06029309332370758, -0.012337841093540192, -0.02112678810954094, 0.02786022052168846, -0.018968084827065468, -0.0013631985057145357, 0.008397757075726986, -0.010093950666487217, 0.04463546350598335, -0.07068368047475815, -0.007638148032128811, 0.00796008575707674, -0.05516304075717926, 0.009957768023014069, -0.04961640015244484, -0.05433667078614235, 0.04377468675374985, -0.031110640615224838, -0.05513494461774826, -0.00621417909860611, -0.05197347328066826, -0.01889621466398239, -0.06721340864896774, -0.06465523689985275, -0.04404603689908981, 0.019244680181145668, 0.011042117141187191, -0.052003566175699234, 0.003227958921343088, 0.0025417807046324015, -0.031233659014105797, 0.033941466361284256, 0.049154747277498245, -0.03866574913263321, 0.024032434448599815, 0.04377456381917, 0.028471022844314575, -0.012534573674201965, -0.06466139107942581, -0.0015205162344500422, -0.0001875516027212143, -0.02453535795211792, 0.01973855495452881, -0.015083741396665573, -0.04060022905468941, 0.02594642899930477, -0.03393988683819771, 0.03108084574341774, 0.008089534938335419, 0.029682407155632973, 0.03487175330519676, 0.029796982184052467, -0.053476106375455856, -0.051433924585580826, -0.007610211614519358, -0.04027567431330681, -0.02798272669315338, -0.030744129791855812, -0.053321052342653275, -0.0377407968044281, -0.014518612995743752, 0.04885697737336159, -0.01578851044178009, -0.004222357179969549, -0.048430800437927246, -0.039884477853775024, 0.02518698200583458, -0.061631835997104645, 0.03892490640282631, -0.029076045379042625, 0.008818051777780056, -0.007180775981396437, -0.017590338364243507, 0.0400427021086216, -0.05530734360218048, -0.04947667941451073, 0.03461531177163124, 0.002217200119048357, -0.03258231282234192, 0.04723191633820534, -0.0323142483830452, 0.0466577522456646, 0.028329068794846535, -0.022699741646647453, -0.016822736710309982, 0.010066350921988487, 0.00598503602668643, -0.0026018312200903893, -0.02159442938864231, 0.042832035571336746, -0.020395884290337563, -0.011659525334835052, -0.02236337400972843, 0.01924240030348301, 0.017936086282134056, -0.002182172844186425, 0.03812393173575401, 0.023654170334339142, 0.054142072796821594, -0.009456397034227848, -0.025220686569809914, -0.07265740633010864, -0.03585498407483101, -0.0362740196287632, -0.0034592081792652607, -0.05566888675093651, 0.03813944756984711, -0.005409566219896078, -0.01388049591332674, -0.04768065735697746, -0.03220963850617409, -0.033765025436878204, -0.019001128152012825, 0.02937895990908146, -0.010768326930701733, 0.025582144036889076, -0.03497686982154846, -0.04640750214457512, -0.0028795201797038317, 0.005901070311665535, -0.004322343971580267, -0.0017469641752541065, -0.04561331868171692, -0.04399748891592026, 0.015371314249932766, -0.011836899444460869, -0.0051865288987755775, -0.045215994119644165, -0.03382352739572525, -0.02988130785524845, 0.01586158014833927, -0.03891325369477272, -0.049820248037576675, 0.004852938465774059, 0.0075330124236643314, -0.05154489725828171, 0.044719625264406204, 0.0023906866554170847, -0.0018610372208058834, -0.021940013393759727, -0.04241781681776047, -0.026153312996029854, 0.018576255068182945, 0.024548828601837158, -0.05913863331079483, 0.02182932198047638, -0.05498379096388817, -0.052592549473047256, 0.04843180626630783, -0.02219155803322792, -0.04807138070464134, -0.03546476364135742, -0.05681183934211731, 0.031007705256342888, 0.07673390209674835, -0.035375773906707764, 0.0041817668825387955, -0.04513012245297432, 0.05164426192641258, 0.031848564743995667, -0.049371298402547836, 0.06205537170171738, 0.030381018295884132, 0.0683339461684227, 0.013436054810881615, 0.003918972797691822, -0.0006607851246371865, 0.04889078810811043, 0.009841319173574448, -0.037828851491212845, 0.06750357896089554, -0.04728584364056587, 0.05011584982275963, 0.037177674472332, -0.03475598618388176, -0.05018676444888115, 0.006974555552005768, -0.023108310997486115, 0.005606293678283691, 0.03052905574440956, 0.04821563512086868, 0.042110856622457504, 0.0627095028758049, 0.055513255298137665, -0.007575368043035269, 0.01744026131927967, 0.054812271147966385, -0.0006090272800065577, -0.004849364515393972, 0.04175906255841255, 0.013868124224245548, -0.040873561054468155, 0.02912561222910881, 0.06185827776789665, 0.019177250564098358, 0.02906833030283451, 0.06642378866672516, 0.027470232918858528, 0.026434432715177536, 0.06344282627105713, 0.028464633971452713, -0.0032800170592963696, -0.035869479179382324, -0.009533962234854698, 0.07079053670167923, 0.0410136841237545, -0.026631729677319527, -0.05531327426433563, 0.024618562310934067, 0.05077330768108368, 0.04438840225338936, -0.03474956005811691, -0.03579680249094963, 0.006480804644525051, -0.026694070547819138, 0.04760867357254028], [0.03852401673793793, -0.05205821618437767, 0.01336405798792839, 0.00884819496423006, 0.0030419635586440563, -0.038888316601514816, 0.035448819398880005, 0.04065123572945595, -0.030104294419288635, -0.06833630055189133, -0.03148293495178223, 0.028952741995453835, 0.01843017339706421, -0.0393267422914505, 0.031490255147218704, -0.004279798362404108, 0.006340751424431801, 0.04108627140522003, 0.03275507315993309, -0.009662126190960407, 0.040802963078022, 0.04913223907351494, 0.029229046776890755, 0.037806518375873566, -0.004448547028005123, 0.04445229470729828, 0.027765581384301186, -0.024125995114445686, 0.018585391342639923, -0.005007630679756403, -0.03690681979060173, -0.01971541717648506, -0.0013219111133366823, 0.031099162995815277, 0.027656255289912224, 0.006536060478538275, 0.023518314585089684, -0.004223844967782497, -0.007305982522666454, -0.016619883477687836, -0.028763284906744957, -0.035992857068777084, 0.014274812303483486, 0.0326288565993309, -0.019384684041142464, 0.0432371161878109, -0.014729317277669907, -0.023018335923552513, -0.05857144296169281, 0.012583544477820396, -0.031697098165750504, -0.010341791436076164, -0.04015883430838585, -0.037298135459423065, -0.06367209553718567, 0.04548173397779465, 0.046410806477069855, -0.01178917195647955, 0.051568180322647095, 0.05196700245141983, -0.028537584468722343, -0.014058481901884079, -0.04646526277065277, -0.033983275294303894, -0.0338294692337513, -0.022630391642451286, 0.015991153195500374, -0.007899658754467964, 0.046380989253520966, -0.0637320727109909, 0.017344869673252106, 0.025707174092531204, 0.012946657836437225, -0.041622597724199295, -0.05006948485970497, 0.013056416064500809, 0.02304193750023842, 0.03928273916244507, -0.007081372197717428, -0.06161348521709442, -0.072048120200634, -0.0695531815290451, -0.0687045082449913, -0.05213533341884613, -0.006238081958144903, -0.03434343263506889, -0.017907407134771347, -0.030785759910941124, -0.0809502974152565, 0.038649752736091614, -0.044943831861019135, 0.03332407400012016, -0.04047565907239914, -0.007330937311053276, 0.03708449751138687, 0.017255695536732674, 0.03654307499527931, -0.05892828851938248, -0.053997721523046494, -0.012919750064611435, -0.07997889816761017, -0.016897261142730713, -0.029986796900629997, -0.06488056480884552, 0.004008140880614519, -0.0040483251214027405, -0.042636092752218246, 0.02049688994884491, -0.008919048123061657, 0.040914878249168396, -0.05228523164987564, 0.04310091957449913, -0.06424245983362198, -0.011258424259722233, -0.0284111350774765, 0.03564471751451492, -0.05162971466779709, -0.03833622485399246, -0.03527185693383217, -0.010559004731476307, -0.0037651213351637125, -0.06832031905651093, -0.011159993708133698, -0.06224802881479263, 0.0032604553271085024, -0.04971081763505936, -0.0529094822704792, -0.046251773834228516, -0.03172275796532631, 0.024623066186904907, 0.021527519449591637, 1.970709126908332e-05, 0.02395123988389969, -0.07186819612979889, 0.025855323299765587, -0.045961201190948486, 0.02327420935034752, 0.023359844461083412, -0.02379276417195797, 0.018099041655659676, 0.012145700864493847, 0.029386060312390327, 0.02736232802271843, 0.037501055747270584, -0.02011655457317829, -0.01773197576403618, -0.026398206129670143, -0.0015096947317942977, -0.008886873722076416, 0.02404397539794445, 0.017816942185163498, -0.0021846964955329895, -0.03088529221713543, -0.0020107191521674395, 0.0021996835712343454, 0.00019094465824309736, 0.0516124926507473, -0.019707543775439262, -0.02058256044983864, 0.012024273164570332, 0.05796264484524727, -0.0016581700183451176, -0.055279556661844254, -0.004121128469705582, -0.0007384723867289722, -0.027989067137241364, 0.028432423248887062, 0.0027311902958899736, -0.019505668431520462, -0.015902018174529076, 0.004531654994934797, -0.012672723270952702, -0.009243032895028591, 0.043439459055662155, 0.027959315106272697, -0.0058595649898052216, -0.028490331023931503, 0.05221434682607651, 0.007720992900431156, 0.041694823652505875, -0.03405855596065521, -0.02920776978135109, 0.010855157859623432, -0.044577326625585556, 0.0412907674908638, -0.05833619087934494, 0.04865379258990288, 0.015013105235993862, -0.038859158754348755, 0.02251516282558441, 0.014302390627563, 0.020228663459420204, 0.004190079402178526, 0.07286619395017624, 0.06801677495241165, 0.014576475135982037, -0.019068848341703415, -0.042383529245853424, 0.013996184803545475, 0.022114120423793793, 0.05318482965230942, 0.020704757422208786, -0.02277492731809616, -0.024763701483607292, 0.06952318549156189, 0.05386066064238548, -0.012088146060705185, 0.0771104097366333, -0.034717366099357605, 0.05259044095873833, 0.02018614113330841, 0.06050223857164383, 0.008627115748822689, 0.025024062022566795, -0.009043650701642036, -0.019346529617905617, 0.043184854090213776, 0.011248373426496983, 0.025133123621344566, 0.014396850019693375, -0.05147124081850052, 0.04309642314910889, -0.0277890432626009, 0.029790379106998444, -0.0405767522752285, 0.0027598226442933083, 0.0724126324057579, 0.04902571439743042, 0.01994515396654606, 0.015616738237440586, -0.02001485601067543, 0.051251258701086044, 0.05592461675405502, -0.015385102480649948, 0.05509929731488228, 0.021053142845630646, -0.049351438879966736, 0.04754268378019333, -0.03383608162403107, 0.0364844873547554, -0.04279288649559021, -0.011028661392629147, 0.0027708832640200853, -0.01665869727730751, -0.030854882672429085, -0.04540823772549629, -0.0307364109903574, 0.011032352223992348, 0.021387144923210144, 0.05251939594745636, 0.0363457016646862, -0.0009456377592869103, 0.06412044912576675, -0.01697148010134697, 0.041069284081459045, -0.0323813371360302], [-0.06491903215646744, 0.00760232238098979, -0.03129486367106438, 0.014988744631409645, 0.002384481718763709, 0.02728046104311943, 0.0048515889793634415, -0.08353802561759949, 0.03373418375849724, -0.05202215909957886, -0.03821076825261116, -0.0576993003487587, 0.035653091967105865, -0.035527367144823074, -0.004174766596406698, 0.02927088551223278, -0.058110836893320084, -0.06922147423028946, -0.014307338744401932, 0.023332519456744194, -0.030430356040596962, -0.0019824295304715633, -0.022972019389271736, -0.02505038119852543, -0.05715545639395714, -0.07131782174110413, -0.06399897485971451, 0.008311541751027107, -0.07609545439481735, -0.02495814673602581, -0.03575057163834572, -0.0770508274435997, -0.07950218766927719, 0.006434192415326834, -0.029063589870929718, 0.00589828472584486, -0.04607880115509033, -0.0313207171857357, -0.06663637608289719, 0.043439701199531555, -0.0770762637257576, 0.03536876663565636, 0.004053540527820587, -0.025727100670337677, -0.026263991370797157, 0.01842435821890831, -0.062131118029356, -0.02079908549785614, -0.015793072059750557, -0.041647352278232574, 0.04390851408243179, -0.06868278235197067, -0.08237030357122421, 0.0002599785220809281, -0.042413752526044846, -0.058497074991464615, -0.05773152410984039, -0.04735207185149193, -0.0009279917576350272, -0.040947508066892624, -0.004200763534754515, -0.06988855451345444, 0.010373974218964577, 0.04324113577604294, 0.03226720541715622, -0.06327778846025467, -0.057432666420936584, 0.00949984509497881, -0.08074584603309631, -0.011472784914076328, 0.0012014363892376423, 0.013028996996581554, -0.07512291520833969, -0.05406593903899193, -0.08303496986627579, 0.035364583134651184, -0.051173239946365356, -0.05132439732551575, -0.021729640662670135, 0.012997389771044254, -0.05254745110869408, -0.03855004534125328, -0.007058979477733374, 0.020079391077160835, -0.07788116484880447, -0.02963714860379696, -0.04334157705307007, 0.0241533350199461, 0.028942639008164406, -0.08566228300333023, 0.01619780994951725, -0.08013682812452316, -0.07385054230690002, -0.024923060089349747, -0.05494965240359306, -0.06286390125751495, 0.022650571539998055, 0.004469174891710281, -0.08146365731954575, -0.005884339567273855, 0.023491796106100082, -0.004468606784939766, 0.032021891325712204, 0.017666585743427277, 0.022430187091231346, 0.03393277898430824, -0.031524550169706345, -0.06825350224971771, -0.005575048271566629, -0.034293897449970245, 0.01545879989862442, -0.07422531396150589, -0.028383689001202583, -0.003403248731046915, -0.004415665287524462, -0.053856849670410156, -0.06929551810026169, 0.027923570945858955, -0.04797644540667534, 0.0017627719789743423, -0.042016033083200455, -0.04660819098353386, 0.01846499741077423, -0.0204774122685194, -0.0807264968752861, -0.008587501011788845, -0.01950119063258171, -0.008882603608071804, -0.07571613043546677, -0.0325179398059845, 0.005069289822131395, -0.033026982098817825, -0.06215706840157509, -0.10885095596313477, -0.06076321005821228, -0.07127679139375687, -0.04686705023050308, 0.007326306309551001, -0.03814925625920296, 0.007946722209453583, 0.011423326097428799, -0.004905554465949535, 0.019577203318476677, -0.07304300367832184, 0.040113888680934906, 0.022289006039500237, -0.04461468756198883, -0.009334862232208252, -0.03720705583691597, -0.04251750186085701, 0.021879935637116432, 0.011704483069479465, 0.02764902636408806, -0.004426556173712015, 0.04845431074500084, -0.007178239990025759, 0.01642148569226265, 0.01578211598098278, 0.020904574543237686, -0.021825196221470833, 0.01283438690006733, 0.01986539550125599, 0.011511323042213917, 0.048142798244953156, 0.03123389557003975, 0.020760871469974518, -0.012784354388713837, -0.051752518862485886, 0.045884229242801666, 0.012232428416609764, -0.042613573372364044, 0.003279896220192313, -0.0036964332684874535, -0.04105325788259506, 0.000995079753920436, 0.04659494757652283, 0.04375528544187546, 0.0545835867524147, -0.009516657330095768, 0.03743349760770798, -0.06515590101480484, 0.06882181763648987, -0.038747940212488174, -0.039870161563158035, -0.033920906484127045, 0.04247863218188286, 0.034489475190639496, 0.04704241454601288, 0.03389529883861542, 0.034835085272789, 0.0326712429523468, 0.023473968729376793, 0.0570664219558239, 0.05807168409228325, -0.03027387522161007, -0.0030365583952516317, 0.009959233924746513, 0.05846691131591797, 0.002414761809632182, 0.003664423478767276, 0.03622462972998619, 0.06620430201292038, -0.04449226334691048, -0.02797328308224678, 0.042269349098205566, 0.01378495804965496, 0.020921850576996803, -0.03915444761514664, 0.039435796439647675, -0.024519726634025574, -0.017418155446648598, 0.03674029931426048, -0.04579145088791847, -0.022744592279195786, 0.057854633778333664, 0.015654511749744415, -0.01711496338248253, -0.015618869103491306, 0.029347674921154976, 0.03116421587765217, -0.017587527632713318, -0.02653653733432293, 0.04765539988875389, 0.033406537026166916, -0.0324283242225647, 0.011499457061290741, -0.01877855323255062, 0.05807926133275032, 0.054846297949552536, 0.06142038106918335, -0.030138449743390083, -0.009291076101362705, 0.004316339734941721, -0.027627795934677124, -0.03020448423922062, 0.016033725813031197, 0.057234395295381546, 0.014343911781907082, -0.0053567299619317055, 0.027351105585694313, -0.008608583360910416, 0.025586796924471855, 0.028333690017461777, 0.01049707643687725, -0.01251282263547182, 0.0052095213904976845, 0.039053983986377716, 0.02381201460957527, 0.010227690450847149, -0.05285877734422684, 0.034642983227968216, 0.049702297896146774, 0.03989429026842117, 0.008929994888603687, 0.054950863122940063, -0.019702274352312088], [0.02648664079606533, -0.06455803662538528, 0.0023516961373388767, 0.018669964745640755, -0.042919714003801346, -0.056753288954496384, -0.07565101236104965, -0.048627790063619614, 0.01268942654132843, -0.020543256774544716, -0.06990142166614532, 0.002160100033506751, 0.004248770885169506, 0.009629751555621624, 0.01425896119326353, 0.008183464407920837, -0.023127742111682892, 0.026547212153673172, 0.043102607131004333, 0.01831098645925522, -0.06780228763818741, -0.005099920555949211, 0.031033016741275787, -0.015469829551875591, -0.03542710095643997, -0.016162840649485588, -0.015582429245114326, 0.036089081317186356, 0.003537418320775032, -0.04691435769200325, 0.0049277301877737045, -0.06693954020738602, -0.08055814355611801, 0.03431883454322815, -0.03745751082897186, -0.05794348940253258, 0.022807922214269638, 0.0035399231128394604, -0.04188375174999237, -0.04877755418419838, 0.021038325503468513, -0.031127620488405228, 0.0001629691250855103, -0.006000836845487356, 0.03825273737311363, -0.06196031719446182, 0.031209466978907585, 0.008196011185646057, -0.0667044147849083, 0.028660790994763374, -0.01298515498638153, -0.013288675807416439, -0.01862184703350067, 0.025719162076711655, 0.00569235859438777, -0.06149975210428238, 0.019375449046492577, 0.01567053236067295, -0.012047736905515194, -0.06946294009685516, 0.04030611738562584, 0.01186364609748125, 0.013330142945051193, 0.007333895191550255, 0.03099115937948227, 0.00749250641092658, -0.06079283729195595, 0.024823933839797974, -0.024722013622522354, -0.014416256919503212, 0.01503739319741726, -0.06606796383857727, -0.05777911841869354, -0.029380885884165764, -0.05327671021223068, 0.024970367550849915, 0.01583581231534481, -0.008780207484960556, 0.04951903223991394, -0.025014463812112808, -0.034763745963573456, -0.0443669892847538, -0.05677405744791031, 0.00102460035122931, -0.0605471171438694, -0.0548647977411747, 0.012677395716309547, -0.029739301651716232, 0.01358267106115818, 0.031101740896701813, 0.028019683435559273, -0.02501767873764038, -0.06049221754074097, -0.028626006096601486, 0.014356194995343685, -0.06885974109172821, -0.028855161741375923, -0.03418176621198654, 0.014293178915977478, 0.028388148173689842, -0.03065779060125351, 0.0025286085437983274, -0.041198790073394775, -0.036102294921875, 0.014914363622665405, -0.042536187916994095, -0.061954315751791, -0.0191582553088665, 0.024410458281636238, -0.02437453344464302, -0.006461944431066513, 0.04575266316533089, 0.045081425458192825, -0.0052680945955216885, -0.028804466128349304, -0.05481024459004402, 0.0103648966178298, -0.042310457676649094, -0.012722862884402275, -0.0665859654545784, 0.033045992255210876, -0.058687251061201096, -0.056721702218055725, -0.06295734643936157, 0.008147520013153553, -0.010771221481263638, -0.014984785579144955, -0.028544599190354347, -0.052566032856702805, -0.054551851004362106, -0.0603349506855011, -0.005874276161193848, -0.03522944450378418, -0.05565517023205757, -0.0661681666970253, -0.052319351583719254, -0.015041423961520195, -0.055415213108062744, 0.004120728932321072, 0.02581755630671978, 0.03406057506799698, -0.02691001445055008, 0.017339931800961494, -0.050075236707925797, -0.047640107572078705, -0.014993740245699883, -0.05788937583565712, 0.0016351323574781418, -0.03870394080877304, -0.021009601652622223, -0.035473503172397614, -0.004450700245797634, -0.0034724113065749407, -0.022766845300793648, 0.0037087304517626762, -0.05659822002053261, 0.019495734944939613, -0.014792785979807377, 0.00939932744950056, -0.05812244862318039, 0.04441380128264427, 0.02730919048190117, -0.0037654652260243893, 0.010727680288255215, -0.034436989575624466, 0.016889136284589767, 0.014263703487813473, -0.0319242961704731, -0.009743533097207546, -0.04995674267411232, -0.01876799762248993, 0.06088126823306084, 0.04706469550728798, -0.04294551536440849, 0.013511882163584232, -0.06941550225019455, 0.012789476662874222, 0.025213032960891724, 0.04377441108226776, 0.039835572242736816, -0.028564784675836563, -0.014939033426344395, 0.039698563516139984, -0.10682609677314758, -0.014322871342301369, 0.059028878808021545, -0.011044768616557121, -0.026002978906035423, -0.01611316204071045, -0.022168120369315147, 0.0011661543976515532, -0.030890697613358498, 0.01874149776995182, 0.06625135242938995, 0.07085070013999939, -0.035266198217868805, 0.016027547419071198, -0.028681699186563492, 0.009839913807809353, 0.06472934782505035, -0.041611988097429276, 0.017453601583838463, 0.05235978588461876, 0.04326043277978897, 0.0645960345864296, 0.0693313404917717, 0.05271467939019203, -0.003681223839521408, 0.05260070785880089, 0.006604919210076332, -0.01719060353934765, 0.031051166355609894, -0.015840640291571617, 0.02827603742480278, 0.05736134946346283, -0.020182771608233452, 0.01887577958405018, 0.0317528136074543, 0.05949312821030617, -0.00012302654795348644, 0.0854826271533966, 0.05491050332784653, 0.03785385191440582, -0.04820212721824646, 0.01165021862834692, 0.035172395408153534, 0.017133504152297974, 0.0707661435008049, -0.03359000012278557, -0.011447531171143055, 0.03372647985816002, -0.053112875670194626, 0.061822593212127686, -0.003286581253632903, 0.032263144850730896, -0.029686428606510162, 0.03716053441166878, 0.011445240117609501, 0.06731445342302322, 0.00264118448831141, 0.019798118621110916, 0.06931532174348831, 0.038841892033815384, 0.04318056255578995, 0.03913091495633125, 0.006099294405430555, 0.018304094672203064, -0.044382255524396896, 0.03354063257575035, 0.04967479780316353, 0.007909698411822319, -0.04470878839492798, 0.015120280906558037, -0.03996335715055466, 0.02393164485692978, -0.03072713501751423], [0.02671976201236248, -0.05853050947189331, -0.03645893558859825, -0.053123511373996735, 0.022358635440468788, -0.05457694083452225, -0.0054155383259058, -0.05340532958507538, 0.012407357804477215, 0.01882840320467949, -0.06732545793056488, 0.04581400007009506, -0.07406645268201828, -0.05192168056964874, -0.019608905538916588, -0.03699147701263428, 0.023106452077627182, 0.01573970727622509, -0.06872215867042542, 0.011786422692239285, 0.014019596390426159, 0.0012727237772196531, -0.030474938452243805, 0.01832091249525547, -0.06497419625520706, -0.04758504778146744, 0.018486836925148964, 0.014874774031341076, 0.03054168075323105, -0.037208832800388336, -0.0035160230472683907, 0.01343586202710867, -0.013960492797195911, 0.02783810906112194, -0.060534462332725525, -0.014061815105378628, 0.040996652096509933, -0.03115944005548954, 0.024010589346289635, -0.06050565093755722, 0.03204437345266342, -0.04103435203433037, -0.03405998647212982, -0.004333551973104477, -0.0538446344435215, 0.026429515331983566, -0.006715317256748676, -0.0017416438786312938, 0.030431656166911125, -0.024507932364940643, -0.06564953923225403, 0.04400518164038658, 0.06002883240580559, -0.041473887860774994, 0.004667577333748341, 0.025404488667845726, -0.025949863716959953, 0.018120629712939262, 0.03787979483604431, 0.041915737092494965, 0.039681609719991684, -0.04058830812573433, 0.045895300805568695, 0.047054801136255264, -0.05043188855051994, -0.026560382917523384, 0.03912174701690674, 0.01226155273616314, -0.025469480082392693, 0.005389780271798372, -0.03922325000166893, 0.007799390237778425, 0.0036246918607503176, 0.0058149010874331, 0.013537135906517506, -0.03185279294848442, -0.05924425646662712, 0.02140864171087742, -0.044974956661462784, -0.00890769436955452, -0.041628848761320114, 0.0013566719135269523, -0.03684195131063461, -0.058568112552165985, -0.04406403750181198, -0.02158813737332821, -0.014339813962578773, 0.026792705059051514, -0.017238019034266472, -0.026273680850863457, 0.008247630670666695, 0.03962070122361183, -0.06584057211875916, 0.021061504259705544, -0.021402791142463684, -0.01911507360637188, 0.024198658764362335, -0.011713499203324318, -0.07189227640628815, -0.05415636673569679, 0.04811462387442589, -0.07062193751335144, -0.037823837250471115, -0.0010098153725266457, -0.028109071776270866, -0.04263005405664444, -0.059165116399526596, -0.02239912748336792, -0.05397415533661842, -0.033743780106306076, 0.009713801555335522, -0.061299920082092285, -0.04713689163327217, -0.019697723910212517, -0.06951859593391418, 0.0006047820206731558, -0.06674473732709885, -0.06212307885289192, 0.026243118569254875, -0.03741830587387085, -0.002626415342092514, -0.07270046323537827, 0.02605201117694378, -0.007726063020527363, -0.0068524740636348724, -0.05122820660471916, 0.03569430112838745, -0.04639351740479469, 0.0018009027699008584, -0.015525239519774914, -0.037349384278059006, -0.012632092460989952, 0.007735456805676222, -0.046919312328100204, -0.004450603853911161, -0.056419841945171356, 0.019429093226790428, 0.08943086117506027, 0.09685628861188889, 0.02841016836464405, 0.042281653732061386, 0.04445136711001396, -0.014880533330142498, 0.02509358897805214, 0.030351219698786736, 0.023784246295690536, -0.008363442495465279, -0.008469623513519764, 0.08357158303260803, 0.04828284680843353, 0.006539320573210716, 0.04482612758874893, 0.028604215011000633, 0.007845968008041382, 0.03605499491095543, 0.07347134500741959, -0.029361210763454437, -0.01813635788857937, -0.0034262854605913162, 0.04077288880944252, 0.118989497423172, 0.0377211794257164, 0.07882677018642426, -0.00838339701294899, 0.06777407974004745, 0.05195194482803345, 0.07732249796390533, 0.0075056059285998344, 0.03733102232217789, 0.048022788017988205, 0.05636680871248245, 0.05303993448615074, 0.0536172054708004, -0.004463929682970047, 0.04138357564806938, 0.006379253696650267, 0.07819828391075134, 0.03785301372408867, 0.026064593344926834, 0.02254534140229225, 0.022000469267368317, 0.009254055097699165, 0.02860073372721672, -0.026281286031007767, 0.03526587784290314, 0.013983911834657192, 0.012888578698039055, 0.04273230582475662, -0.023338474333286285, 0.02688121609389782, 0.06152333319187164, -0.009861317463219166, 0.0026346840895712376, 0.053433217108249664, 0.059330686926841736, 0.04179345816373825, 0.021175531670451164, -0.0023296514991670847, -0.033824097365140915, 0.03458734229207039, -0.013637685216963291, 0.052028801292181015, 0.012670407071709633, 0.03677782788872719, 0.02546841837465763, 0.010393690317869186, -0.012068696320056915, 0.023116569966077805, 0.051176849752664566, 0.02607349120080471, -0.01871226541697979, -0.03003702685236931, 0.048570528626441956, 0.038382988423109055, 0.02027517929673195, -0.026617256924510002, 0.04039328545331955, -0.053804609924554825, -0.03311610594391823, 0.039505064487457275, -0.0018175793811678886, 0.051417674869298935, 0.003101335372775793, -0.027120301499962807, 0.05330083146691322, 0.03138723596930504, 0.04653360694646835, 0.01865815557539463, -0.04994862526655197, -0.01790308952331543, -0.04384744167327881, 0.0387134812772274, 0.01774744689464569, 0.04135963320732117, -0.060881149023771286, -0.0011063448619097471, -0.004789928440004587, -0.00703175226226449, -0.0538170225918293, 0.05655559152364731, -0.021221645176410675, -0.03565044328570366, -0.028911801055073738, -0.05039175972342491, 0.03557121381163597, 0.05099038779735565, 0.0360877588391304, -0.015946252271533012, -0.03455116227269173, -0.01796615868806839, -0.020823746919631958, 0.006728550419211388, -0.022592058405280113, 0.03651675581932068, -0.026543263345956802, 0.009702705778181553], [0.02118086628615856, -0.013724543154239655, -0.03375498205423355, -0.00720074400305748, -0.04553782939910889, 0.03721083700656891, 0.012321431189775467, -0.06292638927698135, -0.01729661412537098, -0.05215594545006752, 0.01850184239447117, -0.0854063630104065, -0.0334901362657547, -0.07230862230062485, -0.07546041160821915, -0.038888655602931976, -0.0507238432765007, 0.026759084314107895, 0.01357175037264824, -0.05422123521566391, -0.04684710502624512, 0.023744087666273117, 0.018895521759986877, -0.04946717992424965, -0.049072928726673126, 0.018416976556181908, -0.019149241968989372, 0.016253884881734848, 0.03443070501089096, -0.03193042054772377, 0.028939327225089073, -0.052910998463630676, -0.02941531129181385, -0.08636540919542313, -0.0831236019730568, -0.07166420668363571, -0.010762033984065056, 0.005952894221991301, -0.05585254728794098, 0.03111586533486843, -0.06949108839035034, -0.08015178143978119, -0.06766229122877121, -0.011476556770503521, -0.0846884548664093, -0.02722800336778164, 0.008412671275436878, -0.05538657680153847, 0.0050233774818480015, -0.04087607190012932, -0.07335201650857925, -0.017510319128632545, -0.0016155769117176533, -0.0526222288608551, -0.03185352683067322, 0.03862626850605011, -0.07230833917856216, 0.004448907449841499, 0.01957603543996811, -0.03537760674953461, -0.07623383402824402, -0.02305884100496769, -0.03111974708735943, 0.03816663846373558, 0.038719017058610916, 0.025230394676327705, -0.045912813395261765, 0.024546226486563683, -0.04954761639237404, -0.07016484439373016, 0.04030110314488411, -0.055620692670345306, -0.04483986645936966, -0.059403132647275925, 0.037030402570962906, -0.007250563241541386, -0.003847237443551421, -0.005238283891230822, 0.005856174975633621, 0.005644598975777626, -0.021337276324629784, 0.022597776725888252, 0.04836946353316307, -0.046838730573654175, -0.014382991939783096, 0.01893206499516964, 0.014669939875602722, -0.07883842289447784, -0.0361802913248539, -0.0341891311109066, 0.0146750183776021, -0.05436230078339577, -0.04875953495502472, -0.038530293852090836, -0.008834986947476864, 0.04350759834051132, -0.0810680165886879, -0.061545681208372116, -0.02577257715165615, 0.0452238991856575, -0.0661509782075882, 0.010493463836610317, -0.0047802976332604885, -0.050077833235263824, 0.005264433566480875, -0.06333599984645844, -0.06340435147285461, -0.04030778259038925, -0.012707228772342205, -0.04727526754140854, 0.008703903295099735, -0.01443369872868061, -0.02880755439400673, -0.054425206035375595, -0.04842664301395416, -0.007865313440561295, 0.017460420727729797, -0.04651513695716858, 0.029633326455950737, -0.024954140186309814, 0.005700384266674519, -0.04825912415981293, -0.04532511159777641, 0.018211908638477325, 0.0016285718884319067, -0.02675861306488514, 0.018573639914393425, -0.07728405296802521, -0.015177733264863491, -0.0515955425798893, -0.027564574033021927, -0.06879127025604248, -0.05345580726861954, -0.10050711035728455, -0.05996737629175186, -0.008269497193396091, -0.022191552445292473, 0.02872619591653347, -0.018483929336071014, 0.04123465344309807, 0.030052734538912773, 0.011499376967549324, 0.04914376139640808, -0.05581855773925781, -0.011737305670976639, 0.0135872233659029, 0.025828653946518898, 0.022907715290784836, -0.0046615819446742535, 0.005133550148457289, -0.03926161676645279, -0.07874852418899536, 0.002242302754893899, -0.033673401921987534, -0.04184853658080101, -0.037683822214603424, -0.041668687015771866, 0.02976165898144245, -0.04827593266963959, -0.025747884064912796, 0.004720058757811785, -0.017734332010149956, -0.006549087818711996, 0.031041624024510384, -0.0016372952377423644, 0.007488531060516834, -0.018828848376870155, -0.05136093124747276, 0.00448120292276144, 0.000898132158908993, 0.0023923232220113277, -0.029060764238238335, 0.058144379407167435, 0.01315105427056551, 0.05468056723475456, -0.0616464801132679, 0.008424969390034676, 0.0817471593618393, 0.0820966362953186, 0.06537238508462906, -0.020231962203979492, -0.006220851093530655, 0.04230233654379845, -0.013307319022715092, -0.008431361056864262, -0.01797771267592907, 0.06156433746218681, 0.04403998702764511, 0.004371105693280697, 0.03275151550769806, 0.016898170113563538, 0.037392038851976395, -0.021996784955263138, -0.01718258298933506, 0.06191215291619301, -0.01560013648122549, 0.07132918387651443, -0.005114269908517599, 0.04904070496559143, 0.04506582021713257, 0.0650961622595787, 0.030495094135403633, 0.06170263513922691, -0.037128228694200516, 0.04995156452059746, 0.07575725018978119, 0.010338885709643364, 0.03928468003869057, 6.926548667252064e-05, 0.02256356179714203, 0.03702271357178688, -0.024198496714234352, 0.04830966517329216, 0.049742840230464935, 0.015307163819670677, 0.03777920454740524, 0.020630113780498505, 0.02184022031724453, 0.05377444997429848, 0.052702564746141434, 0.05884978175163269, 0.046740155667066574, 0.014585176482796669, 0.018998460844159126, 0.05519016459584236, -0.0321209654211998, -0.037674758583307266, 0.0458175465464592, 0.01775680109858513, -0.014740165323019028, 0.0064131123945117, 0.01447395421564579, -0.004495722707360983, 0.025062035769224167, 0.03074250929057598, 0.024608425796031952, -0.030897285789251328, 0.04417593032121658, -0.014435957185924053, 0.02156697027385235, 0.0061063989996910095, 0.07035038620233536, -0.007869167253375053, -0.009878265671432018, 0.014885562472045422, 0.0002203408512286842, -0.0048377797938883305, 0.0619465634226799, 0.06885632127523422, -0.03963002189993858, 0.011226884089410305, 0.047409046441316605, -0.04596453532576561, -0.00917852483689785, -0.03710854426026344, -0.025694590061903], [0.011578845791518688, -0.0005758815095759928, -0.02621862106025219, -0.05753864347934723, -0.057519543915987015, -0.02925362065434456, 0.057165395468473434, 0.02394862473011017, 0.04191429913043976, -0.03835522010922432, -0.037016093730926514, -0.003930932842195034, -0.04416424408555031, 0.022573674097657204, -0.0016969662392511964, 0.0459633506834507, 0.014399299398064613, 0.014772264286875725, 0.0217288825660944, 0.02869630791246891, -0.04820920526981354, 0.020441126078367233, 0.046602070331573486, -0.024758977815508842, -0.049274418503046036, 0.060614801943302155, -0.04237139970064163, -0.01253904402256012, 0.03530002757906914, -0.03438573330640793, -0.036840301007032394, 0.01303000096231699, 0.03202928230166435, -0.05460549145936966, -0.052806586027145386, 0.03220811486244202, -0.06429251283407211, -0.034211739897727966, -0.05748206377029419, -0.01782844588160515, -0.022373681887984276, 0.050331395119428635, 0.04372336342930794, 0.029171794652938843, 0.012797688134014606, -0.04248009994626045, 0.02146587148308754, -0.047644879668951035, 0.0013930764980614185, 0.044554706662893295, 0.030637195333838463, 0.016481595113873482, -0.0016838852316141129, 0.024148141965270042, 0.02974841184914112, -0.0405457429587841, 0.023755811154842377, -0.04699696972966194, 0.013778535649180412, 0.028849810361862183, 0.04082849994301796, -0.021639462560415268, 0.038775376975536346, 0.04202333092689514, 0.02567380852997303, 0.01384316198527813, 0.02604338526725769, -0.032188571989536285, -0.05105965957045555, 0.0383593812584877, -0.036095306277275085, 0.01562504656612873, -0.03818730637431145, -0.03422597795724869, -0.04667621850967407, 0.051191624253988266, -0.02128063328564167, 0.03261061757802963, 0.04650578275322914, -0.06470630317926407, -0.046260833740234375, -0.06494051963090897, -0.06551269441843033, 0.05584457516670227, 0.013540597632527351, -0.048166755586862564, -0.03768613934516907, -0.04927685856819153, -0.047789067029953, 0.02099953219294548, -0.04600614681839943, -0.05374779552221298, -0.028705190867185593, -0.014276129193603992, 0.04291402921080589, 0.05446983873844147, -0.05996692180633545, 0.04348539561033249, 0.010320647619664669, -0.028484100475907326, 0.03490201383829117, 0.0222454946488142, 0.028194086626172066, 0.049996454268693924, -0.016057195141911507, 0.007922119460999966, 0.057090479880571365, -0.06238143518567085, -0.028504330664873123, 0.000674078066367656, 0.028128433972597122, -0.025268342345952988, 0.013641048222780228, -0.043436214327812195, -0.028702834621071815, 0.016329817473888397, 0.01507661584764719, -0.010484475642442703, 0.026823081076145172, 0.04466022551059723, -0.0005804094253107905, 0.04911484196782112, 0.0313558392226696, 0.052548572421073914, -0.045136891305446625, -0.02055324986577034, 0.02941504493355751, 0.05113653466105461, -8.458518277620897e-05, 0.05733570456504822, 0.030070265755057335, -0.010823751799762249, 0.006805992219597101, -0.010516604408621788, 0.00671792309731245, 0.040736109018325806, 0.015628909692168236, 0.01175722200423479, 0.0028895391151309013, 0.06533662974834442, 0.026705177500844002, 0.04836404696106911, 0.02269652672111988, -0.001750874100252986, -0.01664019748568535, 0.002059010788798332, -0.02222294732928276, 0.019209014251828194, -0.007816258817911148, 0.02719256840646267, 0.037310756742954254, 0.07311038672924042, -0.008383942767977715, -0.03483752906322479, -0.0385635569691658, 0.048294778913259506, 0.0009370914776809514, 0.056595172733068466, 0.08340468257665634, 0.006751100532710552, 0.012804104946553707, -0.008051748387515545, -0.032053083181381226, 0.0023905839771032333, 0.018870174884796143, 0.024541469290852547, -0.008600972592830658, 0.02671966515481472, 0.0317608080804348, 0.013900352641940117, 0.039483387023210526, 0.015532432124018669, 0.017809273675084114, 0.017455430701375008, 0.04624590277671814, 0.018277926370501518, 0.03152165561914444, -0.0500899963080883, -0.030307237058877945, -0.005709356162697077, -0.008810878731310368, 0.009752760641276836, -3.960994945373386e-07, 0.08097688853740692, 0.017869815230369568, -0.011647017672657967, 0.028427256271243095, -0.0020760742481797934, 0.04009713977575302, -0.001009821193292737, -0.049923334270715714, 0.003335809102281928, -0.05283549055457115, 0.03471318632364273, -0.03271742910146713, 0.04063016548752785, -0.05160593241453171, -0.0027563038747757673, 0.04365507513284683, 0.008135604672133923, 0.023434987291693687, -0.027742983773350716, -0.030869444832205772, -0.023738155141472816, -0.004681847523897886, 0.009159713052213192, 0.05241135135293007, 0.020548589527606964, -0.009770319797098637, 0.04441196471452713, 0.013624542392790318, -0.012059319764375687, 0.0411522351205349, -0.0377054288983345, -0.03166308254003525, 0.04238191992044449, 0.06192835420370102, -0.027396757155656815, 0.026257654651999474, -0.0170294102281332, -0.017631903290748596, -0.02176503837108612, 0.01514994353055954, -0.04600156471133232, -0.026854809373617172, -0.0010726333130151033, -0.035471316426992416, -0.03837605193257332, -0.03958378732204437, -0.04090901091694832, -0.037140022963285446, 0.0393357127904892, 0.056129515171051025, 0.059965673834085464, 0.0554666630923748, 0.0010060102213174105, 0.044517748057842255, 0.029925599694252014, -0.014172776602208614, -0.03286070004105568, -0.04879537597298622, 0.011539897881448269, 0.011789700016379356, 0.00612835306674242, 0.02838922291994095, -0.04062787443399429, 0.06778056174516678, 0.017382128164172173, -0.03334522619843483, 0.012773681432008743, 0.0511760376393795, 0.03327108919620514, 0.032932501286268234, 0.016116295009851456, 0.07660550624132156, 0.05624332278966904], [-0.029033975675702095, 0.03388264775276184, 0.01172107644379139, -0.00888063758611679, -0.013716349378228188, 0.005922339856624603, 0.004794138018041849, 0.007286977954208851, -0.03890818729996681, -0.04760437458753586, -0.04165978729724884, -0.030721552670001984, 0.05705695599317551, 0.025438563898205757, 0.04022511839866638, -0.028224190697073936, 0.04919083043932915, 0.029901666566729546, -0.027207959443330765, 0.04925063997507095, -0.002094467869028449, -0.016035502776503563, 0.01112070120871067, 0.008587656542658806, 0.02633845992386341, 0.02154267020523548, 0.05347374454140663, 0.006578133441507816, -0.043086178600788116, 0.03921021521091461, -0.032186541706323624, -0.029468128457665443, 0.012587524950504303, 0.04827991873025894, 0.0602555125951767, -0.0248299278318882, 0.024648170918226242, 0.04434306174516678, -0.042984623461961746, -0.0013833162374794483, -0.05532584711909294, -0.05927487462759018, 0.04605017229914665, -0.04360836371779442, -0.021013561636209488, 0.06194881349802017, 0.030777253210544586, 0.06040208414196968, -0.014350932091474533, 0.009146983735263348, -0.03583255410194397, 0.01242243591696024, -0.03278830274939537, -0.003591956803575158, -0.03440045565366745, -0.008658180944621563, -0.053277526050806046, -0.027517078444361687, -0.03907326981425285, -0.04588283598423004, 0.007179599720984697, -0.014055002480745316, -0.020513642579317093, 0.019518619403243065, 0.0022842921316623688, 0.04876686632633209, -0.006894409656524658, 0.04544946551322937, -0.020462729036808014, 0.05337183177471161, 0.05418955534696579, 0.059913694858551025, 0.0520770289003849, -0.005321184638887644, 0.009885079227387905, -0.011199158616364002, 0.04396218806505203, 0.041377954185009, -0.027058955281972885, 0.013842208310961723, -0.011337198317050934, -0.05747110769152641, 0.002301142318174243, -0.008922075852751732, -0.02413194440305233, -0.046236056834459305, -0.06229604408144951, 0.03835240751504898, -0.015839073807001114, 0.011532812379300594, -0.030852394178509712, -0.057801298797130585, -0.05561991408467293, 0.005446371156722307, -0.03240726515650749, 0.012611626647412777, -0.06567756086587906, 0.023285381495952606, 0.0506017729640007, 0.055409885942935944, 0.03374771028757095, -0.04228350147604942, -0.046474505215883255, 0.02516941726207733, -0.011404171586036682, 0.03938602656126022, -0.01746368780732155, 0.03707454726099968, -0.04438697174191475, -0.01572827436029911, -0.023182053118944168, 0.047166503965854645, -0.012908109463751316, -0.04635300114750862, -0.015965260565280914, 0.017288358882069588, -0.03796481341123581, 0.04670727625489235, 0.05964682996273041, 0.034865330904722214, -0.05354730039834976, 0.031089771538972855, 0.004849454388022423, 0.056381359696388245, -0.012666218914091587, -0.052631162106990814, -0.06052182987332344, -0.03490166738629341, -0.026843583211302757, 0.05278141051530838, 0.023913145065307617, -0.036550045013427734, -0.015955928713083267, -0.038337063044309616, 0.03935113921761513, 0.03283315151929855, 0.04706938564777374, 0.05692252889275551, -0.0159272663295269, 0.017817422747612, 0.009241669438779354, -0.04534152150154114, -0.06113852933049202, 0.025481009855866432, -0.04038615897297859, -0.016927465796470642, 0.0336163155734539, 0.01520010270178318, -0.017807871103286743, -0.016225434839725494, -0.01913980022072792, 0.020354237407445908, -0.01295736525207758, -0.007062917109578848, 0.03235435113310814, -0.06829764693975449, 0.006187960505485535, -0.04072469472885132, 0.005569913424551487, 0.008172746747732162, 0.020814400166273117, 0.025548692792654037, -0.002725706435739994, -0.02677525393664837, -0.006557048298418522, -0.04231293871998787, -0.08590865135192871, -0.033264193683862686, 0.04028106480836868, 0.006348039489239454, -0.029213374480605125, -0.02845185436308384, 0.009304591454565525, -0.022893518209457397, -0.022808076813817024, -0.05262990668416023, 0.008856534026563168, 0.024161813780665398, -0.0398702472448349, -0.010456633754074574, -0.03086150251328945, 0.0018809455214068294, 0.020705604925751686, 0.036565765738487244, 0.023518774658441544, 0.0045463102869689465, -0.00362958712503314, 0.027974078431725502, 0.019421016797423363, -0.0324074886739254, -0.02166656404733658, -0.02840726636350155, -0.03955371677875519, 0.011943591758608818, 0.01346235629171133, 0.05755118280649185, 0.020670907571911812, 0.04113125056028366, -0.013891160488128662, 0.02553338184952736, -0.012060032226145267, -0.02099861204624176, 0.012111767195165157, 0.07036497443914413, 0.05791870877146721, -0.02870972640812397, 0.02608620934188366, 0.04080875590443611, 0.06473330408334732, 0.01816277764737606, 0.04819821938872337, 0.0723763257265091, 0.032840196043252945, -0.014682336710393429, -0.029942702502012253, 0.05199884623289108, -0.03024500235915184, -0.02777935191988945, 0.05851813405752182, 0.032931990921497345, 0.006076091900467873, 0.022318698465824127, -0.012674645520746708, 0.04427880421280861, 0.07749577611684799, 0.010929091833531857, -0.004125293809920549, 0.05643674358725548, -0.02400260604918003, 0.054526202380657196, 0.011737012304365635, 0.02216663956642151, -0.01946793496608734, -0.040797047317028046, 0.05179625749588013, 0.00862998329102993, -0.027238067239522934, 0.057955458760261536, 0.07807410508394241, 0.05557120591402054, 0.01450836006551981, 0.0020845169201493263, 0.01477099023759365, 0.03500387445092201, 0.06256174296140671, 0.00014433037722483277, -0.02266373671591282, 0.023375341668725014, -0.009489387273788452, -0.014815546572208405, 0.06527320295572281, -0.015153199434280396, 0.07693484425544739, -0.03148571774363518, -0.015738334506750107, -0.03258141875267029], [-0.029987765476107597, 0.033489227294921875, -0.013009043410420418, -0.04059309884905815, -0.02755161002278328, 0.04249146953225136, 0.004935852717608213, -0.0727623701095581, -0.016186870634555817, -0.055761102586984634, 0.0019276761449873447, 0.024316737428307533, -0.03920871019363403, -0.06926446408033371, 0.05163033306598663, -0.030680308118462563, 0.04757842794060707, 0.006690929643809795, -0.019420957192778587, 0.04268362373113632, -0.028749199584126472, -0.05419618636369705, 0.019351493567228317, -0.029989298433065414, -0.05487087741494179, -0.029336372390389442, 0.008045864291489124, 0.027841685339808464, -0.04122551903128624, -0.014942771755158901, 0.005789912771433592, 0.007019795011729002, 0.03880263492465019, -0.0601913183927536, 0.028960514813661575, -0.03477557748556137, -0.0009685184340924025, -0.02917242981493473, -0.022998251020908356, 0.0392538346350193, -0.07493409514427185, -0.018305888399481773, -0.013710018247365952, -0.0391075499355793, 0.008776385337114334, -0.040821436792612076, 0.001904527423903346, 0.02382822148501873, 0.034751661121845245, 0.007802129257470369, -0.05242297798395157, -0.015827158465981483, 0.03310089185833931, -0.049540407955646515, 0.026846453547477722, 0.012222377583384514, -0.0024412230122834444, 0.006487580947577953, -0.03761792927980423, -0.06334127485752106, 0.009219400584697723, -0.06609142571687698, -0.0002672048576641828, -0.016780836507678032, -0.0007639568066224456, 0.03910203278064728, -0.01941211149096489, 0.027887914329767227, 0.014911013655364513, -0.033069003373384476, -0.02703145705163479, -0.07428836077451706, 0.03761552274227142, 0.03594479337334633, 0.0036871659103780985, -0.076659195125103, 0.030205462127923965, 0.041247542947530746, -0.036541204899549484, 0.008247231133282185, -0.0461479090154171, 0.012466988526284695, -0.06023542582988739, -0.01381676271557808, 0.01946195960044861, -0.061696652323007584, -0.03516905754804611, -0.05679083243012428, 0.04249110445380211, 0.0438728854060173, -0.02466723695397377, -0.06176299229264259, 0.01822148635983467, 0.020221726968884468, 0.004523451440036297, -0.0042069233022630215, -0.027061106637120247, 0.035307273268699646, 0.028274640440940857, 0.0074932328425347805, 0.0027363791596144438, 0.035487107932567596, 0.033734776079654694, 0.016703519970178604, -0.055778466165065765, -0.07493173331022263, -0.022663578391075134, -0.004454879555851221, -0.07408914715051651, -0.012402447871863842, -0.008729858323931694, 0.013229276984930038, -0.04637332633137703, -0.0001528778811916709, -0.016089895740151405, -0.024182917550206184, -0.06128530576825142, 0.004054739605635405, 0.012648610398173332, 0.010071164928376675, 0.006006316281855106, 0.03617781028151512, 0.009087708778679371, 0.0200282521545887, 0.02740427665412426, -0.04564419016242027, -0.02282816916704178, 0.028601527214050293, -0.0704803615808487, -0.04138514772057533, 0.016917837783694267, -0.022700374945998192, -0.008467881940305233, -0.03432699292898178, -0.015126321464776993, 0.014099733904004097, 0.03885386139154434, -0.0005261328187771142, 0.04522145912051201, -0.021177856251597404, -0.05537423864006996, 0.012528705410659313, -0.035916153341531754, 0.049051959067583084, 0.034095399081707, 0.008137311786413193, 0.052744243294000626, -0.054574254900217056, 0.016472531482577324, 0.032468363642692566, 0.03426191210746765, 0.01453440636396408, 0.041527580469846725, 0.026989025995135307, 0.03419972583651543, -0.010664787143468857, 0.03428718075156212, 0.04806419089436531, 0.0031144742388278246, 0.019698716700077057, -0.011148241348564625, 0.03586811572313309, 0.020566744729876518, 0.030909903347492218, 0.040268562734127045, 0.052670639008283615, 0.02444535680115223, 0.041702888906002045, 0.038149237632751465, 0.01620243489742279, -0.011535629630088806, 0.012628943659365177, -0.03493789955973625, 0.04005206748843193, 0.02221747487783432, 0.003346074838191271, -0.0007412027916871011, -0.02011864259839058, 0.016273334622383118, 0.01667548529803753, 0.03804481774568558, -0.031299252063035965, -0.046599116176366806, 0.03096928633749485, 0.004987316206097603, 0.03447344899177551, -0.006990802939981222, -0.02501402050256729, 0.018194202333688736, -0.019300833344459534, 0.05111461877822876, -0.0031868452206254005, -0.04760133847594261, -0.0012795469956472516, 0.01347796618938446, 0.03421836346387863, -0.01780250295996666, 0.05782606825232506, 0.030456067994236946, 0.0633293017745018, 0.01039000041782856, -0.05279042199254036, 0.034955304116010666, -0.010452529415488243, 0.007079171948134899, 0.020189905539155006, 0.044721268117427826, 0.00723586231470108, 0.018298087641596794, -0.04253606125712395, 0.027979275211691856, 0.038416702300310135, 0.03903590515255928, -0.016018221154808998, 0.0367899052798748, 0.05961400270462036, -0.020399348810315132, 0.03756030648946762, 0.009250582195818424, 0.054430294781923294, 0.014742173254489899, 0.04744637385010719, -0.018665406852960587, 0.008342164568603039, -0.014919344335794449, 0.041416846215724945, 0.03956451639533043, -0.017688941210508347, -0.01131519116461277, 0.0037468078080564737, 0.033365871757268906, 0.03403119742870331, 0.036236606538295746, -0.03629354387521744, -0.012520557269454002, 0.03810106962919235, -0.04298765957355499, 0.04421026259660721, 0.0033252639696002007, 0.049997538328170776, -0.05181664600968361, 0.03246201202273369, -0.033267367631196976, -0.049871452152729034, 0.05380300432443619, -0.06395674496889114, 0.01494312472641468, 0.041675865650177, -0.029160086065530777, -0.0406649149954319, 0.015040548518300056, 0.03695376589894295, 0.010037839412689209, 0.01116995420306921, 0.029113415628671646, 0.06453927606344223], [0.004329522605985403, -0.05870350822806358, 0.0007817670702934265, -0.025942813605070114, -0.03768051788210869, -0.06342040747404099, -0.037659652531147, -0.017911219969391823, -0.07353299856185913, -0.033627159893512726, -0.036093953996896744, -0.05508376657962799, -0.08195994049310684, -0.042495593428611755, -0.05064047500491142, -0.06292510777711868, -0.06755740195512772, 0.044155582785606384, -0.07386578619480133, -0.0006120736361481249, -0.04348036274313927, -0.02091355249285698, 0.014029967598617077, -0.018344076350331306, 0.03187679499387741, -0.05991304665803909, 0.004292935132980347, 0.035554371774196625, -0.010853443294763565, 0.014712112955749035, -0.07157958298921585, 0.002437577350065112, -0.06407878547906876, -0.019755225628614426, 0.02677363157272339, -0.011315692216157913, -0.05679855868220329, -0.009186807088553905, -0.03845702111721039, -0.04887255281209946, -0.05942345783114433, -0.07282420992851257, -0.04959029331803322, -0.016839805990457535, 0.042093295603990555, -0.016646774485707283, 0.02498648688197136, -0.01349550299346447, 0.00901330541819334, -0.02348089963197708, -0.07907333225011826, 0.03800571337342262, -0.03266730532050133, -0.026158055290579796, 0.009974299930036068, 0.03523285314440727, -0.06888066232204437, -0.010933727957308292, -0.044460076838731766, -0.029206324368715286, 0.03992355242371559, -0.058767106384038925, 0.0034191024024039507, -0.07318724691867828, 0.028185565024614334, -0.039080895483493805, 0.02288212813436985, -0.0735115334391594, -0.06504486501216888, -0.03827131539583206, -0.07348113507032394, -0.038345031440258026, -0.08055359870195389, -0.09486079216003418, 0.022800428792834282, -0.023397881537675858, -0.07602839916944504, -0.08117172122001648, 0.00375096476636827, -0.05851718783378601, 0.03045797534286976, -0.0058191497810184956, -0.029443716630339622, 0.03262229263782501, 0.017674334347248077, -0.050663601607084274, -0.09353950619697571, -0.03867694362998009, -0.0354093536734581, 0.003990785218775272, -0.04141353443264961, -0.035064782947301865, -0.027399688959121704, -0.002723512938246131, -0.0005346054676920176, 0.006711379159241915, -0.026663200929760933, 0.016054874286055565, -0.06506655365228653, -0.06686639785766602, 0.00601775199174881, 0.02823859453201294, 0.0036126566119492054, 0.023629112169146538, -0.061840519309043884, -0.01729784905910492, -0.0071403649635612965, -0.04671026021242142, -0.009497880935668945, 0.013550985604524612, 0.017864445224404335, 0.00013364828191697598, -0.012062757275998592, -0.0073153795674443245, -0.001201385399326682, 0.011578893288969994, -0.014756188727915287, -0.02441028691828251, 0.019313359633088112, 0.01510003861039877, 0.026410451158881187, -0.08045503497123718, -0.01702663116157055, -0.07679279893636703, -0.05435803160071373, -0.08132939040660858, 0.003959232475608587, 0.016458626836538315, -0.05565207824110985, -0.04976942017674446, 0.011388245970010757, -0.002001479035243392, 0.011028168722987175, -0.08336525410413742, -0.07224409282207489, 0.0071409922093153, 0.009512520395219326, 0.011635505594313145, 0.02072661556303501, 0.057602960616350174, 0.04906448349356651, -0.00637228786945343, 0.0068606785498559475, -0.05855930969119072, 0.033314354717731476, 0.04851314797997475, 0.022789495065808296, 0.025361882522702217, -0.02592657320201397, 0.0025940295308828354, 0.07191289961338043, 0.05082061141729355, 0.040303438901901245, 0.0470038577914238, 0.009245254099369049, -0.025595253333449364, 0.00831223651766777, 0.0006809693295508623, 0.027511799708008766, -0.008701963350176811, -0.014809994027018547, -0.016540581360459328, 0.045436788350343704, -0.008742978796362877, 0.08524014800786972, 0.0007463452056981623, 0.06510650366544724, 0.0022958852350711823, -0.016914188861846924, 0.0041945516131818295, -0.009067120030522346, -0.016838207840919495, -0.018016867339611053, 0.06841066479682922, -0.004950534086674452, 0.08013997226953506, 0.0035197436809539795, 0.01833679899573326, 0.030804267153143883, 0.023871133103966713, -0.018696097657084465, 0.055872466415166855, 0.07345573604106903, -0.028269512578845024, 0.02884092554450035, 0.013069557957351208, 0.017014797776937485, 0.03451056778430939, 0.042608268558979034, 0.05529840663075447, 0.002719225361943245, 0.03356676921248436, 0.0024849306792020798, 0.03466799482703209, 0.06075621396303177, -0.044913604855537415, -0.031009163707494736, -0.010074945166707039, -0.02766341157257557, -0.02615073136985302, -0.01597791537642479, 0.0017746157245710492, -0.05436133220791817, 0.04358180612325668, 0.004081168677657843, -0.0294939037412405, -0.050788283348083496, 0.059112805873155594, 0.018828004598617554, 0.019720755517482758, 0.0053246961906552315, 0.03696245327591896, 0.041329238563776016, -0.03000560961663723, -0.03210342675447464, 0.046328797936439514, 0.027696631848812103, 0.010436645708978176, -0.00671583553776145, 0.013235881924629211, -0.05298009514808655, -0.006604479625821114, -0.012368876487016678, -0.000529387267306447, -0.04604705423116684, 0.04297677427530289, -0.044088635593652725, 0.04337022081017494, -0.03682483732700348, 0.029398225247859955, -0.012300129048526287, 0.05715767294168472, 0.07972344756126404, -0.05957258492708206, 0.038055501878261566, 0.028176719322800636, -0.051927439868450165, 0.05816929414868355, 0.00037359201814979315, 0.025789061561226845, -0.04352308064699173, -0.0015923244645819068, -0.017574375495314598, 0.035302672535181046, 0.0058297161012887955, -0.01525839138776064, 0.05173785239458084, 0.07060534507036209, -0.022860553115606308, -0.013373102061450481, -0.021308187395334244, 0.016901418566703796, 0.010632974095642567, 0.05756068974733353, 0.0013788238866254687, -0.0338904894888401], [-0.024069353938102722, -0.03126601129770279, -0.013404428958892822, -0.05699682980775833, -0.00917742308229208, 0.008507084101438522, -0.010271030478179455, 0.021063951775431633, 0.015236351639032364, 0.04510722681879997, -0.047629985958337784, 0.04310492426156998, -0.0012269383296370506, 0.03535592555999756, -0.0005543899605982006, -0.02660367824137211, 0.04913783073425293, -0.01517925038933754, -0.04078912362456322, 0.0019030387047678232, 0.051692765206098557, 0.02200249210000038, 0.03579144924879074, -0.004267158452421427, -0.031109018251299858, 0.01997547037899494, -0.021822389215230942, 0.01685374788939953, 0.04494526982307434, -0.022596878930926323, 0.009496860206127167, 0.034947820007801056, 0.008603427559137344, -0.020134806632995605, 0.025454385206103325, 0.039578039199113846, -0.01766298897564411, -0.04517561197280884, -0.05298551172018051, -0.017930513247847557, -0.03663213551044464, 0.03585198149085045, 0.02920815907418728, -0.030759530141949654, -0.060584038496017456, -0.05383986607193947, -0.04621192067861557, 0.02360599674284458, -0.04548810422420502, 0.03170657902956009, -0.024026870727539062, 0.01309583242982626, -0.031894486397504807, 0.03946087509393692, 0.0074957748875021935, 0.057988282293081284, 0.05619356036186218, 0.035535700619220734, 0.05719394236803055, 0.04697486758232117, 0.038788530975580215, -0.04325411841273308, 0.01908894069492817, 0.06502797454595566, -0.0486891008913517, -0.02057352103292942, -0.03979496657848358, -0.006895121186971664, 0.026486951857805252, 0.043346479535102844, -0.012751216068863869, -0.01286808867007494, 0.010706699453294277, 0.014593901112675667, 0.006058625411242247, -0.040436211973428726, -0.004813925828784704, -0.05183845013380051, -0.066179059445858, -0.04338310658931732, 0.027128253132104874, 0.013027595356106758, -0.0586712472140789, 0.06134951487183571, -0.06161205470561981, -0.05699931085109711, 0.026675065979361534, 0.029221605509519577, -0.05023915693163872, 0.02061137557029724, -0.02961539290845394, -0.061609286814928055, 0.021054582670331, -0.02267087623476982, -0.013971451669931412, 0.047143902629613876, 0.019710877910256386, 0.03802156820893288, -0.023244695737957954, -0.04725109413266182, 0.00910908728837967, -0.0663820430636406, 0.04440106078982353, 0.0514393076300621, 0.043862830847501755, 0.037048812955617905, -5.9374615375418216e-05, -0.05578335002064705, 0.037623900920152664, 0.037613265216350555, -0.042064227163791656, -0.002797838067635894, 0.0032868068665266037, 0.014318524859845638, -0.014707040973007679, -0.01682412065565586, -0.015052060596644878, -0.036346111446619034, -0.032896820455789566, 0.000515243096742779, -0.06251204013824463, 0.05229347571730614, -0.052689190953969955, 0.018296271562576294, 0.03651643171906471, 0.002794607076793909, -0.06505519896745682, -0.046364668756723404, 0.04193419963121414, 0.031242232769727707, -0.021837158128619194, -0.0045942990109324455, -0.00861703883856535, 0.07812254130840302, 0.02612767368555069, 0.04734545573592186, 0.02965436317026615, -0.03534816578030586, 0.02846335433423519, 0.04561285302042961, 0.05347137898206711, -0.0005994364619255066, 0.05862889066338539, 0.027974257245659828, 0.021573008969426155, 0.08470292389392853, 0.07233621925115585, 0.05746563896536827, 0.05314593389630318, 0.004739622585475445, 0.002643003361299634, 0.007533009629696608, 0.03720724210143089, 0.029661398380994797, 0.034509025514125824, 0.01574430800974369, 0.11083664000034332, 0.03476483002305031, 0.08033770322799683, 0.043484944850206375, 0.005319688934832811, -0.0027507352642714977, -0.011894838884472847, 0.017032593488693237, 0.06116490811109543, 0.09083668142557144, 0.09275685995817184, 0.020605439320206642, 0.024517567828297615, 0.05882890895009041, 0.08137223869562149, 0.0672338679432869, 0.07219411432743073, 0.06323173642158508, 0.10089927911758423, 0.10008072853088379, -0.003694127080962062, 0.1029457375407219, 0.07986688613891602, 0.04638371989130974, 0.018308179453015327, 0.05474907159805298, 0.06328165531158447, 0.013355708681046963, 0.012741412036120892, 0.09433677792549133, 0.05315742269158363, 0.06565595418214798, -0.006517156958580017, 0.056155454367399216, 0.045629292726516724, 0.016834279522299767, 0.05078592523932457, -0.022193506360054016, 0.04740302264690399, -0.05014652758836746, 0.027197059243917465, -0.035818640142679214, 0.024572158232331276, 0.03575262799859047, -0.02342303842306137, -0.004700601566582918, -0.01689978688955307, 0.04655211791396141, -0.02695116028189659, -0.03515658527612686, 0.06749124825000763, -0.05059383809566498, 0.024899940937757492, 0.025577453896403313, 0.0009079028968699276, 0.022555578500032425, 0.04639653116464615, 0.012380187399685383, -0.050232455134391785, -0.044921472668647766, 0.01959351636469364, -0.03141272813081741, -0.04281996935606003, 0.020266078412532806, 0.04315677657723427, -0.04908625781536102, 0.04649976268410683, 0.005829877685755491, 0.0032517029903829098, 0.010269397869706154, 0.030633220449090004, -0.04497063159942627, 0.0015780170215293765, 0.0012567208614200354, 0.053166087716817856, 0.0008658931474201381, -0.04392999783158302, 0.030384816229343414, -0.022911222651600838, -0.042662885040044785, -0.04161543399095535, 0.0026269108057022095, 0.03782368078827858, 0.0038655297830700874, -0.0463140495121479, 0.05913398042321205, -0.022898150607943535, -0.02239532768726349, 0.01449365634471178, 0.0340719036757946, -0.019603827968239784, 0.013200471177697182, -0.03967079147696495, 0.03937495872378349, 0.0010367883369326591, -0.001460084691643715, 0.04248557984828949, -0.01793608069419861, -0.02044670470058918, -0.026205461472272873], [0.00024256623873952776, -0.05424099043011665, -0.08759024739265442, -0.07183701545000076, -0.058213554322719574, -0.041848231106996536, -0.06850380450487137, 0.03229159116744995, -0.05235651507973671, -0.04180852323770523, 0.005677383858710527, 0.041487619280815125, 0.03478594496846199, 0.02223355509340763, 0.0005746588576585054, -0.029440786689519882, -0.029901452362537384, -0.04599535092711449, -0.05062089115381241, 0.029588183388113976, -0.013291683048009872, -0.053843624889850616, -0.029130274429917336, -0.07194105535745621, -0.00293877930380404, -0.07445325702428818, 0.013757639564573765, 0.03869254142045975, -0.0003489720111247152, 0.02893698774278164, 0.019592365249991417, -0.024659305810928345, -0.04457930848002434, 0.0003829319612123072, 0.02418690174818039, -0.040239736437797546, -0.06795946508646011, -0.07093929499387741, -0.043955978006124496, -0.06538843363523483, 0.013868235982954502, 0.016863416880369186, 0.025165874511003494, -0.08067624270915985, 0.030832158401608467, 0.02945028431713581, 0.02408651076257229, 0.007716562133282423, -0.021704357117414474, 0.002680996898561716, -0.07051229476928711, -0.036578767001628876, -0.0751284807920456, -0.0742768943309784, 0.010607440024614334, -0.014619365334510803, -0.006075195036828518, -0.01700057089328766, 0.021103927865624428, 0.04252991825342178, -0.010595792904496193, -0.042363058775663376, 0.027339454740285873, 0.02746255323290825, -0.00272983405739069, 0.00019947004329878837, 0.03404472768306732, -0.03360370919108391, 0.0382242426276207, 0.0284228827804327, 0.031268712133169174, -0.03778943791985512, -0.055001962929964066, -0.0740753561258316, 0.03053721785545349, 0.02451569214463234, 0.02383861504495144, 0.03798624500632286, -0.021919313818216324, -0.040799904614686966, -0.022385699674487114, 0.03327355906367302, 0.02602574974298477, -0.07249527424573898, -0.0030462529975920916, -0.05268334224820137, -0.01879737712442875, 0.0025553759187459946, -0.06874649971723557, -0.03539386764168739, -0.02697131782770157, -0.03815225139260292, -0.027878833934664726, -0.055578626692295074, -0.04980206489562988, 0.039236970245838165, 0.041471149772405624, -0.012622170150279999, -0.05915531516075134, -0.03604485094547272, 0.03548464551568031, 0.004790330771356821, 0.017510738223791122, 0.009471054188907146, -0.05244854465126991, -0.06400573253631592, -0.07142271101474762, 0.010744095779955387, -0.02243087626993656, -0.01769108511507511, 0.02033364586532116, 0.02677621878683567, -0.05509965121746063, 0.003052359214052558, -0.06924096494913101, -0.04084869846701622, -0.043533697724342346, 0.016857950016856194, 0.007910641841590405, 0.03405509889125824, -0.04123879224061966, 0.010422715917229652, -0.06882745027542114, -0.010255871340632439, -0.008061821572482586, 0.00315288663841784, 0.0373966321349144, -0.04314813017845154, -0.04811989143490791, -0.027145134285092354, -0.0032529248856008053, -0.05574007332324982, -0.01444682665169239, -0.006571355741471052, -0.0009400562266819179, -0.003902074182406068, -0.036042530089616776, 0.008145836181938648, -0.04386449232697487, 0.02535507269203663, -0.022381464019417763, 0.019527815282344818, -0.05857593193650246, 0.02874990552663803, -0.006087214220315218, 0.029733728617429733, 0.03706596419215202, 0.043023545295000076, -0.024743668735027313, -0.013368954882025719, -0.008524501696228981, 0.008223180659115314, -0.038392554968595505, -0.017169343307614326, 0.013615690171718597, -0.03304421529173851, -0.01797361485660076, -0.007682580966502428, -0.02586526609957218, -0.013345369137823582, -0.0052774567157030106, -0.03287811949849129, -0.01863158866763115, -0.035420577973127365, -0.012154356576502323, -0.03478009253740311, 0.0003036924754269421, 0.04906773194670677, 0.005740452092140913, -0.072926364839077, -0.049056924879550934, -0.020146412774920464, -0.04929449036717415, -0.021509772166609764, -0.05442845821380615, 0.04363555833697319, -0.045170970261096954, -0.020324956625699997, -0.03439090773463249, -0.04227199777960777, 0.002242532093077898, 0.04257579892873764, 0.006593739613890648, 0.04437270388007164, 0.0017235490959137678, 0.03221993148326874, -0.050011858344078064, -0.01945556327700615, 0.009821980260312557, 0.05946076288819313, 0.045314766466617584, -0.020573081448674202, 0.035956282168626785, -0.0349145345389843, -0.0241019818931818, 0.06066932901740074, 0.014368936419487, -0.0008010299643501639, -0.012623022310435772, -9.93727589957416e-05, -0.011766189709305763, 0.04359627515077591, 0.0634344071149826, -0.04150157421827316, 0.01850590482354164, -0.004445819649845362, -0.020163996145129204, 0.006500907242298126, 0.04154209420084953, 0.028080884367227554, 0.021738409996032715, 0.013781304471194744, 0.07101712375879288, 0.05350251868367195, 0.0014081980334594846, -0.033688902854919434, 0.008980912156403065, 0.021291419863700867, -0.04802802950143814, -0.02029453031718731, 0.02640010043978691, -0.0008684550994075835, 0.02362016960978508, 0.04247463867068291, 0.04032399132847786, 0.08024793863296509, 0.03232013061642647, 0.03742462024092674, -0.03744255378842354, 0.04413829743862152, 0.045148879289627075, 0.04368632659316063, 0.05650508403778076, -0.03954421356320381, 0.005378000438213348, 0.06310457736253738, -0.01932710036635399, 0.041336093097925186, 0.012136082164943218, -0.0582374706864357, -0.015283621847629547, -0.010771314613521099, -0.012765762396156788, 0.001077359775081277, 0.0017384514212608337, 0.06427941471338272, -0.0032170803751796484, -0.03243012726306915, -0.00812113843858242, -0.005606845952570438, 0.06283946335315704, 0.054835736751556396, 0.0512300543487072, 0.047177303582429886, 0.02252240665256977, 0.03638392314314842], [-0.06315547227859497, -0.056862447410821915, 0.04486272484064102, 0.000974854570813477, 0.01885814778506756, -0.03534449264407158, -0.06175651401281357, 0.014810611493885517, 0.02416776865720749, -0.006376359146088362, -0.0541420541703701, -0.0622369758784771, 0.01422293670475483, -0.055089302361011505, 0.04006524756550789, -0.02576804719865322, -0.011207002215087414, -0.002519398694857955, 0.028352610766887665, -0.05043477192521095, -0.031130725517868996, -0.03637106716632843, -0.015206415206193924, -0.06766851246356964, -0.06495960801839828, -0.028874322772026062, -0.01883944496512413, -0.03550080582499504, 0.009622015990316868, -0.043951936066150665, 0.017128020524978638, -0.01011707168072462, -0.04981169104576111, -0.015724441036581993, -0.0018520118901506066, 0.022944126278162003, -0.05591411516070366, 0.04555826261639595, -0.011980186216533184, 0.021387457847595215, -0.06291336566209793, 0.00778941111639142, -0.03189963474869728, 0.013973785564303398, 0.034232910722494125, -0.031140919774770737, -0.004988316912204027, -0.06159171834588051, 0.007777020335197449, 0.045862600207328796, -0.06123560667037964, -0.015090825036168098, -0.018655482679605484, 0.035456061363220215, 0.03748441860079765, 0.04433427378535271, 0.04092475399374962, 0.008627749979496002, -0.03283020853996277, 0.0025213081389665604, -0.028459880501031876, -0.015733467414975166, -0.0350094810128212, -0.06132926046848297, 0.02245173789560795, -0.030559387058019638, -0.005291367415338755, -0.008330995216965675, 0.008831647224724293, -0.06010524928569794, -0.034935832023620605, -0.02263377048075199, -0.05108851566910744, -0.04938088357448578, -0.019983280450105667, -0.007623976096510887, -0.0268882904201746, -0.05908216908574104, -0.03069680742919445, -0.04762226343154907, -0.0097743459045887, -0.05792641267180443, -0.0397096686065197, -0.027216926217079163, -0.04958227649331093, -0.022396504878997803, 0.014676538296043873, -0.03553135320544243, -0.030690286308526993, -0.03358561173081398, 0.022283246740698814, -0.0048140306025743484, 0.013965211808681488, -0.010314065963029861, -0.01651609130203724, -0.020400486886501312, -0.022351529449224472, -0.07037065178155899, -0.030241742730140686, 0.016975929960608482, -0.07979103922843933, -0.016313258558511734, 0.0031192705500870943, -0.008301080204546452, 0.023230476304888725, -0.06937795877456665, -0.008211523294448853, -0.06818871200084686, 0.00686088390648365, -0.07239872962236404, -0.00797113124281168, -0.04354143142700195, 0.014325693249702454, 0.035422433167696, -0.047122277319431305, 0.03717367723584175, -0.03204188495874405, 0.013607178814709187, -0.06467005610466003, -0.059525683522224426, -0.027573006227612495, -0.014741980470716953, -0.06905514001846313, -0.0006008241907693446, 0.0019321718718856573, -0.01655830442905426, 0.0046133482828736305, -0.049837030470371246, -0.06683827191591263, -0.045028842985630035, -0.07345643639564514, -0.002539954613894224, -0.016530800610780716, -0.03356793150305748, 0.01596771366894245, -0.02248191274702549, 0.0012735143536701798, 0.01904354989528656, -0.03554006293416023, 0.00157223641872406, 0.01646600477397442, 0.02638929896056652, 0.01078078057616949, 0.01577037014067173, 0.010180273093283176, 0.04432804137468338, 0.0496576689183712, 0.017952624708414078, -0.029923943802714348, -0.01394147239625454, 0.004587362986057997, 0.03714525327086449, 0.02732733078300953, -0.0062323142774403095, 0.06619762629270554, 0.02896268665790558, 0.009965796023607254, 0.04910667613148689, 0.05616399273276329, 0.045248787850141525, 0.05228300020098686, -0.04260529950261116, -0.03619867190718651, -0.012451590970158577, -0.007136425469070673, 0.045072540640830994, -0.023733852431178093, 0.01926581934094429, 0.04670218378305435, -0.008125987835228443, 0.0031432658433914185, 0.02387860231101513, 0.004634199198335409, 0.05454031005501747, 0.03929584100842476, -0.032697416841983795, -0.024040279909968376, 0.04659460112452507, -0.04601840302348137, 0.026181574910879135, -0.04759502410888672, -0.01135287992656231, -0.03360215201973915, -0.01133887842297554, 0.049890950322151184, -0.013861728832125664, 0.013944254256784916, -0.005405290983617306, -0.015081594698131084, 0.053696535527706146, -0.05591252073645592, -0.003249421250075102, 0.04158240184187889, 0.028915999457240105, -0.009259162470698357, 0.06964418292045593, 0.0028250226750969887, 0.07721170037984848, -0.054124847054481506, 0.011789090000092983, 0.014049303717911243, 0.022697962820529938, 0.0023160732816904783, 0.02374144271016121, -0.04863228276371956, -0.04327167943120003, -0.016821766272187233, 0.06604792922735214, -0.03321284055709839, -0.02840312197804451, 0.018430298194289207, 0.04708821326494217, 0.024272384122014046, -0.038538578897714615, -0.02322259359061718, 0.012044919654726982, -0.017382046207785606, -0.008537488989531994, 0.011699345894157887, -0.008217932656407356, -0.06302281469106674, 0.013627354986965656, 0.038766562938690186, -0.03673302382230759, 0.005032118409872055, -0.0011974291410297155, 0.032835278660058975, 0.012663278728723526, 0.0054566096514463425, -0.04059760645031929, -0.016750888898968697, 0.039360880851745605, 0.0014863241231068969, -0.0471280999481678, 0.009724274277687073, -0.029419055208563805, 0.006594530306756496, 0.0241792444139719, 0.01687834970653057, -0.01969674974679947, -0.03260809928178787, -0.01870991662144661, 0.016056599095463753, -0.034052640199661255, 0.04878160357475281, 0.02867068536579609, -0.015119734220206738, 0.0711066871881485, 0.007296497467905283, 0.025119975209236145, 0.048776328563690186, 0.014460338279604912, -0.03248116374015808, -0.0007987420540302992, 0.008524144068360329, 0.039996154606342316], [0.027545848861336708, 0.03155329078435898, 0.024579444900155067, 0.004879350773990154, -0.05274489149451256, -0.046460770070552826, 0.04093598201870918, -0.002875351579859853, -0.028352195397019386, 0.045292872935533524, 0.034667398780584335, 0.017382560297846794, 0.012040260247886181, -0.0326884388923645, 0.01758916676044464, 0.01456703245639801, 0.029683876782655716, 0.04275144636631012, 0.025264257565140724, 0.05112587660551071, -0.05233750119805336, 0.05847937986254692, 0.035916995257139206, 0.005732673220336437, -0.02628212235867977, -0.018527323380112648, 0.04988711699843407, -0.007870708592236042, 0.05218484625220299, 0.016755353659391403, 0.011921882629394531, -0.053022440522909164, -0.053164996206760406, -0.05903824046254158, 0.02714681811630726, -0.02344050444662571, -0.05161323770880699, -0.03210198134183884, -0.03597714379429817, 0.043393347412347794, -0.021800344809889793, -0.05250953882932663, -0.040275800973176956, -0.017333080992102623, 0.02338823489844799, 0.03101888857781887, -0.036626532673835754, 0.010928226634860039, -0.03538050502538681, -0.04881550744175911, 0.0480930358171463, -0.031356871128082275, -0.012031280435621738, 0.02399114891886711, -0.05712760239839554, 0.008817227557301521, 0.040268439799547195, -0.03438160941004753, 0.03310322016477585, 0.03689774125814438, -0.006429367698729038, -0.03506163880228996, -0.023973137140274048, -0.038014933466911316, 0.003272522473707795, -0.06358222663402557, 0.05167049914598465, 0.011018737219274044, -0.018893040716648102, -0.04142671823501587, 0.03452057018876076, -1.0082480002893135e-05, 0.02092323638498783, -0.021856142207980156, 0.03433598577976227, -0.0597277395427227, 0.011963190510869026, -0.0011873000767081976, 0.04882225766777992, 0.02083827182650566, -0.015100465156137943, 0.0329718180000782, 0.04365644231438637, -0.016834625974297523, -0.03419573977589607, -0.04900990054011345, 0.005962151102721691, -0.05082644522190094, 0.017458923161029816, 0.0505056269466877, 0.026579106226563454, -0.04804595932364464, 0.04620669037103653, 0.022683486342430115, -0.06319097429513931, -0.026976635679602623, 0.013099968433380127, -0.009434306062757969, -0.028776241466403008, 0.009339597076177597, 0.03499267250299454, -0.02487095445394516, -0.015063517726957798, -0.02345235086977482, -0.02346661314368248, 0.052295759320259094, 0.04417166858911514, -0.06823405623435974, -0.021171540021896362, 0.01957889460027218, -0.012764114886522293, 0.022362176328897476, 0.006193150300532579, -0.05580717325210571, 0.007105065975338221, -0.03082355484366417, 0.03492402285337448, 0.007034569047391415, 0.019400140270590782, -0.003963697236031294, -0.03999628499150276, -0.019581837579607964, 0.019521579146385193, -0.027305319905281067, 0.03557000309228897, -0.03845897316932678, -0.03371013328433037, -0.044368818402290344, 0.029308127239346504, 0.027453485876321793, 0.020132817327976227, 0.030985374003648758, 0.053306419402360916, -0.06093395873904228, -0.03950732946395874, -0.027936607599258423, 0.06245683506131172, -0.02664749138057232, -0.015640387311577797, 0.01628483086824417, -0.05485191196203232, 0.03893342986702919, -0.033968232572078705, -0.00909667368978262, 0.018644848838448524, -0.04682323336601257, 0.006405974272638559, -0.02840586006641388, -0.03058703988790512, -0.0030208739917725325, -0.005556791089475155, -0.043269652873277664, -0.0066099693067371845, -0.056832943111658096, -0.018590854480862617, 0.021854082122445107, 0.019437624141573906, -0.01965215429663658, -0.0126640060916543, -0.019467545673251152, -0.024010032415390015, -0.0029919189400970936, -0.04398390278220177, 0.03610391542315483, -0.02524206042289734, 0.037162140011787415, -0.05073568597435951, 0.003689698874950409, -0.0195473525673151, 0.0043958500027656555, 0.010812437161803246, 0.01739281229674816, 0.02858971804380417, 0.03427840769290924, -0.04942646250128746, 0.0332832857966423, 0.0006036817212589085, 0.028828395530581474, -0.008909665048122406, -0.00252456683665514, -0.021884208545088768, -0.040942948311567307, -0.04295368865132332, 0.024413393810391426, -0.04721371456980705, -0.03204776719212532, 0.011239120736718178, -0.03530792146921158, -0.030048822984099388, -0.06957141309976578, 0.0063725244253873825, 0.015497433952987194, 0.058053795248270035, -0.03631003573536873, 0.01907915063202381, 0.043383073061704636, -0.014766426756978035, -0.04241569712758064, 0.04118805006146431, 0.0007518960628658533, 0.01053822971880436, -0.027839969843626022, -0.03946792334318161, 0.028076447546482086, 0.01759338192641735, 0.049709852784872055, -0.0014644762268289924, 0.06778095662593842, 0.027794456109404564, 0.04795259237289429, 0.020006835460662842, 0.03156816214323044, 0.062357790768146515, 0.004242353141307831, 0.013355197384953499, 0.07015156745910645, 0.021151913329958916, -0.03268604725599289, -0.021410249173641205, 0.03598425164818764, 0.05320174992084503, 0.05732787027955055, 0.02956053614616394, 0.03385063260793686, -0.04184914380311966, 0.053916554898023605, 0.02769657038152218, 0.062403276562690735, 0.0028927745297551155, 0.03163409233093262, -0.0605352446436882, -0.007948402315378189, 0.021193455904722214, 0.00392740685492754, -0.003890821011736989, 0.08340799808502197, -0.02919062227010727, -0.009805240668356419, 0.03115566447377205, 0.04225708544254303, -0.014207286760210991, -0.018063176423311234, 0.0314180962741375, 0.06150581315159798, -0.0057610394433140755, 0.022011497989296913, -0.012025169096887112, -0.016936765983700752, 0.007156053092330694, 0.05594029277563095, 0.048308275640010834, -0.038628097623586655, 0.061942435801029205, 0.02725888043642044, 0.029799556359648705, -0.0026903562247753143], [-0.03230100870132446, -0.04827405512332916, -0.050108298659324646, -0.02017495594918728, 0.010489247739315033, -0.051000989973545074, 0.008318111300468445, 0.003327038837596774, 0.008690498769283295, -0.046520430594682693, -0.042723458260297775, -0.06994243711233139, -0.0004535785410553217, -0.04936182498931885, 0.0023914342746138573, -0.051153283566236496, -0.04229332134127617, -0.011804758571088314, -0.05944855511188507, -0.01004099939018488, 0.04949158802628517, -0.01353480014950037, -0.0610848031938076, 0.007962360978126526, 0.01253661047667265, 0.0028391871601343155, -0.015383070334792137, -0.009692764841020107, -0.006286691874265671, 0.027306273579597473, -0.015601016581058502, 0.03167684003710747, -0.06181468814611435, 0.042579445987939835, -0.01675262302160263, -0.06216944381594658, -0.06417655944824219, 0.03615254536271095, -0.061485406011343, 0.030569450929760933, -0.034129656851291656, 0.0021460014395415783, 0.02022397331893444, -0.025794807821512222, -0.051429782062768936, -0.04986095428466797, 0.016828490421175957, 0.04485025629401207, 0.020152399316430092, -0.041340772062540054, 0.030573947355151176, 0.014477414079010487, -0.057109687477350235, 0.018013441935181618, 0.005975432228296995, -0.03368197754025459, 0.042914148420095444, -0.0016532241133973002, 0.0009538645390421152, -0.007676387205719948, 0.01026682835072279, -0.06343912333250046, -0.03493952378630638, -0.0164335910230875, -0.032440971583127975, -0.027485301718115807, -0.006994451396167278, 0.03463996946811676, -0.05744868516921997, -0.02184084989130497, -0.06943158060312271, 0.005507384892553091, -0.05048884451389313, 0.0006198922055773437, 0.02522381953895092, -0.06690236926078796, 0.024569641798734665, -0.02701355144381523, 0.010141413658857346, -0.03438602015376091, 0.0051092165522277355, -0.004818371497094631, 0.03834903612732887, -0.06867758184671402, -0.02787955291569233, 0.0024882513098418713, -0.06912655383348465, 0.02070319652557373, 0.05046750232577324, -0.017169183120131493, -0.06546836346387863, -0.03105967678129673, 0.012636037543416023, 0.041161179542541504, 0.029912689700722694, -0.028600972145795822, -0.019932420924305916, 0.008580285124480724, -0.07095551490783691, -0.0722132995724678, 0.030875418335199356, -0.034091755747795105, -0.07466212660074234, -0.039009224623441696, -0.056033458560705185, -0.005083629861474037, -0.05240008234977722, -0.025574160739779472, -0.01535109058022499, 0.017477339133620262, 0.017770908772945404, -0.054868172854185104, -0.04738261178135872, 0.004402628634124994, -0.008986476808786392, 0.020216889679431915, 0.016332659870386124, -0.03462653607130051, 0.024419168010354042, -0.06034255772829056, 0.025177376344799995, -0.0340537391602993, -0.05091448128223419, -0.02964979037642479, 0.020915621891617775, 0.0028787499759346247, -0.0095625976100564, 0.0028139676433056593, -0.015945617109537125, -0.023722706362605095, -0.04819536209106445, -0.029893435537815094, -0.027961108833551407, -0.05916169658303261, -0.07992930710315704, -0.051863692700862885, 0.028055790811777115, 0.013607260771095753, -0.03296756371855736, 0.003922936972230673, -0.0027038983535021544, -0.03913235291838646, 0.03484690189361572, -0.007787991315126419, 0.057693008333444595, -0.035945530980825424, 0.06258029490709305, 0.029114020988345146, 0.04576372355222702, -0.048965103924274445, -0.030678916722536087, 0.011171774007380009, 0.03870241343975067, -0.029945112764835358, 0.02303904853761196, 0.04310528561472893, 0.004787561483681202, -0.004819254856556654, 0.03249124065041542, -0.0726059302687645, -0.017282480373978615, -0.02463875710964203, -0.02889774926006794, 0.008251922205090523, -0.03935062885284424, 0.018531009554862976, 0.015049340203404427, -0.05123336985707283, 0.011432142928242683, 0.00998491607606411, 0.0014543300494551659, 0.010917059145867825, -0.05221989005804062, 0.033780865371227264, 0.040104106068611145, -0.021864185109734535, 0.010855088010430336, 0.019432829692959785, 0.006657179910689592, -0.03146809712052345, 0.03156746178865433, -0.0028091142885386944, 0.02080385759472847, -0.064368836581707, -0.07289877533912659, -0.004751185420900583, 0.00800996832549572, 0.006683916784822941, 0.0010961763327941298, 0.02732820063829422, 0.011191858910024166, 0.023127427324652672, -0.014400854706764221, 0.045415956526994705, 0.01648787409067154, 0.0443473644554615, -0.01814897358417511, 0.06890060007572174, 0.03840188682079315, 0.039378274232149124, -0.023637330159544945, -0.018612589687108994, -0.037448931485414505, 0.03159250691533089, -0.021981531754136086, 0.007593545597046614, -0.03466533124446869, 0.06620483100414276, 0.048545222729444504, -0.012206834740936756, 0.0602344386279583, 0.05873937904834747, 0.02113218419253826, 0.03878794237971306, 0.04369699954986572, -0.02350236475467682, 0.0423106886446476, 0.04317289963364601, 0.02154145948588848, 0.04083429276943207, 0.005265530664473772, -0.010194971226155758, 0.0457029826939106, 0.07796850800514221, 0.04677508398890495, 0.018370799720287323, -0.03368586674332619, 0.06009092926979065, -0.020464660599827766, 0.024729905650019646, 0.009709942154586315, -0.007507829926908016, -0.019299140200018883, -0.01541032362729311, -0.016891660168766975, -0.04998152330517769, -0.0326027050614357, 0.05723753198981285, 0.0462787039577961, 0.018712326884269714, 0.001008212915621698, -0.02242489904165268, -0.027815978974103928, 0.06353865563869476, -0.028970398008823395, -0.010707518085837364, 0.004966306034475565, -0.04541042819619179, 0.006452848203480244, 0.06077619269490242, -0.024477215483784676, -0.02910359390079975, -0.011824973858892918, 0.02643616870045662, -0.0009350331383757293, 0.05507972091436386], [-0.046604570001363754, -0.05720232427120209, 0.009424297139048576, -0.04588388651609421, -0.003676077350974083, 0.03008812479674816, -0.06933165341615677, 0.023557191714644432, -0.05406775325536728, -0.044700395315885544, -0.010310666635632515, -0.0620681568980217, 0.01786871626973152, -0.04771948605775833, -0.0036492806393653154, -0.04877365007996559, -0.01229387428611517, -0.055866602808237076, -0.009891549125313759, -0.03447706997394562, 0.026900820434093475, 0.02606339193880558, 0.026342160999774933, 0.018893204629421234, -0.005763760302215815, -0.04708552360534668, 0.018529903143644333, -0.0072716916911304, -0.03380528464913368, 0.03324458375573158, 0.0397176556289196, -0.010695988312363625, 0.00577720208093524, -0.033090464770793915, 0.037201449275016785, -0.05536752939224243, -0.02871505543589592, -0.04937950521707535, -0.017354652285575867, 0.03466542065143585, -0.015063054859638214, -0.056865185499191284, -0.0238674096763134, 0.015073559246957302, -0.05497056618332863, 0.038784321397542953, -0.011027494445443153, -0.06532997637987137, 0.04030514135956764, 0.00660496111959219, -0.039328888058662415, -0.0407274067401886, -0.04934745281934738, 0.04728204756975174, -0.006664325948804617, 0.0020055242348462343, -0.06862817704677582, -0.001591984648257494, -0.061517734080553055, -0.06500545889139175, 0.035301871597766876, 0.003571073990315199, 0.025365905836224556, 0.015225035138428211, 0.041137274354696274, -0.036370184272527695, 0.04237687960267067, -0.03516445681452751, -0.037901896983385086, -0.049658432602882385, 0.02729807235300541, -0.027430560439825058, -0.06404763460159302, -0.058333124965429306, -0.03414781019091606, -0.05188288912177086, 0.009582201950252056, 0.026932714506983757, 0.026428790763020515, 0.047020912170410156, 0.007049248553812504, -0.0005025693099014461, -0.0030619751196354628, -0.0323200561106205, 0.03631051629781723, 0.009758454747498035, 0.04585228115320206, 0.0054918620735406876, -0.028063569217920303, 0.045441124588251114, -0.020846089348196983, 0.017408335581421852, -0.04565395042300224, 0.03116203472018242, -0.0548115074634552, 0.020488815382122993, 0.012135595083236694, -0.03983685001730919, 0.007211185060441494, -0.0461185984313488, 0.03359384834766388, -0.01804478093981743, -0.04385770112276077, -0.039064787328243256, -0.029223643243312836, 0.04802747443318367, -0.052424367517232895, 0.052995577454566956, 0.0484565831720829, -0.06313711404800415, -0.06161751225590706, -0.03684880957007408, 0.04811359941959381, -0.06436759978532791, -0.04881950840353966, -0.03720405325293541, 0.0024778603110462427, 0.034217000007629395, -0.0018695242470130324, 0.0074811214581131935, -0.008555775508284569, -0.0011804405367001891, -0.026989368721842766, -0.07044196128845215, 0.018027840182185173, 0.03170332312583923, -0.01635187305510044, 0.005852175410836935, 0.0039105601608753204, 0.00024436155217699707, -0.02464432455599308, -0.02066074311733246, -0.003338488517329097, -0.021538719534873962, -0.03092220239341259, -0.051732148975133896, 0.009542727842926979, 0.04654143750667572, -0.007636282593011856, -0.03167615458369255, -0.023428374901413918, -0.0036006036680191755, -0.01224958524107933, -0.07636381685733795, 0.026846587657928467, 0.056358590722084045, -0.01993514969944954, -0.03675268217921257, -0.01384674571454525, 0.03661221265792847, 0.007572201080620289, 0.017235150560736656, -0.04468246549367905, -0.022718586027622223, 0.044443853199481964, -0.007715272717177868, 0.0066947536543011665, -0.05851706117391586, 0.025351429358124733, -0.01827562227845192, -0.05953579023480415, 0.03707186505198479, -0.00849408470094204, 0.004751754458993673, 0.013561771251261234, -0.021878935396671295, -0.07608038932085037, 0.007604297250509262, 0.020989233627915382, 0.013889585621654987, -0.045521341264247894, 0.029853366315364838, 0.008646545931696892, 0.012200682424008846, -0.003578395815566182, 0.003335272893309593, -0.004141658078879118, 0.023213231936097145, 0.008176092989742756, -0.045591626316308975, -0.026742780581116676, 0.0578073151409626, 0.03169192001223564, 0.004205906298011541, 0.04092603549361229, 0.00720461830496788, 0.017775023356080055, 0.0029405178502202034, 0.012086953036487103, 