{"conv_input.weight": [[[[0.22259508073329926, -0.0511479489505291, 0.024863041937351227], [-0.12240398675203323, 0.08815716952085495, 0.0507093109190464], [0.23838688433170319, 0.08250541239976883, -0.017570175230503082]], [[0.09951554983854294, 0.03948848322033882, -0.027511851862072945], [0.02168501727283001, -0.06311562657356262, -0.1506165713071823], [-0.006522428710013628, 0.16017457842826843, 0.03021058812737465]], [[0.056897684931755066, -0.04508909210562706, -0.014139017090201378], [0.131185382604599, 0.20573684573173523, 0.23784933984279633], [0.19899912178516388, 0.09788919985294342, 0.17904698848724365]]], [[[-0.11148519068956375, -0.08269506692886353, -0.08933944255113602], [-0.13917984068393707, 0.06478500366210938, 0.0007827961235307157], [-0.12532992660999298, 0.1906396597623825, 0.02184128761291504]], [[0.2025214433670044, 0.07596169412136078, -0.09758743643760681], [0.06379599124193192, 0.03616427257657051, -0.0912679061293602], [0.05126410350203514, 0.08434994518756866, -0.02970397286117077]], [[0.23244509100914001, 0.05872887745499611, 0.2484777867794037], [0.2198539525270462, 0.13190674781799316, -0.07265079766511917], [0.11453693360090256, 0.22497007250785828, 0.21734659373760223]]], [[[-0.13321083784103394, -0.05309799313545227, -0.08419429510831833], [-0.04346529394388199, -0.08719991147518158, 0.13190007209777832], [0.010335316881537437, 0.046084120869636536, -0.17042885720729828]], [[0.030214114114642143, -0.07944386452436447, 0.13913650810718536], [-0.03427501022815704, -0.06869523972272873, -0.20836691558361053], [-0.1875746101140976, 0.06874245405197144, -0.06858089566230774]], [[-0.03906549513339996, -0.1836380809545517, -0.19277213513851166], [-0.07171036303043365, -0.11321167647838593, -0.18977555632591248], [0.035204723477363586, -0.12661738693714142, -0.07559946924448013]]], [[[-0.05539112538099289, 0.02392786741256714, 0.05978266894817352], [0.04022230580449104, -0.02887565642595291, -0.08665919303894043], [-0.08598296344280243, -0.016366511583328247, 0.05888562276959419]], [[0.03299893066287041, 0.02332008257508278, -0.0792577937245369], [-0.16039909422397614, -0.04630778729915619, 0.0730111300945282], [0.040665801614522934, -0.06420528143644333, -0.02306205965578556]], [[0.06441684067249298, 0.17177467048168182, 0.09576613456010818], [-0.13188113272190094, 0.17271560430526733, -0.14636832475662231], [-0.14761726558208466, 0.001086522825062275, 0.1312248557806015]]]], "conv_input.bias": [0.2031867355108261, 0.0586869902908802, -0.05771440640091896, 0.0268657635897398], "bn_input.weight": [1.0544923543930054, 1.0540308952331543, 1.0449517965316772, 0.9290677309036255], "bn_input.bias": [0.07769592851400375, 0.09744689613580704, -0.08519399166107178, 0.015449533239006996], "bn_input.running_mean": [0.0, 0.0, 0.0, 0.0], "bn_input.running_var": [1.0, 1.0, 1.0, 1.0], "bn_input.num_batches_tracked": 0, "main_block.conv.weight": [[[[0.10939595848321915, -0.011360599659383297, 0.06752070784568787], [0.1735822558403015, 0.03427441045641899, -0.06581100076436996], [0.05375663563609123, -0.0393575094640255, -0.00047647496103309095]], [[0.16144973039627075, 0.0346929170191288, 0.17934077978134155], [0.08417508751153946, 0.16767117381095886, 0.020792542025446892], [0.11159104853868484, 0.17343002557754517, 0.10958753526210785]], [[-0.07671766728162766, -0.12237711995840073, -0.02111586555838585], [-0.11485683917999268, 0.008140669204294682, 0.02749231830239296], [-0.0997292622923851, 0.05665596202015877, -0.2008836418390274]], [[0.10111237317323685, 0.02239108271896839, -0.05655091255903244], [-0.05915549024939537, 0.167434960603714, -0.027381833642721176], [0.07719489932060242, 0.13135963678359985, 0.03392518684267998]]], [[[-0.15593795478343964, -0.1041811853647232, 0.04977249726653099], [0.005069005768746138, -0.16846345365047455, 0.009425012394785881], [-0.004875287879258394, 0.07096879184246063, -0.14125455915927887]], [[-0.13757646083831787, -0.14956384897232056, 0.03689292445778847], [-0.12829121947288513, -0.12114620208740234, -0.15019920468330383], [0.08458435535430908, -0.03461289033293724, -0.15853460133075714]], [[0.1621561199426651, -0.05836334079504013, 0.06950992345809937], [0.1528312861919403, 0.17423777282238007, 0.006995209492743015], [0.07247396558523178, 0.1294465810060501, 0.0861402228474617]], [[0.00725118163973093, 0.1056789681315422, -0.044544197618961334], [0.10574971139431, -0.002935473108664155, -0.16036517918109894], [-0.05014067143201828, 0.08580652624368668, -0.10675446689128876]]]], "main_block.conv.bias": [0.04485217481851578, 0.001068177167326212], "main_block.bn.weight": [1.0049244165420532, 1.0023068189620972], "main_block.bn.bias": [0.09393133968114853, -0.051478441804647446], "main_block.bn.running_mean": [0.0, 0.0], "main_block.bn.running_var": [1.0, 1.0], "main_block.bn.num_batches_tracked": 0, "conv_policy.weight": [[[[-0.3670211434364319]], [[0.08116947114467621]]], [[[0.2187655121088028]], [[-0.4906606078147888]]], [[[-0.4029383361339569]], [[-0.6649396419525146]]], [[[0.5379964113235474]], [[0.025319209322333336]]]], "conv_policy.bias": [0.40703248977661133, -0.6689014434814453, -0.29202714562416077, -0.5792511701583862], "bn_policy.weight": [0.7803931832313538, 0.7166428565979004, 0.8201695680618286, 0.8400635719299316], "bn_policy.bias": [-0.0014984653098508716, 0.012516123242676258, 0.03434411808848381, 0.1021285280585289], "bn_policy.running_mean": [0.0, 0.0, 0.0, 0.0], "bn_policy.running_var": [1.0, 1.0, 1.0, 1.0], "bn_policy.num_batches_tracked": 0, "fc_policy.weight": [[0.07550439983606339, 0.10980376601219177, 0.02036491222679615, 0.09130740910768509, 0.1346624195575714, 0.11093731224536896, 0.023444410413503647, 0.13002385199069977, 0.09943558275699615, 0.019605470821261406, 0.0013308459892868996, 0.0664857029914856, 0.04121144860982895, 0.07191375643014908, -0.021109722554683685, 0.03562859073281288, 0.09759099036455154, 0.03995595872402191, -0.012831135652959347, -0.012999056838452816, -0.09144874662160873, 0.04038405418395996, -0.028719378635287285, 0.029000964015722275, 0.030688084661960602, 0.0834750086069107, -0.060144275426864624, -0.0757991224527359, 0.03783626854419708, -0.05083569139242172, 0.04057418927550316, 0.014460671693086624, 0.08364535123109818, 0.06385309994220734, -0.031076602637767792, -0.0765199363231659, -0.006898637395352125, -0.07619437575340271, 0.028930984437465668, 0.0654485747218132, 0.044421881437301636, 0.08856866508722305, -0.04512927681207657, -0.02315915934741497, 0.05097818747162819, -0.05700218304991722, 0.04172521457076073, 0.0824960470199585, 0.04298722743988037, 0.05838918313384056, 0.04187188297510147, -0.006982713472098112, 0.05927225947380066, 0.04594114050269127, -0.0293536726385355, 0.016330672428011894, 0.12419847398996353, 0.03447389975190163, 0.0684567242860794, 0.056153010576963425, 0.019971070811152458, 0.04899117723107338, 0.12514595687389374, 0.07459742575883865, -0.09637963771820068, -0.02720329537987709, -0.13642971217632294, -0.10675046592950821, -0.109791100025177, -0.06696153432130814, -0.044810496270656586, -0.01524820365011692, -0.043496113270521164, -0.023044776171445847, -0.08696999400854111, 0.017190800979733467, -0.004980647470802069, -0.025355743244290352, -0.09279794991016388, -0.011609062552452087, -0.13772666454315186, -0.058649707585573196, -0.007629841566085815, -0.006947153713554144, -0.05113832280039787, 0.05130171775817871, -0.05936455354094505, -0.008340105414390564, -0.06536827981472015, -0.08092088252305984, -0.0029365799855440855, -0.02875155210494995, 0.023744327947497368, 0.06156383454799652, -0.01773829013109207, -0.028039146214723587, -0.08209811896085739, -0.050137750804424286, 0.03977716341614723, 0.009325411170721054, 0.015569581650197506, 0.03730790317058563, 0.022503716871142387, -0.11489128321409225, -0.0816677063703537, -0.009607364423573017, -0.01964586414396763, -0.006533810403198004, 0.02068718895316124, -0.02442721463739872, 0.0014400999061763287, -0.045437246561050415, -0.05216638371348381, 0.0012208097614347935, 0.028335025534033775, -0.012254330329596996, 0.03659480810165405, -0.07582488656044006, 0.005616534501314163, -0.03513242304325104, -0.05954088270664215, -0.07771825045347214, -0.11285090446472168, -0.028780916705727577, -0.05121086537837982, -0.031096143648028374, -0.03652231767773628, -0.07613617926836014, -0.06716164946556091, -0.026950322091579437, 0.029482325538992882, -0.012384612113237381, -0.018437104299664497, 0.010265516117215157, 0.00645399559289217, -0.03795694559812546, -0.017934180796146393, 0.023515963926911354, -0.04871083423495293, 0.005454339552670717, 0.0337505005300045, 0.06627839803695679, -0.03089960850775242, 0.023460926488041878, 0.021889900788664818, 0.007065001409500837, -0.0766133964061737, -0.06816592067480087, 0.06619328260421753, -0.07236272096633911, -0.02273917756974697, -0.07040455937385559, 0.04834676906466484, 0.054732151329517365, -0.06351177394390106, -0.005102057475596666, -0.008079931139945984, 0.006715151481330395, -0.06251213699579239, -0.07295433431863785, -0.005983419716358185, 0.09883902221918106, -0.08460088819265366, 0.032415952533483505, 0.00037523225182667375, -0.03245897591114044, -0.05608602985739708, -0.08336851745843887, 0.03575694561004639, 0.06574305891990662, -0.047430429607629776, -0.025823241099715233, -0.007705046329647303, -0.08207543194293976, -0.1124238446354866, -0.03379598259925842, -0.03670056164264679, 0.017478864639997482, -0.001574559835717082, -0.027416054159402847, -0.035447753965854645, -0.056298304349184036, -0.033597882837057114, -0.06263267993927002, -0.07763928920030594, -0.043467581272125244, -0.03461337089538574, 4.1204766603186727e-05, 0.0562596395611763, 0.007516039535403252, 0.06230183690786362, 0.0020690469536930323, -0.05481370911002159, -0.049472298473119736, -0.1300961822271347, -0.12008840590715408, -0.04382633417844772, -0.07378961890935898, -0.056807857006788254, -0.03186633065342903, -0.04235025495290756, -0.08156219124794006, -0.06293924897909164, -0.01815827563405037, -0.028282903134822845, -0.11731843650341034, -0.03529571741819382, -0.10067187994718552, -0.13274410367012024, -0.07832790911197662, -0.07816921174526215, -0.03582478687167168, -0.09740816801786423, -0.06606060266494751, -0.0411381870508194, -0.08954581618309021, -0.06526079773902893, -0.061197832226753235, -0.0423566959798336, -0.056101568043231964, -0.03958403691649437, -0.08591098338365555, -0.016538521274924278, -0.07067110389471054, -0.14969830214977264, -0.08488677442073822, 0.0017217514105141163, 0.003734421217814088, -0.01347633171826601, -0.029175475239753723, -0.013677655719220638, -0.1145450621843338, -0.06040254607796669, -0.04407421499490738, -0.029407557100057602, -0.026027940213680267, -0.007410425692796707, -0.03350204601883888, 0.0003987210220657289, -0.03384847939014435, -0.06721753627061844, -0.06592754274606705, -0.09055066853761673, -0.030134279280900955, -0.047045134007930756, -0.011287507601082325, -0.09251654893159866, -0.084835484623909, -0.02810496650636196, -0.056248556822538376, -0.06454088538885117, -0.11096183210611343, -0.11162417382001877, -0.08422784507274628, -0.07882670313119888, -0.07643963396549225], [0.06478516012430191, 0.05909561738371849, 0.002354840748012066, -0.000254577724263072, 0.006932624615728855, 0.002525618765503168, 0.06763067841529846, 0.014546540565788746, 0.06491759419441223, 0.06820212304592133, 0.02807154506444931, -0.045208949595689774, 0.029695430770516396, 0.0638909563422203, 0.03326861187815666, -0.005212331190705299, -0.007538061123341322, -0.047271158546209335, -0.040704503655433655, 0.026909910142421722, 0.029019271954894066, 0.018085502088069916, 0.07306700199842453, 0.06828358769416809, -0.004352610092610121, 0.007055900990962982, 0.06748902052640915, -0.013075048103928566, 0.03361383453011513, -0.031440213322639465, 0.0727774053812027, 0.050633858889341354, -0.0190227460116148, 0.022074460983276367, -0.023172203451395035, 0.002940271981060505, 0.025006545707583427, 0.03194817900657654, -0.02430461160838604, 0.006916429381817579, -0.02638235315680504, 0.010521705262362957, -0.04570511728525162, -0.039119139313697815, 0.0022872143890708685, -0.02135620079934597, 0.055372949689626694, -0.0016685333102941513, 0.05284150689840317, 0.07076482474803925, 0.07357444614171982, 0.007679395377635956, 0.06027290225028992, -0.033648137003183365, 0.0723906084895134, 0.05964173749089241, -0.03929312899708748, 0.006138984579592943, -0.03928646072745323, 0.006464110221713781, -0.030559096485376358, 0.06955592334270477, -0.025146247819066048, 0.01432827115058899, -0.03519657999277115, 0.016109952703118324, -0.07548756897449493, 0.011673295870423317, -0.02335553802549839, -0.038955967873334885, 0.04373832792043686, 0.009777613915503025, 0.0116352504119277, -0.005684713367372751, 0.01877269707620144, 0.014336766675114632, 0.011971055530011654, 0.03698418661952019, -0.04179579019546509, 0.021583110094070435, -0.06404382735490799, -0.029299234971404076, -0.02090904302895069, -0.07547139376401901, 0.009402183815836906, -0.0308595709502697, -0.00325776101090014, -0.005154786165803671, -0.049812715500593185, -0.019501730799674988, 0.03845003992319107, -0.04402491822838783, -0.05539858341217041, 0.0019093729788437486, 0.010782423429191113, 0.033261265605688095, 0.024774299934506416, 0.015402763150632381, -0.05358629673719406, 0.03554978594183922, -0.04571426659822464, 0.02825518324971199, -0.0910392552614212, -0.002546689473092556, -0.03503991290926933, -0.06363481283187866, 0.009716141037642956, 0.012932929210364819, 0.03067287988960743, 0.02262815833091736, 0.011005102656781673, 0.04182437062263489, -0.04553421586751938, 0.04954332113265991, 0.045872148126363754, -0.021103553473949432, -0.006920523475855589, 0.0028738020919263363, 0.0338159017264843, 0.00025571236619725823, -0.008555131033062935, 0.013390942476689816, -0.06816292554140091, 0.017898868769407272, 0.023006385192275047, 0.01558452658355236, -0.03914586082100868, -0.06248664855957031, -0.013735292479395866, -0.01280040293931961, -0.07460679858922958, 0.01995978318154812, -0.06878847628831863, -0.03262501209974289, -0.01785281114280224, -0.00960537325590849, -0.023985404521226883, 0.02639421448111534, -0.09294166415929794, -0.04580600932240486, 0.03748767822980881, -0.018013006076216698, -0.06210668012499809, -0.05018327757716179, 0.03234964609146118, -0.005526979919523001, -0.028356440365314484, 0.03201766312122345, 0.005079913884401321, -0.03606748208403587, -0.018229985609650612, -0.03676130250096321, 0.022805577144026756, 0.010628566145896912, -0.026524139568209648, -0.06898660957813263, -0.05033367872238159, -0.04844208061695099, -0.04201503470540047, 0.02571798861026764, -0.014584077522158623, -0.022573865950107574, -0.06294317543506622, -0.029565032571554184, -0.0526200532913208, 0.007002773229032755, 0.027080997824668884, 0.003580436110496521, -0.06731816381216049, -0.011645196937024593, 0.0328223891556263, -0.02314288169145584, -0.0009264427935704589, -0.010665175504982471, -0.0618826262652874, 0.032411202788352966, -0.04181618243455887, 0.0022665117867290974, -0.014899024739861488, -0.05681856721639633, -0.06261718273162842, -0.03144550696015358, 0.028875917196273804, -0.04216786101460457, -0.052430421113967896, -0.005446130875498056, -0.0178638007491827, -0.003995387349277735, 0.03492427244782448, 0.00689808139577508, 0.007623655721545219, -0.03570956736803055, -0.002330905757844448, -0.03744162991642952, -0.06191098690032959, 0.00504621397703886, -0.0630689188838005, 0.024044375866651535, -0.052083924412727356, -0.0005270318943075836, -0.017347101122140884, -0.057496875524520874, -0.0031563639640808105, -0.007717748638242483, -0.024932686239480972, -0.06549796462059021, 0.016398495063185692, -0.03781487047672272, -0.057081643491983414, -0.06731481105089188, -0.035114966332912445, 0.007612069137394428, 0.029211370274424553, -0.015735071152448654, -0.01034519262611866, -0.04745102673768997, -0.04001971334218979, -0.024877293035387993, -0.03987682983279228, -0.016694167628884315, -0.06268865615129471, -0.07929424941539764, -0.028426531702280045, -0.05236097425222397, -0.005747872870415449, 0.010140947066247463, 0.03617199510335922, -0.018307900056242943, -0.01738499477505684, -0.031274035573005676, 0.01439615711569786, 0.013760708272457123, -0.010249337181448936, -0.05538360774517059, -0.04981089383363724, -0.07004667073488235, 0.004119488410651684, -0.035227950662374496, 0.02956896647810936, 0.013767099007964134, -0.05450944975018501, 0.006903713569045067, -0.03552132099866867, -0.03990504518151283, -0.017871715128421783, -0.04164945334196091, 0.03686545416712761, 0.0007959682843647897, -0.0032595412340015173, -0.012069834396243095, 0.027469107881188393, 0.028221122920513153, 0.03582485765218735, 0.024312922731041908, -0.01871955767273903, -0.07303507626056671], [0.04589083418250084, -0.019771067425608635, 0.01921824738383293, -0.01920349895954132, 0.02791683003306389, 0.02844739891588688, 0.033991388976573944, -0.04892667010426521, -0.02284548431634903, 0.019473159685730934, 0.03417908400297165, 0.012925995513796806, -0.004618392325937748, -0.04483279585838318, 0.06605493277311325, -0.03078012354671955, 0.05550850182771683, 0.022587833926081657, 0.012155159376561642, 0.06503178179264069, 0.057602547109127045, -0.04371149092912674, 0.034285541623830795, -0.04824259132146835, -0.010255386121571064, -0.002616985933855176, -0.04978421702980995, -0.02826532907783985, 0.0753491148352623, -0.01652856543660164, 0.033148862421512604, -0.011220954358577728, 0.01173563301563263, -0.04746774211525917, 0.06056290492415428, -0.04422880336642265, 0.032702721655368805, 0.022577306255698204, 0.052586205303668976, -0.02174367569386959, 0.019654223695397377, -0.020861791446805, -0.008930766023695469, 0.027781641110777855, 0.0015446220058947802, -0.007284563034772873, 0.0678986981511116, 0.005582849495112896, 0.007990425452589989, 0.017710363492369652, 0.028111182153224945, -0.0006628810660913587, -0.040878064930438995, 0.03715033084154129, -0.04261667653918266, -0.03734496608376503, 0.05146650969982147, 0.006268704775720835, -0.05310506373643875, 0.0074052526615560055, -0.011419711634516716, 0.01832631602883339, 0.016186445951461792, -0.0025466177612543106, -0.015084312297403812, -0.0010854547144845128, -0.05948576703667641, -0.005566505249589682, -0.02779664285480976, -0.0583605095744133, 0.03727072849869728, 0.0019872996490448713, -0.05355724319815636, 0.043175991624593735, 0.008462022058665752, -0.03434552252292633, 0.01540368515998125, -0.031989529728889465, 0.02689092420041561, 0.006230936385691166, 0.030300047248601913, 0.025108065456151962, -0.045874856412410736, 0.02420896291732788, 0.019568005576729774, 0.03533223271369934, -0.03452473133802414, -0.0444626659154892, 0.040626171976327896, -0.05099594593048096, -0.05397307500243187, -0.006134783383458853, 0.028073998168110847, 0.04870051145553589, -0.02565002627670765, -0.02254416048526764, 0.006621174514293671, 0.053099263459444046, 0.04544400796294212, -0.010987483896315098, 0.004178848583251238, 0.015616861172020435, 0.04036497697234154, -0.045470405369997025, -0.009210219606757164, -0.022701986134052277, -0.04322575032711029, 0.054391004145145416, -0.03543539345264435, -0.002003532601520419, 0.0378815233707428, -0.04974019154906273, 0.03736940398812294, 0.055990900844335556, -0.005808430723845959, 0.038153160363435745, -0.026422686874866486, -0.04653012752532959, -0.003613896667957306, 0.026615122333168983, 0.023906975984573364, 0.02690873295068741, 0.01127638015896082, 0.038433339446783066, -0.018931742757558823, -0.05949272960424423, 0.0009327432489953935, 0.026090452447533607, -0.0129435108974576, 0.010973715223371983, -0.0028309905901551247, -0.027302335947752, 0.0036518671549856663, 0.014670082367956638, 0.0035276669077575207, -0.03195209056138992, 0.01722494699060917, -0.039829619228839874, -0.01980934478342533, -0.0652991533279419, -0.017138434574007988, 0.019376933574676514, 0.033898066729307175, -0.02588590979576111, 0.0030985584016889334, 0.010358748957514763, -0.05906294658780098, -0.008451513014733791, -0.059412065893411636, -0.05092335119843483, -0.0004893350997008383, 0.005295027978718281, -0.03041137009859085, 0.03262326493859291, -0.025483781471848488, -0.03344559669494629, -0.07302111387252808, -0.011042885482311249, 0.0032266261987388134, -0.01923746056854725, -0.012944964691996574, -0.02062160149216652, -0.043826933950185776, -0.058244116604328156, -0.05636610835790634, -0.04894889518618584, 0.012212281115353107, -0.05141424387693405, 0.018165823072195053, -0.048020172864198685, -0.03939018025994301, -0.03251521661877632, 0.028664514422416687, -0.045928969979286194, -0.06403657793998718, -0.0018667469266802073, -0.012092435732483864, 0.012483442202210426, 0.04287799447774887, 0.004630240146070719, -0.017585476860404015, 0.032780133187770844, -0.051755037158727646, 0.006243945099413395, -0.04987628012895584, -0.010396971367299557, 0.027566663920879364, -0.041540537029504776, -0.0165071003139019, -0.0610872246325016, -0.001956341089680791, -0.01587166264653206, 0.0040123844519257545, -0.012071755714714527, 0.03393444046378136, 0.037200674414634705, -0.0014866164419800043, -0.04550765082240105, 0.0369495153427124, -0.07669477164745331, 0.014353480190038681, 0.03463355079293251, -0.01282038725912571, 0.023240987211465836, -0.036816202104091644, -0.04507448524236679, -0.00506218196824193, 0.03651641309261322, -0.05780308321118355, 0.04360678791999817, 0.03396788612008095, 0.021255740895867348, -0.007621299009770155, -0.021966159343719482, -0.05004917085170746, -0.06546422094106674, -0.0030198865570127964, -0.06712799519300461, -0.025783082470297813, -0.07040391862392426, 0.0267158392816782, -0.05798368155956268, -0.05453196167945862, -0.03560487553477287, -0.011894568800926208, -0.06472760438919067, -0.015165649354457855, -0.06946757435798645, -0.03220001608133316, -0.05252031236886978, -0.06441804766654968, -0.03679964691400528, -0.027588047087192535, -0.018267394974827766, -0.06933806836605072, -0.05015549436211586, 0.02710561826825142, -0.022917836904525757, 0.03379635885357857, 0.033029548823833466, -0.04117614030838013, 0.007696541026234627, 0.014779415912926197, 0.003994213882833719, 0.03342529386281967, 0.011041449382901192, -0.040842216461896896, -0.021169817075133324, -0.05061499774456024, -0.043712157756090164, -0.07382389158010483, -0.009240049868822098, -0.05546946078538895, -0.0589207299053669, 0.03621148690581322, -0.06376035511493683], [0.012706412002444267, 0.042198508977890015, -0.03690366446971893, -0.00013371546810958534, 0.008486486971378326, 0.07276788353919983, -0.029403669759631157, -0.020037533715367317, 0.0370798334479332, -0.013963364996016026, -0.03585421293973923, 0.03340949863195419, 0.017770634964108467, 0.02849087119102478, -0.03621462360024452, -0.021058538928627968, 0.07416798919439316, 0.020536113530397415, -0.04394429549574852, 0.005858368240296841, 0.029599474743008614, 0.022959066554903984, 0.05548499524593353, 0.0537879541516304, 0.05111602321267128, 0.03708197921514511, 0.0120164779946208, 0.02600630559027195, -0.05091671645641327, -0.027990059927105904, -0.054905809462070465, -0.03448813781142235, 0.07215100526809692, 0.004726901184767485, -0.013211804442107677, 0.005164321977645159, -0.021824628114700317, -0.06126636639237404, 0.007896913215517998, -0.05345931649208069, 0.040133122354745865, 0.047171857208013535, -0.025154460221529007, -0.0032680879812687635, -0.025367585942149162, 0.02312847040593624, -0.007323583588004112, 0.025265146046876907, 0.02380261942744255, 0.06807979196310043, -0.02659568563103676, 0.013065263628959656, -0.01701013371348381, -0.04408707842230797, 0.003837615717202425, -0.03646714612841606, -0.005587820895016193, 0.07467642426490784, 0.0495956689119339, 0.07859697192907333, 0.06615012884140015, 0.07739334553480148, -0.041694656014442444, 0.004878803621977568, -0.023352107033133507, -0.08102921396493912, -0.04682648181915283, -0.011536085978150368, 0.0032072358299046755, 0.0287491325289011, -0.03936570882797241, 0.011338715441524982, -0.00902293249964714, -0.03237493336200714, -0.062247391790151596, -0.024067912250757217, 0.023777654394507408, -0.02430257946252823, 0.03737523779273033, -0.02929418906569481, 0.014341745525598526, -0.06891607493162155, -0.07061292231082916, -0.05924580246210098, -0.06971979141235352, -0.03514602780342102, -0.05028066784143448, -0.011965264566242695, -0.02877737767994404, -0.006272132974117994, 7.62308482080698e-05, 0.04018406569957733, 0.03497248515486717, -0.04263107478618622, 0.016753003001213074, -0.07266172021627426, 0.009456123225390911, -0.080845907330513, -0.0026397614274173975, 0.01396190095692873, -0.03425527736544609, 0.04709422215819359, -0.012414097785949707, 0.016677239909768105, -0.06102101132273674, -0.0465162955224514, 0.0056098150089383125, -0.06162445992231369, -0.017875103279948235, 0.0050355857238173485, -0.040019888430833817, -0.04842129349708557, 0.007618846371769905, -0.017059361562132835, -0.03341503068804741, -0.0364767424762249, -0.05978677421808243, -0.02828042022883892, -0.02021891064941883, -0.01812811940908432, -0.05347803235054016, -0.05094283074140549, -0.012020420283079147, -0.046889446675777435, 0.031189221888780594, 0.03141375258564949, -0.00222405674867332, -0.05241939797997475, 0.05256802961230278, -0.014103436842560768, 0.0015908541390672326, -0.0583709180355072, -0.03437105193734169, 0.027145111933350563, 0.013518367893993855, 0.015952689573168755, 0.05805236101150513, -0.04235700145363808, 0.04628819599747658, -0.012859390117228031, -0.041388072073459625, 0.05083635076880455, -0.06498296558856964, 0.02019658498466015, 0.05879213660955429, 0.026879604905843735, 0.02450699359178543, 0.043151285499334335, 0.05058741196990013, -0.03954831510782242, -0.0017754914006218314, -0.005481739994138479, -0.02937772497534752, 0.012267351150512695, -0.0022806441411376, -0.03225304186344147, -0.039316773414611816, -0.016229256987571716, -0.021874867379665375, 0.012342751026153564, -0.021676652133464813, 0.003545822575688362, -0.059353601187467575, -0.017774011939764023, 0.018037255853414536, -0.03509353846311569, -0.03337341919541359, -0.060514409095048904, 0.05946262553334236, -0.008115746080875397, 0.05322430282831192, -0.049922630190849304, -0.041395630687475204, -0.03189115598797798, -0.04823484271764755, -0.06027127802371979, -0.004430812783539295, 0.04767975956201553, -0.004016966558992863, 0.054399166256189346, -0.007791705895215273, -0.03739233687520027, -0.002369118854403496, 0.0071710022166371346, 0.011463790200650692, 0.04246224835515022, -0.06535717099905014, -0.017984889447689056, 0.03796349838376045, -0.03605218604207039, -0.016160951927304268, -0.04017888009548187, -0.013124534860253334, -0.05998711287975311, 0.014665446244180202, 0.03000940941274166, -0.05296628922224045, 0.042866021394729614, -0.014469792135059834, -0.042457833886146545, 0.009864778257906437, -0.054583583027124405, -0.055388253182172775, -0.04521796107292175, -0.06880294531583786, -0.05347946286201477, 0.03298354893922806, 0.03557412698864937, 0.021942757070064545, 0.012918710708618164, 0.01965603604912758, 0.0002474495558999479, -0.020319078117609024, -0.026364164426922798, 0.03589138761162758, -0.075578972697258, 1.7073391063604504e-05, 0.0041183168068528175, 0.038917239755392075, -0.060073476284742355, -0.02518421970307827, -0.07682088762521744, -0.01909230649471283, 0.013785275630652905, -0.0569559708237648, -0.07512479275465012, 0.023268582299351692, -0.033039290457963943, 0.03612476587295532, -0.03974507749080658, -0.0187593474984169, 0.018467264249920845, 0.012825236655771732, 0.019573869183659554, 0.021428832784295082, 0.004406967666000128, -0.06571231037378311, -0.04872531071305275, -0.05703750252723694, -0.02883470244705677, 0.02582714706659317, 0.040793705731630325, 0.03309294208884239, -0.07034744322299957, -0.06006280705332756, -0.04942041262984276, -0.06133876368403435, -0.0608934611082077, -0.05904453247785568, -0.009387902915477753, 0.042360641062259674, -0.02642940916121006, -0.038478706032037735, -0.07872156798839569, -0.0791664645075798, -0.060341667383909225], [0.006731998175382614, -0.05472216010093689, -0.001653446233831346, 0.040266167372465134, 0.005507966969162226, 0.05459538474678993, -0.05803699418902397, 0.033820997923612595, 0.030043695122003555, 0.02851836569607258, -0.017311720177531242, 0.043993398547172546, 0.05687803030014038, 0.048768434673547745, 0.05298755690455437, 0.02067423053085804, -0.023121891543269157, 0.030187655240297318, 0.04111466929316521, -0.017577167600393295, 0.01363864354789257, 0.007842551916837692, 0.001907735364511609, 0.012737082317471504, -0.0034849231597036123, 0.027507981285452843, 0.010306797921657562, -0.022559765726327896, 0.05212991312146187, 0.09557739645242691, 0.008267952129244804, 0.03686844930052757, 0.032627444714307785, -5.332657747203484e-05, 0.00892570149153471, 0.026577720418572426, 0.026597091928124428, 0.050716333091259, -0.0009661901276558638, 0.026653671637177467, -0.0527384988963604, -0.023032376542687416, 0.03493046760559082, -0.02566593699157238, -0.0047530001029372215, 0.08434643596410751, -0.004803540650755167, -0.01682770438492298, -0.028832342475652695, 0.05382091552019119, -0.033685579895973206, 0.060199763625860214, 0.07440973073244095, -0.011394341476261616, 0.018400559201836586, -0.042551904916763306, 0.009863099083304405, -0.0011293153511360288, 0.02662038616836071, 0.04092990234494209, 0.036249544471502304, -0.039864636957645416, 0.0008632261888124049, -0.06861893832683563, 0.007720980327576399, 0.011137000285089016, 0.019400494173169136, -0.04397621005773544, 0.0019270108314231038, -0.030152376741170883, 0.00881771557033062, 0.020553823560476303, -0.01371177937835455, 0.04359230026602745, -0.06342083215713501, -0.05859322473406792, 0.032775770872831345, -0.003650510450825095, -0.04259059950709343, -0.049901481717824936, 0.04407218098640442, -0.009549211710691452, -0.005920578259974718, 0.033523645251989365, 0.03443942591547966, -0.03569976985454559, -0.07693435251712799, -0.05369764566421509, 0.011397319845855236, 0.045768026262521744, 0.0010790214873850346, -0.06257409602403641, -0.00522198062390089, 0.005672825500369072, -0.064225934445858, -0.0520000196993351, -0.04132527858018875, 0.021792132407426834, -0.03300551697611809, -0.02849135547876358, -0.009463912807404995, 0.041578494012355804, -0.009471147321164608, 0.04229900613427162, -0.007877404801547527, 0.0329618863761425, 0.01372362207621336, 0.035628508776426315, -0.07071349024772644, 0.03722825273871422, -0.05938345566391945, -0.018659859895706177, 0.049712467938661575, 0.01465914212167263, 0.045182965695858, -0.02031332068145275, -0.004833536688238382, 0.0011431528255343437, -0.06006968393921852, -0.0269610658288002, -0.03399088978767395, 0.061747126281261444, 0.010941468179225922, 0.043414074927568436, -0.04967870935797691, -0.04657527059316635, 0.005178327672183514, -0.03128189221024513, 0.012728676199913025, -0.0074319117702543736, 0.06350111961364746, -0.0024825693108141422, -0.040547654032707214, -0.013555102981626987, 0.017756866291165352, -0.02088928408920765, 0.019342608749866486, 0.002795735839754343, -0.0002498466637916863, -0.019502339884638786, -0.015230893157422543, 0.025360122323036194, 0.07425595074892044, 0.056685760617256165, -0.011323738843202591, -0.005670931655913591, -0.010911284945905209, -0.0365644209086895, -0.03170709311962128, 0.0027612117119133472, 0.04644260182976723, 0.05024741590023041, 0.012249558232724667, 0.022702699527144432, 0.0033993255347013474, 0.014870484359562397, -0.02760477177798748, 0.042431365698575974, 0.07334868609905243, 0.015348020009696484, -0.007061241660267115, -0.005809628404676914, 0.014207269065082073, -0.012635146267712116, 0.01897808536887169, 0.0035029358696192503, 0.004004969261586666, 0.02038843370974064, 0.012559688650071621, -0.026684725657105446, 0.023795997723937035, 0.007402624003589153, -0.048930540680885315, 0.02976442128419876, 0.042003463953733444, 0.06706833094358444, -0.03717789798974991, 0.016348328441381454, -0.03205954656004906, -0.0008692443370819092, 0.013441432267427444, -0.042410798370838165, 0.06200256571173668, -0.01641998626291752, -0.030832093209028244, -0.06685680150985718, 0.041387900710105896, 0.015327651984989643, 0.03678332269191742, -0.02790776453912258, 0.025641771033406258, 0.019444648176431656, 0.01253958698362112, -0.06683258712291718, -0.04388768970966339, -0.03256075456738472, -0.024606570601463318, -0.010650552809238434, 0.035360436886548996, 0.019582360982894897, -0.027267098426818848, 0.031708069145679474, -0.05772220715880394, -0.0004991440218873322, 0.011621079407632351, -0.07494912296533585, 0.011863273568451405, 0.04657258838415146, 0.006779060699045658, 0.02264624834060669, -0.019603939726948738, 0.011420823633670807, -0.020914115011692047, 0.02091112546622753, -0.08109328895807266, -0.0731300637125969, 0.010569301433861256, 0.009292415343225002, -0.02702762931585312, 0.022036485373973846, -0.015897680073976517, 0.004620510619133711, 0.02260083332657814, -0.0271662138402462, -0.05293012037873268, 0.016778502613306046, 0.0038485312834382057, -0.06761433929204941, 0.013501311652362347, -0.02099553495645523, 0.03271462768316269, -0.05890319123864174, -0.0015251915901899338, 0.010776452720165253, 0.01958710327744484, 0.007489215116947889, 0.006297100801020861, 0.002572269644588232, 0.011345919221639633, 0.028152721002697945, -0.04911331087350845, 0.031409867107868195, -0.0651874840259552, 0.03787751495838165, 0.04172133281826973, -0.0005336641916073859, -0.07806757092475891, -0.04772788658738136, -0.038719963282346725, 0.04702664911746979, -0.0013020825572311878, -0.031786900013685226, -0.03872726485133171, -0.05265646427869797, -0.04119835048913956, -0.06263373792171478], [0.03574833273887634, -0.03314110264182091, 0.01382253598421812, -0.0444539375603199, -0.01005459763109684, -0.0043764375150203705, 0.04528737813234329, -0.018304122611880302, -0.0450226366519928, -0.008651429787278175, -0.02107021026313305, -0.01644933596253395, 0.04162248224020004, 0.0005571325891651213, -0.010749089531600475, 0.030607813969254494, -0.01561695709824562, -0.03915780037641525, 0.04751724749803543, 0.0012238046620041132, 0.047615230083465576, -0.0601402185857296, -0.008129054680466652, -0.035914935171604156, 0.0010529751889407635, -0.03256598487496376, -0.05527842417359352, 0.051056429743766785, -0.036980222910642624, -0.05524664372205734, -0.000244619557633996, -0.02559606544673443, -0.04240886867046356, 0.030185697600245476, -0.063943050801754, -0.023782087489962578, 0.04013274610042572, 0.023386502638459206, -0.01331231277436018, -0.06640197336673737, -0.007683275267481804, -0.07153012603521347, -0.026737695559859276, 0.02695673331618309, -0.016703467816114426, -0.04665520414710045, 0.014683970250189304, 0.004873663652688265, 0.028253665193915367, -0.0468624010682106, -0.03283906355500221, -0.034852977842092514, -0.06315026432275772, -0.042093176394701004, 0.013087263330817223, 0.003499256679788232, -0.03524930030107498, -0.018444687128067017, -0.06247566267848015, -0.06261222809553146, -0.04313287511467934, -0.00873374193906784, 0.03581364452838898, -0.0354495495557785, 0.0034928126260638237, 0.03997443988919258, 0.046248216181993484, 0.06582403928041458, -0.03960190340876579, -0.01713152974843979, 0.05770339071750641, -0.008772799745202065, 0.074231818318367, 0.07670234888792038, 0.0748479813337326, 0.021387094631791115, -0.02488655410706997, -0.03500423952937126, -0.0038185676094144583, -0.02553512342274189, 0.05890316516160965, -0.03502785414457321, 0.0722494125366211, 0.026463808491826057, 0.029606398195028305, 0.08265481144189835, -0.03540556877851486, -0.01638517528772354, -0.01622135564684868, 0.055123209953308105, 0.014431480318307877, -0.026939840987324715, -0.002493049018085003, -0.02190393954515457, 0.005542068276554346, 0.03622199222445488, 0.010963932611048222, 0.07316900044679642, 0.0049139936454594135, -0.04279319569468498, 0.03824248164892197, -0.0016933496808633208, -0.0411243699491024, -0.02284947596490383, -0.03455539420247078, 0.018525496125221252, -0.03521144390106201, -0.02609299309551716, -0.014188074506819248, 0.04972909018397331, 0.028881818056106567, 0.024608002975583076, 0.046774666756391525, -0.013911738060414791, -0.017515379935503006, -0.005252242553979158, -0.04301685094833374, -0.027466606348752975, -0.013049257919192314, 0.08207537233829498, -0.05638785660266876, 0.01995890587568283, 0.0014380759093910456, 0.004148474894464016, -0.007010140456259251, -0.00027696992037817836, 0.06474995613098145, -0.03886682540178299, 0.03164830803871155, 0.06528758257627487, 0.04334704950451851, -0.014419609680771828, 0.02890441007912159, -0.05349716916680336, -0.013003013096749783, 0.01131624449044466, 0.07509427517652512, 0.04634749889373779, 0.03412967547774315, 0.019297190010547638, 0.035389501601457596, 0.08838243782520294, 0.0769636482000351, -0.07294829189777374, 0.10728256404399872, -0.005872802808880806, 0.05897925794124603, 0.02523862011730671, 0.03657799959182739, 0.04143509268760681, 0.030699724331498146, -0.05018441751599312, -0.0027260195929557085, -0.03298378735780716, -0.0124902855604887, -0.010150676593184471, 0.08382318913936615, 0.0115031274035573, 0.07611795514822006, -0.015321792103350163, 0.09528877586126328, 0.0038535045459866524, 0.00741436006501317, 0.032374411821365356, -0.01737244427204132, 0.051589854061603546, -0.00490699103102088, 0.033781230449676514, -0.0005081133567728102, -0.031183306127786636, -0.001953769475221634, 0.058240629732608795, -0.001941871945746243, 0.07181520760059357, -0.015729853883385658, 0.03776373714208603, 0.05116576328873634, -0.015680156648159027, -0.0020754067227244377, 0.07617206126451492, 0.007828631438314915, 0.026126468554139137, 0.042119260877370834, 0.02342298813164234, 0.05931628495454788, 0.09917304664850235, 0.011859258636832237, -0.014381559565663338, 0.03502402827143669, 0.038978900760412216, 0.0002451511682011187, -0.04423880949616432, -0.015030878596007824, 0.002043168293312192, 0.015473187901079655, -0.02685614861547947, -0.003243793733417988, -0.0341070257127285, 0.054271239787340164, -0.034172914922237396, -0.032410863786935806, 0.04117001220583916, -0.01203175913542509, 0.014348383992910385, -0.03174414485692978, 0.028845321387052536, 0.06455937027931213, -0.0399085208773613, 0.055105194449424744, 0.03931136429309845, 0.05290045589208603, -0.00791624654084444, 0.05922733247280121, -0.030502846464514732, -0.012355141341686249, 0.06025657430291176, -0.0024424889124929905, 0.02606995776295662, -0.04136968404054642, -0.038926154375076294, -0.0023042946122586727, 0.006655608303844929, 0.014786627143621445, 0.05445152893662453, 0.022526495158672333, -0.02656440995633602, -0.025615297257900238, 0.062487974762916565, 0.040419887751340866, -0.02786693349480629, 0.0509343184530735, 0.0018121948232874274, 0.02622314728796482, -0.028642669320106506, 0.07267428934574127, 0.012022817507386208, 0.02831922098994255, -0.04560822993516922, -0.038858093321323395, 0.01375272125005722, 0.05630659684538841, -0.025236856192350388, 0.009173172526061535, 0.047846756875514984, 0.02005576342344284, 0.03941978141665459, -0.017043467611074448, -0.03509525954723358, -0.04389801621437073, 0.03189891204237938, 0.05590367317199707, -0.0036053266376256943, -0.026369262486696243, 0.015376065857708454, 0.06975922733545303, -0.01850401982665062], [0.03025737963616848, 0.038714949041604996, 0.04003593325614929, 0.054724425077438354, 0.010478060692548752, 0.075588658452034, 0.03919074311852455, 0.06345946341753006, -0.010749295353889465, 0.002660897560417652, 0.020627370104193687, -0.015580887906253338, 0.004082605708390474, 0.05123052000999451, 0.01676584593951702, -0.011140524409711361, 0.09606462717056274, -0.004713430069386959, -0.03958357498049736, 0.006244462914764881, -0.007704922463744879, -0.004393909126520157, 0.02565164677798748, 0.02297757938504219, 0.0677814707159996, 0.05933862179517746, -0.01095801405608654, 0.0030679397750645876, 0.05456279218196869, -0.02918289415538311, 0.04606563597917557, 0.05781438574194908, 0.0003430445212870836, -0.060311395674943924, -0.04255687817931175, -0.009345008060336113, 0.029848137870430946, -0.03537411242723465, -0.040894705802202225, 0.07561270147562027, 0.04968588799238205, 0.0482158362865448, -0.021171316504478455, -0.004314488265663385, 0.015999605879187584, -0.05874187871813774, -0.07274724543094635, -0.03694847971200943, 0.05361458659172058, 0.07661581039428711, -0.0068788048811256886, 0.014292696490883827, -7.239892875077203e-05, 0.04245086759328842, 0.03598829358816147, 0.06716921180486679, 0.07430721074342728, 0.0601310208439827, 0.0015745469136163592, -0.0059824418276548386, 0.09122355282306671, -0.007207877933979034, 0.028135908767580986, 0.08126552402973175, -0.04297202080488205, -0.03303902596235275, -0.04522591084241867, -0.029908178374171257, -0.08558189868927002, -0.05444267764687538, -0.07103855162858963, -0.03018305078148842, -0.0640709325671196, -0.007546167820692062, 0.006195645779371262, -0.020459454506635666, -0.010626685805618763, -0.0788077861070633, -0.07856997102499008, 0.005612465552985668, 0.000789899961091578, 0.006510169245302677, 0.058793582022190094, 0.008107014000415802, 0.007370234467089176, 0.0063415225595235825, 0.04065944254398346, -0.078620545566082, -0.022744912654161453, 0.004087349865585566, 0.03827284276485443, -0.04415016621351242, 0.003940959461033344, 0.011932730674743652, -0.01565445400774479, -0.06859845668077469, -0.016467055305838585, -0.06103140115737915, 0.05815097689628601, 0.01450283732265234, 0.000228542136028409, 0.04396222159266472, -0.031601209193468094, 0.011296684853732586, -0.0825575664639473, -0.05606193467974663, 0.030106637626886368, 0.024177098646759987, -0.03762400150299072, -0.03170378878712654, -0.04564768448472023, -0.03094390779733658, -0.005568729713559151, -0.014389623887836933, 0.03354605287313461, 0.01645791530609131, -0.02586541883647442, -0.023634612560272217, 0.03749929368495941, -0.046693820506334305, 0.00047750730300322175, -0.059134937822818756, -0.10180085897445679, -0.08771262317895889, -0.015457302331924438, -0.054714955389499664, -0.04612115025520325, -0.025918614119291306, -0.01824726164340973, -0.026096727699041367, -0.03222396597266197, -0.023634470999240875, -0.036677438765764236, -0.01826278492808342, -0.008390055038034916, 0.0275342408567667, -0.02162257768213749, -0.03360595554113388, 0.0023557539097964764, 0.002230599755421281, -0.003421479370445013, 0.07537389546632767, 0.0620671883225441, 0.038497794419527054, 0.005833300296217203, 0.019235903397202492, -0.0184478797018528, -0.021880779415369034, 0.04347487539052963, 0.027942851185798645, -0.023188229650259018, -0.07615118473768234, -0.016403745859861374, 0.03418949991464615, -0.03447819873690605, -0.039818886667490005, -0.04719623550772667, -0.009287944994866848, -0.007872544229030609, -0.023961137980222702, 0.0020496502984315157, -0.016350122168660164, -0.02610905095934868, 0.005443282425403595, 0.00039618811570107937, -0.052199069410562515, -0.07021360844373703, 0.013074683025479317, 0.015021519735455513, -0.050063904374837875, 0.003837189171463251, -0.010484072379767895, -0.0016662885900586843, 0.0052789729088544846, -0.03734854236245155, 0.018783731386065483, -0.05622771754860878, -0.0352284274995327, -0.0012120826868340373, 0.00698854448273778, 0.06085073575377464, 0.025257494300603867, -0.052139975130558014, -0.04048020765185356, 0.010646458715200424, -0.016467928886413574, 0.002710849279537797, 0.02877127006649971, 0.014330793172121048, -0.004320044536143541, -0.010997663252055645, 0.0500333309173584, 0.028322860598564148, -0.0847201719880104, -0.010247533209621906, -0.039068516343832016, -0.05060366168618202, -0.005931552965193987, -0.07754771411418915, -0.09351973235607147, -0.020163699984550476, -0.03659207001328468, -0.07574154436588287, -0.09550778567790985, -0.07399999350309372, -0.019618630409240723, -0.017986353486776352, -0.08249523490667343, -0.04353318363428116, -0.023674657568335533, -0.0592365488409996, 0.010614605620503426, 0.007099858485162258, 0.03811229020357132, -0.04102148488163948, -0.057704344391822815, -0.028065809980034828, 0.01589994877576828, -0.03086150623857975, 0.023607295006513596, 0.0038802125491201878, -0.017108438536524773, 0.008987224660813808, 0.014576394110918045, -0.03822466731071472, -0.05243755877017975, -0.02008844166994095, -0.05412749946117401, 0.003907869104295969, 0.026324672624468803, -0.05218680575489998, 0.02583056502044201, 0.0011300955666229129, -0.01953093335032463, 0.03321106359362602, 0.011284000240266323, 0.014608281664550304, -0.05397694930434227, -0.048961345106363297, 0.012989207170903683, -0.018857132643461227, -0.0978296771645546, 0.0017391489818692207, -0.07058669626712799, -0.06582292169332504, -0.06342662125825882, 0.003931967541575432, -0.08647601306438446, -0.05105852708220482, -0.0197600107640028, -0.056747112423181534, -0.0444834902882576, 0.00602559233084321, 0.019871428608894348, -0.09070255607366562, 0.018624497577548027], [0.07961273938417435, -0.0027985544875264168, 0.02198825404047966, 0.056299690157175064, 0.0946931466460228, 0.0014457277720794082, 0.054815057665109634, 0.0936301052570343, 0.02591506578028202, 0.040558669716119766, -0.019492892548441887, 0.03886120021343231, -0.021130993962287903, 0.04922324791550636, 0.05750911682844162, 0.04721730202436447, 0.014522348530590534, -0.026070354506373405, 0.018856357783079147, -0.0002705644292291254, 0.004915924277156591, 0.0011347532272338867, -0.07349327206611633, -0.01824333146214485, 0.09169663488864899, -0.019039342179894447, 0.0655052661895752, -0.005511198192834854, -0.031293854117393494, -0.07425783574581146, 0.043749816715717316, 0.08439401537179947, -0.002237575128674507, 0.06400299817323685, 0.009335284121334553, -0.03471450135111809, 0.017384592443704605, 0.017197346314787865, -0.009250389412045479, 0.09179819375276566, 0.03954114392399788, 0.046992767602205276, 0.028008416295051575, 0.0153866708278656, -0.02418992482125759, 0.012004293501377106, -0.0014219903387129307, 0.06485213339328766, 0.1113303080201149, -0.018711358308792114, -0.015802158042788506, 0.06011386215686798, -0.014391204342246056, -0.02986198477447033, -0.05157438665628433, 0.025134332478046417, 0.06542085856199265, 0.09219095855951309, 0.07472791522741318, 0.08283382654190063, 0.031438957899808884, 0.006632406264543533, 0.09691144526004791, 0.014490712434053421, 0.012173805385828018, -0.07667131721973419, -0.03838130086660385, -0.022308913990855217, -0.021256940439343452, -0.08684363961219788, -0.053289659321308136, -0.003802137915045023, -0.012429580092430115, -0.06250741332769394, -0.024660713970661163, 0.049009691923856735, 0.04049994423985481, 0.00369612337090075, 0.011206353083252907, -0.08487696945667267, -0.08159816265106201, 0.020638838410377502, 0.011449843645095825, 0.013362918980419636, 0.0424543172121048, -0.0016919435001909733, -0.04879921302199364, -0.04269421845674515, -0.09276643395423889, 0.005519953090697527, 0.028188202530145645, 0.0138322152197361, 0.025195831432938576, -0.0318305641412735, -0.00817752256989479, 0.004539039917290211, -0.08653096109628677, -0.03152177855372429, -0.043984610587358475, -0.019994337111711502, -0.007758393883705139, 0.040343280881643295, -0.017550164833664894, -0.045292459428310394, -0.0823318213224411, -0.004011963959783316, -0.03754390403628349, -0.02140703611075878, -0.016669008880853653, 0.04007406905293465, -0.06932196021080017, -0.0936656966805458, -0.10760889947414398, -0.06328458338975906, -0.003975813742727041, -0.019018294289708138, -0.0010602474212646484, 0.03310199826955795, -0.059316180646419525, -0.0373661145567894, 0.0027529585640877485, -0.11838231980800629, 0.004946936387568712, -0.04605827108025551, -0.04281129315495491, -0.00706356531009078, -0.05416642129421234, -0.09964726120233536, -0.0720573216676712, -0.002931419759988785, -0.04471747577190399, -0.001362738199532032, -0.018349185585975647, -0.004836464300751686, 0.002730539534240961, -0.023582857102155685, 0.0008892109617590904, 0.036463379859924316, 0.02309405244886875, -0.06145352125167847, 0.014210599474608898, -0.03197327256202698, 0.004265687428414822, -0.017906930297613144, 0.00562973041087389, 0.019313057884573936, -0.027786336839199066, -0.05693618580698967, -0.013375107198953629, -0.015882808715105057, -0.041752446442842484, -0.04635261744260788, -0.00041687540942803025, 0.026229258626699448, -0.007944396696984768, 0.005889321677386761, -0.008699042722582817, -0.05643146112561226, -0.041509948670864105, -0.049276191741228104, -0.0321747250854969, 0.005622838623821735, 0.04058482125401497, -0.06380366533994675, -0.00026606873143464327, 0.0060564931482076645, 0.007459080312401056, -0.017411980777978897, -0.01611494831740856, -0.007212410215288401, -0.024979518726468086, -0.013957196846604347, -0.04964927211403847, -0.04128296673297882, -0.05930609628558159, 0.006224055774509907, -0.008929840289056301, 0.045735254883766174, -0.04752111807465553, -0.04494275897741318, -0.00758178299292922, 0.008737542666494846, -0.06931319832801819, -0.06554747372865677, -0.04787832871079445, -0.026583129540085793, -0.00282155885361135, -0.020067360252141953, 0.025545887649059296, -0.006086727604269981, -0.011049788445234299, -0.05452829226851463, -0.050953302532434464, -0.06009576469659805, -0.002881663618609309, -0.02794630452990532, -0.04742814600467682, -0.0038375824224203825, -0.014489027671515942, -0.10652502626180649, -0.024012554436922073, -0.03058639168739319, -0.018447021022439003, -0.08713950961828232, -0.0031559935305267572, -0.053443703800439835, -0.08468714356422424, -0.002288760617375374, -0.024646781384944916, -0.03789476305246353, -0.009991234168410301, 0.00919586606323719, -0.07820213586091995, 0.017530027776956558, -0.04650295153260231, 0.0053808423690497875, -0.09140748530626297, -0.0651911273598671, -0.0797034353017807, -0.04831322282552719, -0.054451849311590195, -0.0023096329532563686, -0.020149776712059975, -0.07719756662845612, -0.09378167241811752, 0.0038249054923653603, 0.013659480027854443, -0.0027013777289539576, -0.005594470538198948, -0.02643742971122265, 0.01830439828336239, -0.08164377510547638, -0.03775840625166893, 0.0030008701141923666, 0.005571658723056316, 0.022657491266727448, 0.025808844715356827, 0.026279322803020477, -0.041715629398822784, -0.06465263664722443, 0.014794774353504181, -0.09689076989889145, -0.05424332618713379, 0.027385398745536804, -0.04811043664813042, 0.006890841759741306, -0.06240858510136604, -0.06734686344861984, 0.02686311863362789, -0.046416398137807846, 0.0010475495364516973, -0.01081718597561121, 0.0016646023141220212, -0.05877923592925072, -0.07669408619403839, -0.03731781616806984], [-0.003960787784308195, -0.05800693854689598, 0.028845205903053284, -0.04666297137737274, -0.0674007460474968, -0.005906177219003439, -0.037791844457387924, -0.04100942984223366, -0.07394254207611084, -0.01383768580853939, -0.05179200321435928, -0.0064472234807908535, -0.03965554013848305, 0.04503033682703972, -0.008555484004318714, 0.02917194552719593, -0.039736855775117874, 0.04256879538297653, -0.04601900279521942, -0.06352217495441437, 0.008037843741476536, 0.002515416359528899, 0.0076758842915296555, -0.029875848442316055, -0.053140029311180115, 0.0021166056394577026, -0.009815256111323833, -0.054110318422317505, -0.018329670652747154, -0.04117515683174133, 0.034523073583841324, -0.0095142163336277, -0.057001255452632904, -0.012356415390968323, -0.021754764020442963, 0.012875407002866268, -0.07414251565933228, 0.013235596008598804, 0.03642284870147705, -0.01502118818461895, 0.011373169720172882, -0.07207438349723816, 0.007621552795171738, 0.03340386971831322, -0.006471354980021715, -0.01460536103695631, -0.021692661568522453, -0.02274508774280548, -0.06344413012266159, -0.0707186833024025, -0.06112751364707947, 0.038058631122112274, -0.05021539330482483, -0.0459020622074604, 0.017787938937544823, -0.006703169085085392, -0.026745114475488663, -0.058672573417425156, -0.028309514746069908, -0.04288627952337265, -0.009451661258935928, 0.001067331642843783, -0.0328163281083107, -0.005393988452851772, 0.013681718148291111, -0.029408957809209824, 0.032557543367147446, 0.06642985343933105, 0.06574005633592606, -0.02085108682513237, 0.07164455205202103, -0.010522184893488884, 0.0008958088583312929, 0.01345882099121809, 0.03996028006076813, 0.04522718861699104, 0.013795562088489532, 0.05208582431077957, -0.014048442244529724, 0.0633997917175293, -0.015123048797249794, -0.029552023857831955, -0.012051057070493698, -0.006910833530128002, -0.012925121001899242, -0.0011921471450477839, -0.028631608933210373, 0.06399887055158615, 0.029572872444987297, 0.02291172556579113, -0.0006938115111552179, 0.07632717490196228, -0.020852472633123398, 0.09084228426218033, -0.013278661295771599, -0.024975527077913284, 0.039519842714071274, 0.07846202701330185, 0.0490029938519001, 0.08376070111989975, -0.014980509877204895, 0.010665657930076122, 0.015262293629348278, -0.02666418068110943, 0.049429990351200104, 0.0048078433610498905, 0.05586995556950569, 0.01661130227148533, 0.017604844644665718, -0.010812015272676945, 0.06812652200460434, 0.046020254492759705, 0.018004577606916428, 0.08374308049678802, -0.04301047325134277, -0.028778191655874252, 0.0027662659995257854, 0.05779599770903587, 0.04197721928358078, 0.0009685768745839596, 0.060720045119524, -0.026868943125009537, 0.08301258832216263, -0.015112819150090218, 0.04738786816596985, 0.018605688586831093, -0.021402137354016304, 0.01397380605340004, 0.04625201225280762, 0.031106017529964447, 0.019174126908183098, -0.02513769082725048, -0.01513924915343523, 0.054206930100917816, 0.026154039427638054, -0.03933323919773102, 0.08958205580711365, 0.036436744034290314, 0.03559761121869087, 0.027211373671889305, 0.03910326212644577, 0.07604838162660599, 0.05371394753456116, -0.037186723202466965, 0.03607442229986191, 0.02280138060450554, 0.069434255361557, 0.060558442026376724, 0.09425421059131622, 0.015055712312459946, 0.08805285394191742, 0.05202331766486168, 0.09186415374279022, 0.05565764755010605, 0.019664043560624123, 0.05346724018454552, 0.10383900254964828, 0.02012171410024166, -0.006508771330118179, -0.03227655589580536, 0.07689404487609863, -0.009023983031511307, 0.05071558058261871, 0.02983616665005684, 0.04484548792243004, 0.008707938715815544, 0.011411264538764954, 0.07052319496870041, 0.05971506983041763, -0.006830591708421707, 0.03924407437443733, 0.05369459465146065, 0.02586141787469387, 0.018372006714344025, 0.051323302090168, 0.0441720113158226, -0.0226562712341547, -0.024779194965958595, 0.05389527603983879, 0.018783945590257645, 0.027896542102098465, 0.02415931224822998, 0.0254288949072361, 0.029555050656199455, -0.003794093383476138, 0.0077251531183719635, 0.05858432501554489, 0.022907612845301628, -0.01453183963894844, 0.031754761934280396, -0.005794110242277384, 0.07787278294563293, -0.01500113494694233, 0.06132613122463226, 0.04222732037305832, -0.012957010418176651, 0.07020652294158936, 0.019194649532437325, -0.008645704947412014, -0.012398319318890572, 0.07543618977069855, 0.008027775213122368, 0.012807709164917469, -0.010928691364824772, 0.034990936517715454, -0.011778992600739002, 0.024480095133185387, -0.023262808099389076, 0.013160956092178822, -0.013142174109816551, 0.049131810665130615, 0.06391465663909912, -0.019280826672911644, -0.02810731716454029, 0.0370638445019722, 0.07836911082267761, 0.02127782627940178, 0.05833909288048744, 0.03281250223517418, -0.028919987380504608, -0.015677127987146378, 0.031011678278446198, 0.03281519562005997, 0.053704481571912766, 0.037723757326602936, -0.0240207277238369, 0.014418725855648518, -0.010822299867868423, 0.0075307972729206085, 0.016714490950107574, 0.02550111897289753, 0.04793517664074898, 0.06002433970570564, -0.0017658381257206202, 0.08273625373840332, 0.06148068606853485, 0.00288406852632761, -0.027165716513991356, 0.012570356950163841, -0.014239008538424969, -0.02107231132686138, 0.06531349569559097, 0.08966710418462753, -0.0072789727710187435, 0.0679604783654213, -0.006065601948648691, 0.04534609988331795, -0.0024149720557034016, 0.0861097052693367, 0.0786449983716011, 0.02923424169421196, 0.04817900434136391, 0.041602037847042084, 0.08267692476511002, -0.005451442673802376, 0.029849948361516], [-0.0008216578862629831, 0.02550375461578369, -0.03058958239853382, 0.024840228259563446, 0.031796421855688095, 0.061206717044115067, 0.04559431970119476, 0.019953768700361252, 0.011730093508958817, 0.03774122893810272, 0.0350259393453598, -0.03069714643061161, 0.035054825246334076, -0.058577973395586014, 0.03214641287922859, 0.04233483225107193, 0.057582639157772064, -0.004813830368220806, -0.021697893738746643, -0.028392933309078217, -0.06749363988637924, -0.034469157457351685, -1.192274794448167e-06, -0.027089830487966537, -0.026572003960609436, 0.036525532603263855, -0.07944270223379135, -0.07883360236883163, -0.03297719731926918, 0.00103827565908432, -0.009879007004201412, -0.02225559763610363, 0.001232351758517325, 0.06034351885318756, 0.012701024301350117, 0.026521703228354454, -0.01596776954829693, -0.01729743368923664, -0.03198752924799919, -0.06199800595641136, 0.09328590333461761, -0.011309951543807983, -0.014268405735492706, 0.0331186018884182, -0.00889089610427618, -0.05120381712913513, -0.04958828538656235, -0.048903435468673706, 0.02439037710428238, 0.029939012601971626, -0.02466084435582161, -0.03149593248963356, -0.02010624296963215, -0.01894918642938137, 0.01484001986682415, -0.04627080261707306, 0.07972154021263123, 0.06738279014825821, -0.03976941481232643, 0.05382288619875908, 0.004905982408672571, 0.06213388219475746, -0.026831215247511864, 0.03995995223522186, -0.0012384823057800531, 0.036667898297309875, -0.06557046622037888, -0.05147155746817589, 0.002728451741859317, -0.0013367838691920042, -0.07208102196455002, -0.06829216331243515, -0.0002260703477077186, -0.04282015189528465, -0.048247888684272766, -0.0194410290569067, 0.008682101033627987, 0.0617949552834034, -0.06450984627008438, -0.011808843351900578, -0.012521030381321907, 0.011114753782749176, -0.03454674035310745, 0.016716299578547478, -0.04238303005695343, -0.0334608368575573, 0.01865183189511299, -0.06283353269100189, -0.07550382614135742, -0.05553898215293884, -0.04982120171189308, -0.044532861560583115, 0.0019461869960650802, -0.02229863964021206, 0.045187484472990036, 0.03465418517589569, -0.04410766065120697, -0.0758112221956253, -0.006943161599338055, -0.013993216678500175, 0.016757309436798096, 0.011363087221980095, -0.02597908303141594, 0.04890359565615654, -0.012047023512423038, -0.04422647878527641, -0.055586520582437515, 0.04270077496767044, -0.029779264703392982, 0.0035054651089012623, -0.04986248165369034, -0.02447979897260666, -0.06106771528720856, 0.010328848846256733, 0.03398086130619049, 0.004169896245002747, 0.0004306267946958542, -0.02777198515832424, 0.04262269660830498, 0.05176227167248726, 0.012925508432090282, 0.010040879249572754, -0.02706398442387581, -0.029843155294656754, -0.018236495554447174, -0.06693928688764572, -0.054347336292266846, 0.01201317273080349, 0.04195340722799301, 0.05871173366904259, -0.021430596709251404, 0.015470774844288826, 0.007487745024263859, 0.017989397048950195, 0.03484552353620529, 0.019475743174552917, 0.0074673546478152275, 0.015711234882473946, 0.01276305504143238, -0.04269571229815483, -0.029655396938323975, -0.03414993733167648, 0.010948432609438896, -0.013731666840612888, 0.032154686748981476, 0.0006836374523118138, -0.011431965976953506, -0.025307675823569298, 0.001883110380731523, -0.03946378082036972, -0.05782296881079674, -0.007894297130405903, 0.009562153369188309, 0.0033238716423511505, -0.06418219953775406, 0.04096784442663193, 0.045404087752103806, -0.05245419591665268, -0.04358602315187454, -0.03639917075634003, 0.0216426569968462, 0.002966957399621606, -0.023445621132850647, 0.02555549331009388, -0.028739307075738907, 0.0006464429898187518, -0.06389305740594864, -0.026248298585414886, 0.06511299312114716, 0.03440389409661293, 0.009448066353797913, -0.059856101870536804, 0.04598969221115112, -0.03199775516986847, -0.048389267176389694, -0.04104297608137131, 0.011517410166561604, 0.040680404752492905, -0.06490476429462433, -0.02682918682694435, -0.06111285835504532, -0.04925542324781418, -0.02033872902393341, -0.07346174120903015, -0.05795145407319069, 0.05146234109997749, -0.002825362840667367, 0.018066804856061935, -0.007537448778748512, -0.03268526494503021, -0.017642240971326828, -0.04008655995130539, -0.08563972264528275, 0.013667290098965168, -0.0186180230230093, -0.021796107292175293, 0.0167904794216156, -0.04195384681224823, -0.03638134524226189, 0.01123138703405857, -0.019831880927085876, -0.013304132036864758, -0.05671033635735512, 0.03257431462407112, -0.07339480519294739, -0.03589726984500885, -0.07630661875009537, 0.015062927268445492, -0.06738243997097015, 0.0017037016805261374, -0.05384291335940361, -0.04070688411593437, -0.011231101118028164, -0.04972172901034355, -0.07552391290664673, -0.01906716637313366, -0.02045884169638157, -0.017934288829565048, -0.051607247442007065, -0.05382998287677765, -0.05764728784561157, -0.0485549196600914, -0.0674930140376091, 0.004852938931435347, -0.09033985435962677, -0.010645782575011253, -0.04649510607123375, 0.021933676674962044, 0.03435375541448593, -0.07776112109422684, -0.047309327870607376, 0.02119262143969536, -0.012868843041360378, 0.028612570837140083, -0.011599653400480747, 0.020114818587899208, -0.058715157210826874, -0.021748218685388565, -0.026965081691741943, -0.01983271725475788, -0.04822748154401779, 0.006905553862452507, -0.05288121476769447, 0.01774562895298004, -0.07241001725196838, -0.062358707189559937, -0.06571803987026215, 0.007197265978902578, -0.002926404122263193, 0.02695024572312832, -0.08076730370521545, -0.06665537506341934, -0.05469762906432152, 0.007061664946377277, -0.003838418750092387, 0.003909710794687271], [-0.022974461317062378, -0.0022326454054564238, 0.023429246619343758, 0.0003857908595819026, 0.056565359234809875, 0.05951107293367386, -0.04005315899848938, 0.05647404491901398, -0.03767845407128334, 0.0007287500193342566, -0.034157946705818176, 0.005541213322430849, 0.08020004630088806, 0.010176626034080982, -0.004348829388618469, -0.041234418749809265, -0.0387786440551281, 0.03938353806734085, 0.018734915181994438, -0.03331124410033226, 0.05732213333249092, -0.030034877359867096, 0.02496178261935711, 0.011918533593416214, 0.0519145168364048, 0.047006022185087204, 0.040100738406181335, 0.07543154805898666, 0.01331124734133482, 0.004761403892189264, 0.05030329152941704, -0.005817331373691559, 0.052195534110069275, 0.04035670682787895, 0.012609928846359253, 0.039315998554229736, 0.07103582471609116, 0.06319525092840195, 0.05319923162460327, 0.05977601557970047, 0.017602594569325447, 0.03812055289745331, -0.032175213098526, -0.018999511376023293, -0.024711862206459045, 0.0014105229638516903, 0.04438859969377518, 0.03521135449409485, -0.05075607821345329, -0.039440032094717026, 0.029722925275564194, -0.0010777609422802925, 0.012990877963602543, 0.008566413074731827, 0.024069977924227715, -0.018445875495672226, -0.054541733115911484, -0.0032206398900598288, -0.02079922892153263, 0.037668026983737946, 0.07063182443380356, -0.048604343086481094, 0.06539499014616013, -0.03473755344748497, -0.019280163571238518, -0.04915463179349899, -0.019394375383853912, -0.05919823423027992, 0.0036187334917485714, 0.03832443058490753, 0.05019538849592209, -0.041105568408966064, -0.06510915607213974, 0.026467878371477127, -0.04832141846418381, 0.004559405148029327, -0.08703158050775528, 0.04528137668967247, 0.017407801002264023, -0.06702280789613724, -0.08076886832714081, -0.02000446803867817, 0.024152934551239014, -0.015913451090455055, -0.009537369012832642, -0.06988337635993958, 0.028669746592640877, -0.04738235846161842, -0.008657587692141533, -0.00039696553722023964, 0.0684928447008133, -0.02381368912756443, 0.006959752645343542, 0.02640668675303459, -0.053201597183942795, 0.02824709564447403, -0.0689326822757721, -0.062119260430336, -0.020680906251072884, -0.014460409060120583, 0.024928098544478416, -0.020237917080521584, -0.02659907564520836, -0.06957677751779556, 0.04677045717835426, 0.026643360033631325, -0.0022035930305719376, -0.017338024452328682, -0.03064608946442604, 0.000957185635343194, -0.019621457904577255, -0.06709975749254227, -0.07404961436986923, 0.000819152279291302, 0.04430791735649109, 0.02565283700823784, 0.028421299532055855, 0.04422564432024956, 0.03742033243179321, 0.008155872114002705, -0.044935841113328934, -0.03926480934023857, -0.014067759737372398, -0.05075125768780708, 0.008366961032152176, -0.055229637771844864, -0.06023617833852768, 0.029803786426782608, 0.0032417152542620897, 0.003400753252208233, -0.035775650292634964, 0.008673952892422676, 0.04161327704787254, -0.06920941174030304, 0.06766285747289658, -0.018116503953933716, 0.014239514246582985, 0.037146877497434616, -0.06360802799463272, -0.02877897210419178, 0.03143448755145073, -0.002724983962252736, 0.05272514373064041, 0.016814716160297394, 0.02060724049806595, -0.05541607365012169, -0.05597207695245743, -0.01145878341048956, -0.02713019773364067, -0.05744149163365364, -0.02760332077741623, -0.010372946038842201, -0.04069191962480545, -0.02613072842359543, -0.059632934629917145, -0.03711293265223503, -0.027371695265173912, -0.021039685234427452, -0.03204146400094032, 0.0006940513849258423, -0.03638775646686554, 0.04962983727455139, 0.030290858820080757, -0.050240397453308105, -0.05669626221060753, -0.010553532280027866, 0.05883682891726494, 0.050782233476638794, -0.0546015165746212, 0.013491475954651833, -0.03736649453639984, 0.010342304594814777, 0.04460801184177399, -0.05432707071304321, -0.03521271422505379, 0.024685736745595932, 0.019121503457427025, 0.043440915644168854, 0.030842816457152367, -0.0013716415269300342, 0.010336315259337425, 0.0018663352821022272, -0.04504292458295822, 0.05326618254184723, -0.05153418332338333, -0.09000241011381149, -0.015634119510650635, 0.018126249313354492, 0.025359362363815308, 0.015593149699270725, 0.024568596854805946, -0.06799643486738205, -0.023522445932030678, -0.005836864002048969, -0.03769627586007118, -0.038106538355350494, -0.031419917941093445, 0.0044383821077644825, 0.018252979964017868, -0.03753114119172096, -0.03578712418675423, -0.02005765028297901, -0.05336684733629227, 0.010904205963015556, -0.061367686837911606, -0.06071789562702179, -0.0027675251476466656, 0.01548868976533413, 0.03532150760293007, -0.016759607940912247, -0.040701813995838165, -0.010530432686209679, -0.06839355081319809, 0.019104644656181335, 0.014033107087016106, -0.06035379320383072, 0.005232146009802818, 0.022269440814852715, -0.013525568880140781, 0.0038939854130148888, -0.0004969280562363565, -0.00732359429821372, -0.019807368516921997, -0.06311670690774918, 0.030199460685253143, 0.01643419824540615, -0.01676742173731327, -0.03347908332943916, 0.02674124762415886, -0.010402507148683071, -0.07747726142406464, -0.013650747947394848, -0.06619898229837418, -0.023940997198224068, -0.015989558771252632, 0.027347547933459282, -0.0026986754965037107, 0.012994999997317791, 0.028529301285743713, -0.06708325445652008, 0.03291812166571617, 0.024697473272681236, -0.06563442200422287, 0.007310476154088974, -0.04537247493863106, -0.0485956110060215, -0.07199586927890778, -0.025308553129434586, -0.05349608510732651, -0.07001490145921707, -0.07776487618684769, 0.0020825525280088186, -0.014434261247515678, -0.03770525008440018, 0.0323680117726326, 0.0059988489374518394], [0.03530031815171242, -0.035721976310014725, -0.04015583544969559, 0.014339672401547432, 0.013024259358644485, 0.0644916296005249, 0.06754078716039658, 0.007623244076967239, 0.07358969748020172, -0.038150280714035034, -0.015943493694067, 0.013877185992896557, -0.03202908858656883, 0.012050784192979336, -0.0348488986492157, 0.06081768870353699, -0.0033196392469108105, 0.06209363415837288, 0.00679991627112031, -0.022145597264170647, 0.03140224143862724, 0.03557312861084938, 0.0590796135365963, 0.03306139260530472, -0.004035293590277433, 0.049079202115535736, 0.05701450631022453, 0.017811303958296776, 0.05300920456647873, 0.009857583791017532, 0.04562897980213165, 0.017986243590712547, 0.023027939721941948, -0.04089535027742386, 0.008634191006422043, -0.05304752290248871, -0.023773973807692528, 0.0080568240955472, 0.04217959940433502, 0.07957056909799576, 0.01493712980300188, -0.03254181519150734, -0.008903434500098228, -0.052676379680633545, -0.05845504254102707, -0.000988783547654748, -0.02495047077536583, 0.011240153573453426, 0.056280069053173065, 0.06585077196359634, 0.036339953541755676, 0.0367291197180748, -0.03815147280693054, -0.03299875557422638, 0.012783227488398552, 0.0681440681219101, 0.025734681636095047, 0.009541122242808342, 0.06327475607395172, 0.021411631256341934, -0.03366955742239952, 0.05858016759157181, -0.006114367861300707, 0.05155204236507416, 0.007947264239192009, 0.009057704359292984, -0.04907132685184479, 0.01414040569216013, 0.03408057987689972, 0.023705050349235535, -0.07053808867931366, 0.010747629217803478, -0.028974324464797974, -0.030336344614624977, 0.028880683705210686, -0.05596926435828209, -0.05214158073067665, -0.06848245859146118, 0.02249801531434059, -0.049168042838573456, -0.0703762024641037, -0.06819091737270355, 0.050244759768247604, -0.030672837048768997, -0.006283757742494345, -0.026330936700105667, 0.05364840477705002, -0.03215077146887779, -0.0025552213191986084, -0.02659216895699501, -0.05733511596918106, 0.04867614805698395, -0.063461072742939, -0.05271410197019577, 0.011568634770810604, -0.0114091532304883, 0.014402882196009159, 0.009443175047636032, -0.023907164111733437, 0.02748991549015045, 0.04096882790327072, -0.013364104554057121, -0.0272380281239748, 0.009688672609627247, 0.03071492165327072, 0.007260221987962723, -0.007477251347154379, -0.026514915749430656, -0.06294698268175125, -0.002344036940485239, -0.010833867825567722, -0.006522315554320812, -0.051034845411777496, -0.052164897322654724, -0.024023331701755524, 0.05798948183655739, -0.013064974918961525, -0.027919817715883255, -0.012694953940808773, -0.045385174453258514, -0.01541217416524887, -0.0584615021944046, 0.031550925225019455, -0.02568008005619049, 0.01802052929997444, 0.023549450561404228, -0.02204820141196251, 0.011633218266069889, 0.011171835474669933, -0.027008207514882088, 0.02683844417333603, -0.03662814572453499, 0.0162709541618824, -0.03581872954964638, 0.02395465038716793, 0.01759348064661026, -0.012248041108250618, 0.008441531099379063, -0.011676360853016376, -0.028904065489768982, 0.03873298689723015, 0.016372889280319214, -0.041987739503383636, -0.005404127761721611, 0.0020462966058403254, -0.007816024124622345, -0.0761311799287796, -0.0008232729160226882, -0.028628045693039894, -0.05087330937385559, -0.07585427165031433, -0.0009548345115035772, -0.02413364127278328, -0.05299818888306618, -0.05959104746580124, 0.004540618509054184, -0.03636164590716362, -0.048668425530195236, 0.00531266862526536, 0.029573647305369377, -0.07919434458017349, 0.037038035690784454, 0.019553106278181076, -0.015996741130948067, -0.08920566737651825, 0.0010620554676279426, -0.004147998057305813, -0.034061234444379807, -0.07727301120758057, 0.004017354920506477, -0.011190311051905155, -0.006178595125675201, 0.03632032871246338, 0.004736612085253, -0.057501476258039474, -0.058479391038417816, -0.029519282281398773, -0.04068804159760475, -0.05527050048112869, -0.053688425570726395, -0.02721460349857807, -0.06262624263763428, -0.0517517514526844, 0.039752036333084106, 0.01062044221907854, -0.02938518486917019, -0.027689531445503235, -0.03540518134832382, -0.023514583706855774, -0.0016347945202142, 0.009529819712042809, -0.016448790207505226, 0.013414320535957813, -0.03435494005680084, -0.05388184264302254, 0.03867114707827568, -0.045158207416534424, -0.006961481645703316, -0.008897517807781696, -0.003121557179838419, 0.027320684865117073, -0.008093019016087055, -0.042332570999860764, -0.011344214901328087, 0.0020873011089861393, -0.03781446814537048, 0.014267816208302975, 0.03807169944047928, 0.0011825073743239045, -0.020345265045762062, -0.016674326732754707, -0.07520883530378342, -0.05158567428588867, 0.022080790251493454, -0.00985005870461464, -0.018824433907866478, -0.011130229569971561, 0.010509831830859184, -0.029103845357894897, -0.02696738950908184, -0.009313247166574001, -0.005806619301438332, 0.007974176667630672, 0.031164802610874176, -0.0600607804954052, -0.006303653586655855, 0.0038297208957374096, 0.002392892260104418, -0.06525053083896637, -0.04502006247639656, 0.02152874693274498, 0.015000022016465664, -0.04948486015200615, -0.048549626022577286, 0.0025651913601905107, 0.049387384206056595, 0.02265586517751217, -0.03235965594649315, -0.011558184400200844, -0.06171600893139839, -0.05760657787322998, 0.00786872673779726, -0.01819591410458088, -0.053807731717824936, -0.02903314121067524, 0.031715650111436844, 0.013989925384521484, -0.08463887870311737, 0.010356469079852104, 0.038134798407554626, -0.03703363984823227, 0.005125901661813259, -0.015812169760465622, 0.011578122153878212, -0.06602459400892258, -0.038252122700214386], [-0.002361196791753173, -0.02939852513372898, -0.00027950856019742787, -0.07761639356613159, -0.035357024520635605, -0.040350403636693954, -0.09277889877557755, -0.03252876177430153, -0.01774805784225464, 0.020999206230044365, 0.06247461587190628, -0.028916463255882263, -0.042895808815956116, 0.0512186735868454, -0.039016302675008774, -0.0693664699792862, -0.026520157232880592, 0.05671883001923561, -0.010188786312937737, 0.0759202167391777, 0.07696116715669632, 0.07233215123414993, 0.03260129690170288, -0.03172466531395912, -0.04145500436425209, -0.06341923028230667, 0.04546373337507248, 0.02033267542719841, 0.060961320996284485, 0.08031740039587021, 0.001328048761934042, 0.016752883791923523, -0.060376498848199844, -0.01574908010661602, 0.06764479726552963, 0.05439741164445877, 0.051432106643915176, -0.003489300375804305, 0.057041045278310776, -0.023786768317222595, -0.10346183180809021, -0.012247415259480476, 0.03920307755470276, 0.0030623592901974916, 0.05469813942909241, -0.023051267489790916, 0.04044092074036598, 0.018520282581448555, -0.07420282810926437, 0.0025648425798863173, -0.04539024084806442, 0.04732086881995201, -0.03367181867361069, 0.05561725050210953, -0.006996103562414646, -0.056989677250385284, 0.01911383867263794, -0.01765834353864193, -0.06160196289420128, -0.019294481724500656, 0.013194786384701729, -0.09648282080888748, -0.07293535023927689, -0.048500023782253265, 0.01203962042927742, 0.02736932784318924, 0.001987091964110732, 0.03895740211009979, 0.05078521743416786, -0.005283615551888943, -0.028548089787364006, 0.07461315393447876, 0.06777684390544891, 0.03799685463309288, 0.04813256859779358, -0.038853514939546585, -0.02191852033138275, 0.05188501253724098, 0.06718859821557999, 0.044946037232875824, 0.030767308548092842, 0.05629937723278999, 0.020386269316077232, -0.05673354119062424, -0.011743760667741299, -0.05667479708790779, 0.05472954735159874, -0.032678838819265366, -0.01071937195956707, -0.01642836071550846, -0.016049398109316826, 0.003518445184454322, 0.026701748371124268, 0.010244607925415039, -0.003792049828916788, 0.008400673978030682, 0.06598065793514252, 0.0673234686255455, 0.029557790607213974, 0.029300088062882423, -0.02538456954061985, -0.05549785494804382, -0.003665739670395851, -0.0011072455672547221, 0.0006451602093875408, 0.022039517760276794, -0.04823359102010727, 0.002339206403121352, 0.02247229591012001, 0.025086337700486183, -0.023484408855438232, -0.013851948082447052, 0.021320272237062454, 0.029401233419775963, -0.02040826342999935, 0.0429203025996685, 0.04616852104663849, 0.013747970573604107, 0.036001306027173996, -0.018189378082752228, -0.007002008613198996, 0.02802887372672558, 0.06532341986894608, 0.05663144960999489, 0.03466927260160446, 0.014489809982478619, 0.048041362315416336, 0.07196677476167679, 0.03458801284432411, 0.02296396717429161, 0.012099603191018105, 0.06345361471176147, -0.01639886200428009, 0.027638733386993408, 0.00876279454678297, -0.01690549962222576, -0.019260983914136887, -0.007872840389609337, -0.06654959172010422, 0.034386008977890015, -0.0785370022058487, -0.007754077669233084, 0.03499368578195572, 0.008103937841951847, -0.029492653906345367, -0.04115107282996178, 0.05888667330145836, 0.05303658917546272, -0.04244456812739372, 0.012953521683812141, 0.04372086003422737, 0.04744333401322365, -0.06212819367647171, 0.011290062218904495, -0.02895708568394184, 0.010520639829337597, -0.057330988347530365, 0.047970592975616455, 0.05144782364368439, 0.07225856930017471, -0.09334303438663483, -0.0034326217137277126, 0.04620658978819847, -0.04210000857710838, -0.014990977942943573, 0.00385129707865417, 0.0651458352804184, 0.08247256278991699, -0.02172740176320076, -0.072219617664814, -0.007735047489404678, 0.02570571005344391, -0.0038980734534561634, 0.01343578938394785, 0.09887579083442688, 0.07521361857652664, -0.07904616743326187, -0.07850618660449982, 0.009148767217993736, -0.010103887878358364, -0.005012015346437693, -0.006569692865014076, 0.028140971437096596, 0.08039667457342148, -0.0029096645303070545, 0.05724579468369484, 0.0025580383371561766, -0.02016557939350605, -0.07338137924671173, 0.02884823828935623, -0.07688914984464645, 0.0154460109770298, 0.049557898193597794, -0.005290668923407793, 0.019601741805672646, 0.024003766477108, -0.006523994263261557, 0.031004279851913452, 0.02200564742088318, 0.026902876794338226, 0.036630596965551376, 0.021377168595790863, 0.04683507978916168, 0.06509579718112946, -0.002790439175441861, 0.03104509226977825, -0.00438571535050869, 0.07088393718004227, 0.08650828897953033, 0.02609674260020256, -0.03621795400977135, 0.07887202501296997, 0.05494725704193115, -0.008191075176000595, 0.030340183526277542, 0.09442727267742157, 0.041431497782468796, 0.034997858107089996, -0.02061256766319275, -0.013829688541591167, 0.03927801176905632, -0.032485462725162506, 0.042599644511938095, 0.024884020909667015, -0.0032867849804461002, 0.0710718184709549, -0.010081760585308075, 0.005751370918005705, -0.019122028723359108, 0.05721904709935188, 0.028622882440686226, 0.05149593576788902, 0.023782789707183838, 0.039800096303224564, -0.003798319259658456, 0.010308973491191864, 0.03194625675678253, 0.07855421304702759, 0.05918721854686737, 0.024600490927696228, -0.007348892278969288, 0.016602303832769394, 0.049978215247392654, 0.023259134963154793, 0.06477939337491989, -0.0038775387220084667, -0.008181349374353886, 0.03627144172787666, -0.01269253809005022, 0.07207564264535904, 0.039065971970558167, 0.10404035449028015, 0.09027508646249771, 0.09967856854200363, 0.0765664204955101, 0.02403111755847931], [0.07248041033744812, 0.03653772547841072, 0.0251470934599638, -0.014215848408639431, -0.01859288662672043, -0.04423213377594948, 0.07187281548976898, 0.03973197564482689, -0.02667214907705784, 0.005636204499751329, -0.05879976600408554, 0.01919703371822834, 0.08081982284784317, 0.07049403339624405, 0.04286932200193405, 0.027324961498379707, 0.017233438789844513, 0.058215267956256866, 0.0216510072350502, -0.02001476101577282, -0.03675035014748573, 0.06725622713565826, 0.0486367866396904, -0.008719885721802711, 0.058976612985134125, 0.02941213734447956, 0.043916091322898865, -0.02618754468858242, -0.014532644301652908, -0.016342811286449432, 0.03066081739962101, 0.01638772152364254, -0.024555711075663567, 0.06339186429977417, 0.006303838454186916, 0.08049160242080688, 0.07378757745027542, 0.020584309473633766, 0.005512088071554899, 0.037343963980674744, 0.03985249251127243, 0.02345825731754303, -0.025551659986376762, -0.03442371264100075, -0.001942364382557571, -0.009363715536892414, 0.019497696310281754, -0.04817504063248634, 0.0165668036788702, 0.03544912114739418, 0.027061278000473976, 0.0074663287959992886, 0.04330650717020035, 0.027691742405295372, 0.05324701964855194, 0.07234174758195877, 0.021940462291240692, 0.01591591164469719, 0.03173614293336868, -0.05211544781923294, -0.03670019283890724, -0.017618663609027863, -0.046892259269952774, 0.030085351318120956, -0.08013506978750229, 0.03993256390094757, -0.05235331133008003, -0.034677762538194656, 0.03961841017007828, 0.026454821228981018, -0.028865396976470947, 0.026673583313822746, -0.0837191492319107, -0.04346664994955063, 0.018341802060604095, -0.020429912954568863, 0.0003557806194294244, 0.05934928357601166, 0.05844200775027275, 0.0037054673302918673, 0.020708851516246796, -0.04358774796128273, -0.036346569657325745, -0.004314817022532225, -0.02281494066119194, 0.023177439346909523, -0.022148223593831062, 0.01863788813352585, 0.016205504536628723, -0.04180881381034851, 0.01877039484679699, -0.0016388545045629144, 0.014697874896228313, -0.03082253970205784, 0.011029747314751148, -0.04059247300028801, -0.03395787253975868, 0.042594682425260544, 0.0464421845972538, 0.03736724331974983, 0.025683162733912468, 0.026767974719405174, -0.07077635079622269, 0.010527508333325386, 0.049400508403778076, 0.016494663432240486, 0.0269810538738966, -0.052604902535676956, 0.0342940129339695, -0.04536730423569679, 0.031306080520153046, -0.035735443234443665, 0.015228821896016598, 0.01671542599797249, 0.005967519246041775, 0.0055028279311954975, 0.02979527786374092, 0.010084926150739193, -0.008889700286090374, 0.03924110531806946, -0.0017881266539916396, -0.06685718148946762, -0.009068234823644161, -0.07104840129613876, -0.04565669223666191, 0.01548478938639164, -0.035940565168857574, -0.0029629969503730536, 0.012967772781848907, 0.005064504686743021, -0.06461215019226074, 0.04170691594481468, 0.0020990658085793257, 0.03844169154763222, 0.00817407201975584, 0.006056234706193209, 0.0013032836141064763, 0.012286980636417866, -0.07549449801445007, 0.025468535721302032, 0.02482975833117962, -0.020875699818134308, 0.00021845978335477412, -0.0328238345682621, -0.002183909760788083, -0.026583552360534668, -0.056989241391420364, -0.013223581947386265, 0.010853758081793785, 0.013569237664341927, 0.036719128489494324, 0.021458491683006287, -0.041803061962127686, 0.004791378974914551, -0.08831287920475006, -0.086280457675457, -0.014633312821388245, -0.03234631568193436, -0.024918481707572937, 0.026285408064723015, -0.015559190884232521, -0.017397092655301094, -0.050597190856933594, -0.014431305229663849, 0.021662645041942596, -0.016243020072579384, 0.027247343212366104, -0.01117576565593481, -0.019425805658102036, -0.005319648422300816, -0.0009213696466758847, 0.011357651092112064, -0.0481717586517334, 0.029118720442056656, -0.002718317788094282, -0.04892375320196152, -0.005193804856389761, 0.047233715653419495, 0.019709492102265358, -0.05820307508111, -0.03249277547001839, -0.047573529183864594, 0.005252096801996231, -0.00933554396033287, -0.055592816323041916, -0.051035694777965546, 0.05532841011881828, 0.03291335329413414, 0.056646496057510376, 0.00148428650572896, -0.05392703041434288, -0.028689906001091003, 0.014660773798823357, -0.08606764674186707, -0.042662959545850754, -0.05791744962334633, 0.019845666363835335, -0.07475218176841736, -0.06781081855297089, -0.009630227461457253, -0.00891999900341034, -0.08063817769289017, -0.008791462518274784, 0.01939612627029419, -0.015354549512267113, 0.013019979931414127, -0.056528907269239426, -0.01243896596133709, -0.08113715797662735, -0.03944125398993492, -0.006303589791059494, 0.020841656252741814, -0.05511320009827614, -0.0402580089867115, 0.01482543908059597, -0.005566130857914686, -0.06877903640270233, -0.014066498726606369, -0.07385092228651047, 0.039145030081272125, 0.015287741087377071, -0.019109666347503662, -0.07466191053390503, -0.02157292515039444, -0.06212357059121132, -0.008958208374679089, -0.04916039854288101, -0.03168387711048126, 0.011494599282741547, 0.0005449281306937337, 0.010300757363438606, -0.00320687354542315, -0.07351859658956528, 0.011258304119110107, -0.09047029167413712, 0.017557261511683464, -0.08528425544500351, 0.013914749026298523, -0.08362902700901031, -0.06005359813570976, -0.07506076991558075, -0.05316576361656189, -0.016109077259898186, -0.08725219964981079, -0.0035621151328086853, -0.050763845443725586, -0.005065213423222303, -0.01687055081129074, -0.09426894783973694, 0.010179395787417889, -0.07677000015974045, -0.078386589884758, -0.04080802574753761, -0.09040089696645737, 0.013798448257148266, -0.04630887508392334], [-0.0029755381401628256, 0.06426935642957687, -0.020041219890117645, 0.01467901561409235, 0.07400684803724289, 0.0033790089655667543, -0.004324853885918856, 0.0006242033559828997, 0.003157351166009903, 0.027157973498106003, 0.04819682613015175, 0.011649582535028458, -0.003641462652012706, 0.054063357412815094, 0.05491556227207184, -0.016871638596057892, 0.016847647726535797, -0.01800701953470707, 0.0031553462613373995, -0.0048355949111282825, -0.0174117311835289, 0.019467925652861595, -0.026172276586294174, -0.004271704703569412, 0.05270276963710785, 0.0024611535482108593, 0.023356297984719276, -0.00105275958776474, -0.039744436740875244, -0.05706874281167984, -0.01901242695748806, -0.037960268557071686, 0.03394104912877083, 0.010999436490237713, -0.03213583678007126, -0.023263949900865555, 0.004044706001877785, 0.06656543165445328, 0.05211484804749489, 0.03485357016324997, 0.037583015859127045, -0.012509969994425774, -0.052181996405124664, 0.06690113991498947, -0.015411523170769215, -0.015001299791038036, 0.06992688775062561, 0.05011662095785141, 0.04495440423488617, -0.029891487210989, 0.020410625264048576, -0.03197329118847847, -0.014849702827632427, 0.015310443006455898, -0.039960965514183044, -0.05335511267185211, 0.044731371104717255, 0.010428840294480324, 0.028000935912132263, 0.0864010602235794, -0.0145591264590621, -0.017882421612739563, 0.04642301797866821, 0.06375261396169662, -0.024007057771086693, -0.0457589216530323, -0.07136724889278412, -0.05737362056970596, -0.012450010515749454, 0.0033300835639238358, -0.0296015664935112, 0.030075538903474808, -0.07765605300664902, -0.024932969361543655, 0.0007002381607890129, -0.010249346494674683, 0.035504311323165894, -0.07364769279956818, -0.02722383290529251, -0.0336853452026844, -0.02571691758930683, 0.046940647065639496, -0.03943917155265808, 0.010844411328434944, -0.04296257346868515, 0.013691989704966545, 0.00792570598423481, 0.024484114721417427, 0.0223596952855587, 0.022614656016230583, -0.02359459549188614, 0.02590102329850197, -0.0400661863386631, -0.050078585743904114, -0.06184959039092064, -0.05385464429855347, -0.0185890831053257, 0.010172424837946892, -0.07399309426546097, 0.05345718935132027, -0.021103423088788986, 0.01353473775088787, -0.021255474537611008, 0.0029248271603137255, -0.055979955941438675, -0.04127531498670578, -0.028345275670289993, 0.030289355665445328, -0.01928023435175419, -0.003920565824955702, -0.009372633881866932, -0.024822626262903214, -0.054120808839797974, 0.01269033644348383, -0.0120971305295825, -0.013583150692284107, -0.06527473777532578, 0.004060232080519199, -0.056457195430994034, -0.06724076718091965, 0.025094574317336082, -0.07874855399131775, -0.02211153507232666, -0.01246248371899128, -0.04095107689499855, 0.011187553405761719, -0.02115699276328087, -0.04079783335328102, 0.010330966673791409, 0.004152409266680479, 0.024767573922872543, -0.0021767939906567335, -0.014056941494345665, -0.024698222056031227, -0.04266189783811569, -0.0006992926355451345, 0.08078225702047348, -0.019694734364748, -0.05044116452336311, 0.012119250372052193, -0.07200132310390472, 0.008623214438557625, -0.012557697482407093, 0.014233794063329697, 0.04571101814508438, 0.04930785298347473, 0.02883826196193695, -0.042786505073308945, 0.036811310797929764, 0.04055104777216911, -0.0031413130927830935, -0.023459499701857567, 0.06661707162857056, -0.022955307736992836, -0.05882818251848221, -0.06438519805669785, 0.023286743089556694, -0.055938731878995895, 0.026977868750691414, -0.02473720908164978, 0.010627814568579197, 0.000986637780442834, 0.023048512637615204, 0.045036084949970245, 0.00749618373811245, 0.03806091099977493, -0.05088062584400177, -0.07434183359146118, -0.014040805399417877, 0.028255727142095566, -0.05004025250673294, -0.06291482597589493, -0.02366102859377861, -0.03071332536637783, -0.012489290907979012, 0.014899207279086113, 0.0038685998879373074, -0.034168392419815063, -0.008914723992347717, 0.03270724415779114, -0.035865724086761475, -0.008991163223981857, 0.04357556626200676, 0.0005432113539427519, -0.06472374498844147, 0.01808021403849125, 0.04126112535595894, -0.011727222241461277, -0.055446747690439224, -0.016197569668293, -0.04115112125873566, -0.00478845601901412, -0.005599343683570623, -0.05236262455582619, 0.016556957736611366, 0.03659747168421745, -0.04568496346473694, 0.03798241168260574, 0.01718546450138092, -0.03077320009469986, -0.006243878044188023, -0.06008573994040489, 0.01999940164387226, -0.05443062260746956, -0.05408283323049545, -0.07397457957267761, 0.03529374673962593, -0.016092851758003235, -0.06391113251447678, -0.04004600644111633, -0.030553260818123817, -0.035327594727277756, 0.02082412876188755, -0.07276374846696854, -0.06044423580169678, 0.03867475688457489, -0.015234100632369518, 0.0010199311655014753, -0.029034169390797615, -0.04950492084026337, -0.06982991844415665, -0.026539912447333336, -0.034080620855093, -0.08142926543951035, -0.03857613354921341, 0.018961414694786072, 0.0401758998632431, -0.0030298635829240084, 0.0201735720038414, -0.005115017294883728, -0.06795887649059296, -0.03281695768237114, -0.04274062439799309, -0.04759844020009041, -0.05697013437747955, 0.013338577002286911, -0.0033625971991568804, -0.036423392593860626, 0.02864587865769863, -0.04506610333919525, 0.04654986411333084, -0.016286835074424744, -0.005333751440048218, 0.024765439331531525, 0.033209703862667084, -0.07055424898862839, 0.03922826051712036, 0.027325518429279327, -0.005536902695894241, 0.0058168815448880196, -0.0627293586730957, -0.06221907585859299, 0.00569862499833107, -0.020702403038740158, -0.06788048893213272, 0.029262593016028404], [-0.0420125313103199, -0.003289785934612155, 0.0073678158223629, -0.03518233075737953, -0.03008003905415535, -0.07733213901519775, -0.0020756665617227554, -0.006912006996572018, -0.006005874369293451, -0.07750234752893448, -0.010733049362897873, -0.04946181923151016, 0.005126066505908966, 0.028527287766337395, 0.027682851999998093, 0.01652676984667778, -0.062247905880212784, -0.04482337087392807, 0.04763198643922806, 0.028017835691571236, 0.04899996891617775, -0.01662694290280342, -0.007104247342795134, -0.013361113145947456, -0.050429414957761765, -0.016075504943728447, 0.01361826341599226, -3.5827106330543756e-05, 0.03795810416340828, 0.09081780165433884, -0.021199841052293777, -0.042158495634794235, -0.04793063923716545, -0.05932311341166496, 0.04188883677124977, 0.05255565792322159, 0.060765620321035385, 0.025349825620651245, 0.052767425775527954, -0.01118308026343584, -0.0587056539952755, 0.010029954835772514, 0.05956711992621422, 0.055845968425273895, 0.005824257154017687, 0.025863677263259888, 0.009418297559022903, 0.01688828505575657, -0.01008646935224533, 0.005924256518483162, 0.05107434466481209, 0.056406766176223755, -0.01050956454128027, -0.0382118821144104, -0.008729590103030205, 0.007419312372803688, 0.026239728555083275, -0.04307888448238373, -0.07606031000614166, -0.038061100989580154, -0.09229561686515808, -0.0067703393287956715, -0.07866542041301727, 0.013961408287286758, 0.07299543172121048, 0.05772431567311287, 0.07208051532506943, 0.025983959436416626, -0.013309280388057232, 0.016850728541612625, 0.05661946162581444, 0.06744209676980972, 0.02400735579431057, -0.005451279226690531, 0.012829678133130074, -0.03384051099419594, -0.0022540262434631586, 0.0008047982701100409, 0.06584007292985916, 0.012909614481031895, -0.006842258386313915, 0.001176412682980299, 0.014716548845171928, -0.06731194257736206, -0.03239917755126953, -0.030399741604924202, 0.06280403584241867, -0.036602266132831573, 0.02143813855946064, 0.01614607311785221, 0.01039071660488844, 0.03266459330916405, -0.023839633911848068, -0.03142641857266426, 0.02292371541261673, -0.017560437321662903, 0.017721394076943398, 0.005145587492734194, 0.02463509328663349, 0.0013666675658896565, -0.003171577351167798, -0.08865294605493546, -0.029814498499035835, 0.030635420233011246, 0.052504874765872955, 0.0048003485426306725, 0.0018754879711195827, -0.06061527878046036, -0.019432267174124718, 0.009999679401516914, 0.0275783222168684, 0.023353679105639458, -0.024399764835834503, -0.030089596286416054, 0.047903917729854584, 0.0023848593700677156, -0.002023099223151803, 0.04223412275314331, -0.02329161763191223, 0.027454040944576263, 0.016138209030032158, 0.03578709438443184, 0.0817398950457573, 0.027249081060290337, 0.09084971249103546, 0.015871938318014145, 0.0709962397813797, 0.022954069077968597, 0.003698302200064063, 0.018763775005936623, 0.003513121046125889, -0.00868875253945589, -0.054932620376348495, -0.033607471734285355, -0.015123341232538223, -0.027076182886958122, -0.03702497482299805, 0.0005949477781541646, -0.0029964412096887827, -0.05792165547609329, -0.053112372756004333, -0.036917947232723236, 0.11461444944143295, -0.009869502857327461, -0.03238368779420853, 0.00036863895365968347, 0.007784722838550806, -0.03181873634457588, 0.014682987704873085, -0.04930178448557854, 0.04438116028904915, 0.030314847826957703, -0.055334996432065964, -0.027576155960559845, 0.016297597438097, 0.03350714594125748, -0.042187102138996124, -0.04349709674715996, 0.026627063751220703, -0.02995472587645054, -0.040453579276800156, -0.08685727417469025, -0.016967648640275, -0.05875939503312111, 0.027328578755259514, 0.0051521118730306625, -0.01385410688817501, 0.02213091216981411, -0.027338780462741852, -0.033818569034338, 0.01067555882036686, 0.07513483613729477, 0.013437923043966293, -0.02997351996600628, 0.0977867990732193, 0.04625224694609642, 0.004927473608404398, -0.017504962161183357, 0.05346309766173363, -0.01329239085316658, -0.025286603718996048, -0.04241436347365379, 0.10390633344650269, 0.02647552639245987, -0.02039191871881485, -0.015734808519482613, -0.06251027435064316, 0.061655741184949875, -0.028154773637652397, -0.033579275012016296, 0.00794608797878027, 0.04994602128863335, 0.007029702886939049, 0.05310184508562088, 0.05551457777619362, 0.08906751126050949, 0.031353242695331573, -0.008552062325179577, 0.01095485594123602, -0.00866349134594202, 0.05693632364273071, 0.0631592869758606, 0.023200882598757744, 0.04978795349597931, 0.08090407401323318, 0.029663708060979843, 0.012595956213772297, -0.028484759852290154, -0.0005523343570530415, 0.020775942131876945, -0.037895139306783676, -0.04544486477971077, -0.009161538444459438, -0.018532555550336838, -0.03676435723900795, 0.02642134763300419, 0.002063654363155365, -0.01076720841228962, -0.012146039865911007, -0.030343666672706604, -0.0035628201439976692, 0.06102262809872627, 0.010537291876971722, -0.005886752624064684, 0.01983480341732502, -0.019011005759239197, 0.048554677516222, 0.003385285148397088, 0.036834072321653366, 0.06682213395833969, 0.01478064525872469, 0.013571443036198616, -0.02365419827401638, -0.007949461229145527, 0.010769648477435112, 0.07342332601547241, 0.07271691411733627, 0.017528774216771126, -0.01714486815035343, -0.01604650728404522, 0.007798753213137388, -0.00551451463252306, 0.024739520624279976, 0.0719245970249176, -0.03235447034239769, 0.0012260517105460167, 0.02613176219165325, 0.04704532027244568, 0.007297875825315714, 0.07322325557470322, 0.05453847721219063, 0.08487943559885025, -0.02288126014173031, -0.026027269661426544, 0.07575738430023193, 0.07230112701654434], [-0.011417358182370663, -0.048724181950092316, 0.0186197217553854, 0.019027238711714745, 0.05638497322797775, 0.012328242883086205, 0.027357060462236404, 0.03188468888401985, 0.01523488201200962, 0.01989101618528366, 0.016072122380137444, 0.014803189784288406, 0.04534482955932617, 0.04422209411859512, 0.060060765594244, 0.03291156888008118, -0.003906875383108854, 0.0836082473397255, -0.032471321523189545, -0.0559341236948967, 0.0027653230354189873, -0.028993338346481323, -0.03499273210763931, 0.03955944627523422, -0.007190281059592962, -0.02609378471970558, 0.017233341932296753, -0.029689285904169083, -0.0019796895794570446, 0.009537391364574432, 0.03297615796327591, -0.03133629262447357, -0.054300613701343536, -0.0014592695515602827, -0.009844938293099403, 0.02733822725713253, -0.05095839127898216, -0.06022672355175018, 0.024402445182204247, 0.0393797792494297, 0.04734734073281288, -0.00023928323935251683, -0.041497185826301575, -0.03508871793746948, 0.011018583551049232, 0.06231849640607834, -0.0007862360798753798, -0.02701028436422348, 0.004919504746794701, 0.036426424980163574, -0.028738897293806076, 0.003660328686237335, 0.0576842725276947, 0.05540478602051735, -0.049653101712465286, 0.06857260316610336, -0.05377528816461563, 0.03892158716917038, -0.02408069744706154, 0.046846333891153336, -0.025558309629559517, -0.007710607722401619, -0.037417974323034286, 0.049190349876880646, -0.04923325777053833, -0.058662209659814835, 0.029144223779439926, 0.00032736375578679144, -0.07013978064060211, -0.05949895828962326, -0.05328737571835518, 0.00902287196367979, 0.03185790404677391, -0.04722006618976593, -0.016499022021889687, -0.04247325286269188, -0.005384068004786968, -0.031140191480517387, 0.01233619824051857, -0.02779511548578739, -0.0491192564368248, -0.01040866319090128, -0.00900481827557087, -0.04573628678917885, 0.00342078460380435, -0.010342983528971672, -0.021130623295903206, 0.005412292666733265, 0.055206213146448135, -0.09544645994901657, -0.020020801573991776, -0.0609712116420269, 0.013199879787862301, 0.0017703496851027012, -0.01912982016801834, -0.028929151594638824, -0.042840905487537384, -0.08853048086166382, 0.04539458826184273, 0.01744231954216957, -0.03587590530514717, -0.056147053837776184, 0.030505076050758362, -0.04180467501282692, -0.0704805850982666, -0.0075623830780386925, -0.026052432134747505, 0.0022750652860850096, -0.038001541048288345, -0.06970266252756119, -0.014840536750853062, 0.01746213808655739, 0.014497683383524418, -0.08227099478244781, -0.04373576492071152, 0.001040299073792994, 0.011282415129244328, -0.06521974503993988, -0.011247782967984676, -0.02043382078409195, -0.025404134765267372, -0.047450583428144455, 0.02166280895471573, -0.0316607728600502, -0.03534078225493431, 0.00817045383155346, -0.04424052685499191, -0.039050161838531494, -0.01525950524955988, -0.0062286462634801865, -0.014489314518868923, -0.014800718985497952, 0.028482677415013313, -0.04016982391476631, 0.03664266690611839, -0.01179224718362093, 0.027594663202762604, 0.021850433200597763, 0.044049859046936035, -0.021797165274620056, -0.04309329763054848, 0.0013927363324910402, -0.033820051699876785, 0.005004240199923515, 0.013024686835706234, -0.0737362653017044, -0.05977573245763779, -0.007098793517798185, 0.0295792855322361, 0.0174446739256382, -0.05069025233387947, -0.026476817205548286, 0.0037085749208927155, -0.04914671555161476, 0.053003862500190735, 0.005290768574923277, -0.01585337147116661, 0.007703096605837345, -0.005788008216768503, -0.056266866624355316, 0.040327753871679306, -0.014229889027774334, -0.05483938753604889, -0.018891265615820885, 0.04287376254796982, 0.03839385509490967, -0.09077706933021545, 0.005999656394124031, 0.004201835487037897, -0.04923754930496216, 0.022406669333577156, -0.010979949496686459, -0.06431015580892563, 0.0006332654738798738, -0.016696764156222343, -0.020709190517663956, 0.05324676260352135, 0.06273486465215683, 0.015030850656330585, -0.02251826599240303, 0.030078502371907234, -0.028824228793382645, -0.059311579912900925, 0.004619563929736614, 0.014831986278295517, 0.02135496586561203, 0.0442059151828289, 0.03715334087610245, -0.04461553692817688, 0.013577379286289215, 